-9.007921069860458374e-02
1.865976154804229736e-01
-4.536459594964981079e-02
-3.729421645402908325e-02
-4.285668581724166870e-02
-2.115936018526554108e-02
3.606662526726722717e-02
-4.514690954238176346e-03
2.263280153274536133e-01
-2.067203223705291748e-01
-1.199362352490425110e-01
8.196233958005905151e-02
9.125863015651702881e-02
3.094840943813323975e-01
-1.456566601991653442e-01
6.482872366905212402e-02
-3.381782472133636475e-01
-8.521294593811035156e-02
-9.393280744552612305e-02
-1.839832812547683716e-01
2.900270186364650726e-02
2.193659394979476929e-01
1.102149188518524170e-01
1.948882341384887695e-01
1.389406025409698486e-01
4.786191135644912720e-02
1.749410480260848999e-01
-1.154488995671272278e-01
9.621870517730712891e-02
1.124345958232879639e-01
1.593950390815734863e-01
-1.072941273450851440e-01
-9.233748167753219604e-02
-3.236294165253639221e-02
1.794265359640121460e-01
-2.022918611764907837e-01
-2.667403779923915863e-02
1.182089745998382568e-01
9.056795388460159302e-03
1.220260336995124817e-01
-5.754439532756805420e-02
1.317391693592071533e-01
3.720273077487945557e-02
-1.298110932111740112e-01
-2.121865600347518921e-01
-1.495626717805862427e-01
9.988433122634887695e-02
3.142437040805816650e-01
1.228123828768730164e-01
6.505747884511947632e-02
9.711229056119918823e-02
-7.776129641570150852e-04
1.827361136674880981e-01
-8.872773498296737671e-02
1.864693462848663330e-01
6.416383385658264160e-02
2.197618782520294189e-01
6.013394519686698914e-02
-6.946927309036254883e-02
-2.304118722677230835e-01
4.295798018574714661e-02
1.670712828636169434e-01
2.675904631614685059e-01
1.366233080625534058e-01
