2.963596284389495850e-01 1.399794667959213257e-01 2.751884423196315765e-02 -1.744106262922286987e-01 1.188925728201866150e-01 7.101364433765411377e-02 -5.115870153531432152e-04 -2.502430081367492676e-01 3.489528596401214600e-01 3.708339035511016846e-01 -1.458601206541061401e-01 1.970194727182388306e-01 1.378440558910369873e-01 2.915728837251663208e-02 4.215930402278900146e-01 -2.945803292095661163e-02 2.023991756141185760e-02 -4.541301354765892029e-02 2.762944698333740234e-01 -3.873998299241065979e-02 1.150317713618278503e-01 2.385824918746948242e-01 6.316962838172912598e-02 -6.389365792274475098e-01 -5.709113925695419312e-02 -5.370954424142837524e-02 -3.492800295352935791e-01 -5.305724218487739563e-02 -9.710408002138137817e-02 1.847999095916748047e-01 -8.898784220218658447e-02 1.533451583236455917e-02 6.938020884990692139e-02 -5.581164266914129257e-03 9.355926886200904846e-03 -9.231176227331161499e-02 -3.441987186670303345e-02 -3.249299824237823486e-01 -1.712806373834609985e-01 -6.830872595310211182e-02 3.427417576313018799e-01 2.023448050022125244e-01 5.229047313332557678e-02 -1.767132431268692017e-01 2.405125647783279419e-01 -9.266483783721923828e-02 3.599396347999572754e-02 -2.626824378967285156e-02 4.196801409125328064e-02 -2.860012352466583252e-01 3.393895328044891357e-01 -1.568663567304611206e-01 -1.437488794326782227e-01 -3.272012993693351746e-02 5.990059301257133484e-02 2.159996032714843750e-01 6.754212826490402222e-02 1.092818155884742737e-01 -5.862971395254135132e-02 2.385495454072952271e-01 4.585000872611999512e-02 -4.158697649836540222e-02 -9.583289921283721924e-02 1.043318510055541992e-01
2.180852182209491730e-02 1.635095924139022827e-01 6.161526590585708618e-02 -7.113989908248186111e-03 1.515863984823226929e-01 -7.042307406663894653e-02 -5.663951113820075989e-02 1.784169226884841919e-01 8.005004376173019409e-02 -4.459023475646972656e-01 5.525706708431243896e-02 -3.072379231452941895e-01 -1.859681494534015656e-02 -1.449572145938873291e-01 -2.635935842990875244e-01 1.183779016137123108e-01 2.326111197471618652e-01 -4.310843944549560547e-01 -7.229233533143997192e-02 4.296723380684852600e-02 9.468402713537216187e-03 3.003951907157897949e-01 -1.207708194851875305e-01 3.002764843404293060e-02 1.746603548526763916e-01 -1.629543900489807129e-01 -1.621583849191665649e-01 6.736785173416137695e-02 7.259844243526458740e-02 -3.681446015834808350e-01 -3.800797760486602783e-01 -5.097175389528274536e-02 2.066966295242309570e-01 3.513544499874114990e-01 7.766111940145492554e-02 4.360888525843620300e-02 -3.289566561579704285e-02 -1.971682012081146240e-01 -1.880158782005310059e-01 3.534470871090888977e-02 1.509004980325698853e-01 -3.724562749266624451e-02 -1.276762597262859344e-02 -1.971247643232345581e-01 -6.671345978975296021e-02 1.498483959585428238e-02 6.631963420659303665e-03 -6.703221797943115234e-02 2.515590935945510864e-02 -3.153275698423385620e-02 1.287738382816314697e-01 -1.478157099336385727e-02 9.640335291624069214e-02 1.848765648901462555e-02 -1.833894550800323486e-01 -1.269846558570861816e-01 -4.592844843864440918e-02 1.448258906602859497e-01 -3.103184103965759277e-01 3.140100538730621338e-01 2.617157101631164551e-01 2.963395118713378906e-01 1.128527447581291199e-01 1.615422070026397705e-01
-3.604276105761528015e-02 1.978962421417236328e-01 -2.194184809923171997e-02 2.489764690399169922e-01 -8.716615289449691772e-02 -1.000258624553680420e-01 1.461395621299743652e-01 7.767294347286224365e-02 -9.440612792968750000e-02 7.747910171747207642e-02 1.670899242162704468e-01 3.394287526607513428e-01 -3.534628152847290039e-01 -3.587013185024261475e-01 3.683058917522430420e-01 -5.272206664085388184e-01 -2.318654060363769531e-01 5.793934222310781479e-03 -1.045411452651023865e-01 8.044190704822540283e-02 -2.253725081682205200e-01 -3.593613803386688232e-01 3.049830794334411621e-01 2.796985805034637451e-01 1.077125370502471924e-01 -1.213537156581878662e-01 -1.464203232899308205e-03 -7.642228156328201294e-02 -6.398457288742065430e-02 -1.818248778581619263e-01 -2.790631651878356934e-01 -2.414751797914505005e-01 -1.873531341552734375e-01 -1.188372895121574402e-01 1.048756465315818787e-01 -9.093269705772399902e-02 -6.907881796360015869e-02 -4.095785617828369141e-01 3.768012672662734985e-02 2.855695188045501709e-01 7.468486577272415161e-02 2.667263150215148926e-01 2.853672504425048828e-01 -2.910239100456237793e-01 -1.875296086072921753e-01 -6.234226003289222717e-02 6.215603649616241455e-02 -1.951584778726100922e-02 1.731793284416198730e-01 2.114826142787933350e-01 -4.581111669540405273e-02 -2.509080991148948669e-02 1.082868054509162903e-01 -1.871656812727451324e-02 6.681906431913375854e-02 -3.178413808345794678e-01 -1.450427621603012085e-01 2.200918942689895630e-01 -2.716877758502960205e-01 1.825473457574844360e-01 -1.482423990964889526e-01 -1.246863976120948792e-01 -9.894321113824844360e-02 -1.785630732774734497e-01
-3.181700706481933594e-01 -8.616074174642562866e-02 2.011848688125610352e-01 5.652985349297523499e-02 -3.420608639717102051e-01 -2.172786742448806763e-02 -2.117708697915077209e-02 3.412040695548057556e-02 8.209207653999328613e-02 -1.730541288852691650e-01 1.647529900074005127e-01 -9.820075333118438721e-02 -2.115623094141483307e-02 -1.419743150472640991e-01 -8.466740250587463379e-01 1.468408703804016113e-01 -4.684958979487419128e-02 -1.389242708683013916e-01 -2.899700775742530823e-02 3.509835898876190186e-01 -1.704128086566925049e-02 1.554226428270339966e-01 1.638324260711669922e-01 3.880077302455902100e-01 4.331777095794677734e-01 1.656503677368164062e-01 2.223891615867614746e-01 1.331908553838729858e-01 6.565691530704498291e-02 7.897870987653732300e-02 -4.076764732599258423e-02 -1.197190210223197937e-01 1.227974221110343933e-01 -2.274265438318252563e-01 4.081456363201141357e-02 7.420304417610168457e-02 -3.969808295369148254e-02 1.575868874788284302e-01 3.977036774158477783e-01 2.756528556346893311e-01 -2.067756354808807373e-01 -4.402522444725036621e-01 1.323360651731491089e-01 -1.979978084564208984e-01 2.731897830963134766e-01 8.457259833812713623e-02 -8.753535151481628418e-02 4.664012417197227478e-02 -1.139153093099594116e-01 3.026752173900604248e-01 4.796931892633438110e-02 -5.779825150966644287e-02 -1.698547005653381348e-01 2.476122789084911346e-02 1.199055090546607971e-01 2.480190694332122803e-01 3.895397111773490906e-02 -2.030140757560729980e-01 -1.822148077189922333e-02 -7.659120112657546997e-02 1.686362922191619873e-01 -4.196675866842269897e-02 7.195591926574707031e-02 -2.043058723211288452e-01
1.097566932439804077e-01 7.624928653240203857e-02 1.956850849092006683e-02 1.400271663442254066e-03 -7.441475987434387207e-03 6.327382475137710571e-02 6.129175424575805664e-02 -1.066990494728088379e-01 -3.021244890987873077e-03 1.107946410775184631e-01 -3.020541369915008545e-01 5.369916930794715881e-02 1.711634993553161621e-01 1.806367933750152588e-01 -4.850280880928039551e-01 7.860382646322250366e-02 2.796087265014648438e-01 2.447867542505264282e-01 3.094680309295654297e-01 5.014992132782936096e-02 -1.536052227020263672e-01 2.484729886054992676e-01 -1.103075370192527771e-01 -2.919035553932189941e-01 5.466962233185768127e-02 8.957347273826599121e-02 2.610497176647186279e-02 -5.026024766266345978e-03 6.420005112886428833e-02 -4.540894553065299988e-02 -1.897308528423309326e-01 3.984250128269195557e-02 -9.567124396562576294e-02 -1.134238764643669128e-01 1.067851111292839050e-01 -1.091860849555814639e-05 -3.427420184016227722e-02 2.989648580551147461e-01 -9.817302227020263672e-02 -3.671573400497436523e-01 -1.798112690448760986e-02 -3.187330663204193115e-01 -1.149594262242317200e-01 2.389891296625137329e-01 -2.025943547487258911e-01 -3.204784914851188660e-02 1.646554917097091675e-01 2.016945555806159973e-02 -1.522800475358963013e-01 -3.050335682928562164e-02 -2.417895495891571045e-01 -2.616018652915954590e-01 9.066542983055114746e-02 6.367255002260208130e-02 1.652148962020874023e-01 1.328371558338403702e-02 3.052230775356292725e-01 7.204459607601165771e-02 6.676374375820159912e-02 6.470584124326705933e-02 1.162019837647676468e-02 -2.015365362167358398e-01 1.183429881930351257e-01 -4.187679849565029144e-03
1.132571250200271606e-01 -3.634778559207916260e-01 1.261339709162712097e-02 -7.927382364869117737e-03 1.090189069509506226e-01 1.082216203212738037e-01 1.350942254066467285e-01 -8.245997130870819092e-02 1.070779263973236084e-01 2.064171433448791504e-02 -4.815841913223266602e-01 -2.752787247300148010e-02 -8.475099690258502960e-03 3.383108079433441162e-01 2.900543212890625000e-01 8.236593008041381836e-02 -6.912226974964141846e-02 -2.658148407936096191e-01 -1.922858655452728271e-01 7.467693835496902466e-02 -5.319259166717529297e-01 8.151863515377044678e-02 -2.307899743318557739e-01 -4.553824290633201599e-02 2.130310237407684326e-01 -8.099775761365890503e-02 1.717733144760131836e-01 7.356733083724975586e-02 -1.400930434465408325e-02 -3.056134795770049095e-03 -1.933618262410163879e-02 6.250002770684659481e-04 -7.576647400856018066e-02 2.280939519405364990e-01 -1.983166113495826721e-02 1.115569844841957092e-01 8.111058175563812256e-02 2.232505530118942261e-01 -5.119059979915618896e-02 5.520348548889160156e-01 -7.888281345367431641e-02 -1.194704547524452209e-01 2.393152415752410889e-01 1.421363949775695801e-01 -1.902743242681026459e-02 9.840296208858489990e-02 1.320605725049972534e-01 7.298070937395095825e-02 -4.322981834411621094e-02 -1.477662567049264908e-02 -8.258743584156036377e-02 -7.136677950620651245e-02 1.862221062183380127e-01 -2.976980060338973999e-02 1.387984603643417358e-01 -2.514324784278869629e-01 -3.275671005249023438e-01 -5.077723786234855652e-02 1.798276454210281372e-01 -8.182003349065780640e-02 2.350232154130935669e-01 2.272485010325908661e-02 -7.616364397108554840e-03 2.905690670013427734e-01
-2.052400708198547363e-01 -5.562731251120567322e-02 1.021035835146903992e-01 1.832174807786941528e-01 2.024624943733215332e-01 -9.349901229143142700e-02 3.597936332225799561e-01 2.072695083916187286e-02 3.847643136978149414e-01 1.254157721996307373e-01 4.941743612289428711e-02 3.915510475635528564e-01 -1.006988715380430222e-02 2.885522693395614624e-02 2.025419622659683228e-01 -7.468044012784957886e-02 -3.496125340461730957e-01 3.052752465009689331e-02 1.111474931240081787e-01 4.865851998329162598e-02 -7.616403698921203613e-02 -1.686067879199981689e-01 1.455380469560623169e-01 2.382236272096633911e-01 -1.368694007396697998e-01 3.438429161906242371e-02 2.280129119753837585e-02 -1.259291619062423706e-01 -4.964153468608856201e-02 -3.818383440375328064e-02 -7.863504439592361450e-02 -2.456332743167877197e-01 -1.776105538010597229e-02 -1.214161664247512817e-01 -1.369319390505552292e-02 -1.058604419231414795e-01 3.875358402729034424e-02 -2.255411744117736816e-01 2.354727238416671753e-01 -1.067961473017930984e-02 -3.190836310386657715e-01 1.537794768810272217e-01 2.569437921047210693e-01 -3.924494609236717224e-02 -4.557265341281890869e-02 2.449752837419509888e-01 1.740430891513824463e-01 -7.541638612747192383e-02 -3.928195685148239136e-02 3.084410130977630615e-01 -4.783776700496673584e-01 -1.504296809434890747e-01 7.664659619331359863e-02 4.714216291904449463e-02 4.003780186176300049e-01 9.636133909225463867e-02 -3.543574810028076172e-01 5.178139731287956238e-02 2.771458216011524200e-02 -6.178423017263412476e-02 -5.529570579528808594e-01 -9.672008454799652100e-02 -5.152341350913047791e-02 2.017112523317337036e-01
1.112766712903976440e-01 1.074653863906860352e-01 7.952284812927246094e-02 6.450407207012176514e-02 8.268268406391143799e-02 -6.723211612552404404e-03 2.059451937675476074e-01 -1.466337591409683228e-01 2.409518361091613770e-01 -6.440921127796173096e-02 6.014571711421012878e-02 2.382430136203765869e-01 1.500813663005828857e-02 2.666739523410797119e-01 6.076557934284210205e-02 -1.421661376953125000e-01 -2.191219180822372437e-01 2.909567654132843018e-01 3.753201067447662354e-01 -3.544079512357711792e-02 1.183784082531929016e-01 -6.944338977336883545e-02 -2.465726807713508606e-02 -9.958402812480926514e-02 2.063892781734466553e-01 -7.155430316925048828e-02 2.663807198405265808e-02 -8.901517838239669800e-03 -4.474496096372604370e-02 3.215430080890655518e-01 1.630924940109252930e-01 -1.487818062305450439e-01 -2.938405871391296387e-01 -1.306836605072021484e-01 9.907445870339870453e-03 2.874794974923133850e-02 4.551468044519424438e-02 -8.820149302482604980e-02 2.320169657468795776e-02 -2.083218693733215332e-01 -2.619896642863750458e-02 3.918629512190818787e-02 4.075033664703369141e-01 1.232314929366111755e-01 1.909166425466537476e-01 -2.184818498790264130e-03 9.415289969183504581e-04 -3.564595431089401245e-02 2.601128518581390381e-01 1.349849104881286621e-01 -1.580302566289901733e-01 -2.233547270298004150e-01 -8.212274988181889057e-04 3.326645120978355408e-03 3.255435824394226074e-01 1.181783303618431091e-01 -1.278213709592819214e-01 1.611566394567489624e-01 -2.326930761337280273e-01 -2.055975347757339478e-01 -4.332513809204101562e-01 -1.315916031599044800e-01 7.708543539047241211e-02 1.319181025028228760e-01
6.377798318862915039e-02 1.264856904745101929e-01 -2.352631539106369019e-01 1.302720606327056885e-01 1.674581021070480347e-01 5.924620479345321655e-02 4.979534819722175598e-02 1.700441539287567139e-01 -6.332209706306457520e-01 -2.773213982582092285e-01 -1.390191614627838135e-01 -8.642385900020599365e-02 -5.403952673077583313e-02 -9.306698292493820190e-02 -1.661177128553390503e-01 1.800111308693885803e-02 2.540921866893768311e-01 1.453883349895477295e-01 -8.443620800971984863e-02 2.031158357858657837e-01 -4.018925726413726807e-01 1.127822026610374451e-01 -9.477001428604125977e-02 9.046242386102676392e-02 -7.180604152381420135e-03 -1.463201791048049927e-01 2.471887171268463135e-01 2.626508474349975586e-01 -2.116525731980800629e-02 -2.316074520349502563e-01 3.146892040967941284e-02 -9.711591154336929321e-02 -2.536267340183258057e-01 -3.720821067690849304e-02 1.158876121044158936e-01 -3.204021230340003967e-02 1.451001595705747604e-02 -1.747146844863891602e-01 -8.168533444404602051e-02 -2.499192357063293457e-01 9.549450129270553589e-03 3.227559104561805725e-02 -2.096501886844635010e-01 -1.654944866895675659e-01 -2.702708542346954346e-01 1.250864416360855103e-01 -2.370776236057281494e-02 6.380445510149002075e-02 -5.075649917125701904e-02 -8.595516532659530640e-02 -3.223008811473846436e-01 7.456935197114944458e-02 1.079842299222946167e-01 5.680049955844879150e-02 1.663214713335037231e-02 -5.249482393264770508e-01 -1.570027023553848267e-01 1.421247869729995728e-01 7.453216612339019775e-02 2.167524397373199463e-01 1.472281664609909058e-01 8.114513009786605835e-02 2.972817048430442810e-02 -1.231708824634552002e-01
2.576116621494293213e-01 7.880876958370208740e-02 -1.727099865674972534e-01 9.037146344780921936e-03 -2.963853776454925537e-01 5.003176629543304443e-02 2.576528787612915039e-01 1.150531321763992310e-02 5.018913149833679199e-01 -1.010693376883864403e-03 -1.332780420780181885e-01 4.438828211277723312e-03 2.860235869884490967e-01 2.891086339950561523e-01 -2.649806737899780273e-01 5.989395081996917725e-02 -1.063440591096878052e-01 5.133617669343948364e-03 4.202940762042999268e-01 -7.207401096820831299e-02 2.777184545993804932e-01 2.207352072000503540e-01 -1.838159114122390747e-01 -8.532344549894332886e-02 1.561027485877275467e-03 -8.769442141056060791e-02 -2.259357646107673645e-02 -1.294740140438079834e-01 -5.861239135265350342e-02 -1.437727212905883789e-01 -2.145128995180130005e-01 -3.521350026130676270e-01 1.401411145925521851e-01 6.834548711776733398e-02 7.147045433521270752e-02 -6.171420216560363770e-03 -1.119241043925285339e-01 1.375719904899597168e-01 2.683348488062620163e-03 -1.402229964733123779e-01 3.488914296030998230e-02 -3.113574981689453125e-01 -1.196988001465797424e-01 -8.481154590845108032e-02 -1.020620241761207581e-01 1.894096434116363525e-01 1.052358672022819519e-01 8.750569075345993042e-02 -5.371737852692604065e-02 -1.575072668492794037e-02 1.317986566573381424e-02 -1.214790716767311096e-01 1.247176453471183777e-01 -3.493830561637878418e-02 -4.703136160969734192e-02 5.639736056327819824e-01 5.517990589141845703e-01 -2.725695967674255371e-01 -8.814318478107452393e-02 -1.634652144275605679e-04 -4.762937128543853760e-02 -3.526638150215148926e-01 -1.589530706405639648e-02 1.179682314395904541e-01
-1.267411373555660248e-02 -1.173559129238128662e-01 1.364812850952148438e-01 -4.482468962669372559e-02 -1.679265499114990234e-01 -4.647340252995491028e-02 -4.717572592198848724e-03 -1.240586191415786743e-01 -1.171673387289047241e-01 5.459057912230491638e-02 1.638411730527877808e-02 -2.121027410030364990e-01 1.952420920133590698e-01 -1.141371950507164001e-01 2.996631264686584473e-01 6.701924651861190796e-02 -7.349091023206710815e-02 2.022767961025238037e-01 -5.076243355870246887e-02 1.193391606211662292e-01 9.530278295278549194e-02 1.255249418318271637e-02 1.027406975626945496e-01 1.728877574205398560e-01 -8.069898933172225952e-02 1.912353001534938812e-02 1.465169340372085571e-01 -1.191824600100517273e-01 7.230579107999801636e-02 2.404227554798126221e-01 4.417885243892669678e-01 5.630254000425338745e-02 -1.716687083244323730e-01 -2.066044658422470093e-01 -3.616660833358764648e-02 6.843984127044677734e-02 1.402218490839004517e-01 9.899035096168518066e-02 4.661156535148620605e-01 -2.001114189624786377e-01 -5.200385674834251404e-02 -8.410068601369857788e-02 -2.534876167774200439e-01 1.501205265522003174e-01 3.280408680438995361e-01 -1.930055767297744751e-01 -4.418614506721496582e-01 1.178947463631629944e-01 -2.340944111347198486e-01 -1.201228424906730652e-01 -1.174748018383979797e-01 -1.399392783641815186e-01 -4.253925979137420654e-01 8.796165883541107178e-02 3.682145178318023682e-01 4.334351420402526855e-02 -7.182025909423828125e-02 -2.168184965848922729e-01 -5.245419591665267944e-02 -2.015631496906280518e-01 -2.851720750331878662e-01 -1.753619015216827393e-01 9.221259504556655884e-02 -5.373988300561904907e-02
6.361597776412963867e-02 1.191305443644523621e-01 -8.215423673391342163e-03 -5.382382497191429138e-02 8.274762332439422607e-02 4.532232135534286499e-02 -8.313043415546417236e-02 -3.275486528873443604e-01 9.795449674129486084e-02 3.267414271831512451e-01 3.737916052341461182e-01 2.364955693483352661e-01 9.166201204061508179e-02 -1.839926391839981079e-01 9.862605482339859009e-02 7.100918889045715332e-02 -9.238296002149581909e-02 -1.028572171926498413e-01 -1.086544394493103027e-01 -1.406976878643035889e-01 3.297885656356811523e-01 -1.628843098878860474e-01 3.721405193209648132e-02 1.125109717249870300e-01 -2.060636878013610840e-01 6.556889275088906288e-05 4.964639246463775635e-02 4.149234294891357422e-02 -8.240535110235214233e-02 1.604621559381484985e-01 -2.908980287611484528e-02 3.690629824995994568e-02 3.232397735118865967e-01 3.366998210549354553e-02 2.425622567534446716e-02 1.043948978185653687e-01 6.654484570026397705e-02 -9.170141071081161499e-02 -1.128762513399124146e-01 3.407727181911468506e-01 2.202061563730239868e-01 8.730256557464599609e-02 -5.125085711479187012e-01 9.594213217496871948e-02 2.022795975208282471e-01 8.549316972494125366e-02 -5.963891372084617615e-02 -6.883195042610168457e-02 1.818263828754425049e-01 -6.518370658159255981e-02 1.922538429498672485e-01 6.720835715532302856e-02 -4.039249569177627563e-02 4.772409796714782715e-02 -7.860689610242843628e-02 2.785497903823852539e-01 3.587964177131652832e-01 1.897974908351898193e-01 2.184650450944900513e-01 1.795967370271682739e-01 1.148199662566184998e-01 -6.506905704736709595e-02 4.088897630572319031e-02 -3.672336339950561523e-01
1.227198317646980286e-01 -6.695402413606643677e-02 -1.261027455329895020e-01 -1.614091843366622925e-01 6.917639076709747314e-02 -2.143121324479579926e-02 -1.563681215047836304e-01 1.441648346371948719e-03 -6.540027856826782227e-01 1.559943556785583496e-01 -7.097785174846649170e-02 5.638747289776802063e-02 4.321472644805908203e-01 -1.795285344123840332e-01 9.425940364599227905e-02 1.511202286928892136e-02 5.314397811889648438e-02 3.524587750434875488e-01 -3.345539569854736328e-01 1.806921511888504028e-01 -5.232323408126831055e-01 2.231845706701278687e-01 4.301987960934638977e-02 -3.496364653110504150e-01 -1.113600507378578186e-01 1.633165478706359863e-01 2.260963320732116699e-01 1.484220325946807861e-01 -3.685884922742843628e-02 -5.936684831976890564e-02 3.045495152473449707e-01 1.300494074821472168e-01 2.982266843318939209e-01 3.389452770352363586e-02 -4.681723937392234802e-02 1.371869444847106934e-02 6.606342643499374390e-02 3.491586446762084961e-02 -1.125560104846954346e-01 7.332441955804824829e-02 2.269882857799530029e-01 1.265621781349182129e-01 -1.138148009777069092e-01 1.498250365257263184e-01 -2.958372235298156738e-01 -4.492623507976531982e-01 -3.003985285758972168e-01 -1.009708493947982788e-01 -1.110904570668935776e-02 -1.817227303981781006e-01 2.192485332489013672e-01 2.034516930580139160e-01 -5.152426287531852722e-02 9.937556833028793335e-02 -2.497852146625518799e-01 -4.128219559788703918e-02 9.547477960586547852e-02 3.122731745243072510e-01 1.464244574308395386e-01 -1.172280311584472656e-01 1.806478351354598999e-01 3.849377855658531189e-02 -1.643197238445281982e-02 -2.114148139953613281e-01
-2.470286935567855835e-01 2.314591258764266968e-01 2.773450314998626709e-01 2.276694178581237793e-01 -1.207023411989212036e-01 6.816776469349861145e-03 -1.203296408057212830e-01 6.010169629007577896e-03 -1.938108652830123901e-01 1.125608757138252258e-02 3.187450468540191650e-01 -4.869223758578300476e-02 -4.648071825504302979e-01 -2.876506149768829346e-01 1.621393412351608276e-01 -1.053259968757629395e-01 -1.123931184411048889e-01 -1.606739014387130737e-01 -5.402778089046478271e-02 2.394652739167213440e-02 -2.753100357949733734e-02 -3.484300896525382996e-02 1.324894726276397705e-01 3.356623947620391846e-01 -2.538053989410400391e-01 2.967240810394287109e-01 1.775377094745635986e-01 -5.258015822619199753e-03 5.036731064319610596e-02 1.290830969810485840e-01 1.686174273490905762e-01 -1.808257102966308594e-01 -7.453806698322296143e-03 -2.005622833967208862e-01 6.725885905325412750e-03 -1.197953941300511360e-03 -7.903665537014603615e-04 -2.031720578670501709e-01 3.092814981937408447e-01 2.144877612590789795e-01 7.104425132274627686e-02 2.535885572433471680e-01 -1.498119831085205078e-01 -1.486283987760543823e-01 2.017264254391193390e-03 1.186594888567924500e-01 -4.463512450456619263e-02 -4.626831039786338806e-02 -3.934761136770248413e-02 1.409582048654556274e-01 -2.439278960227966309e-01 9.358754754066467285e-02 1.304161399602890015e-01 5.315531790256500244e-02 1.107980608940124512e-01 -2.043452300131320953e-02 -6.580661237239837646e-02 -1.295764893293380737e-01 -5.052196979522705078e-02 1.594524644315242767e-02 -6.833588331937789917e-02 1.961149573326110840e-01 -1.125717014074325562e-01 -1.176638603210449219e-01
7.586316019296646118e-02 1.689959764480590820e-01 -3.582588955760002136e-02 1.426058262586593628e-02 1.895321905612945557e-01 -4.491896182298660278e-02 1.964655965566635132e-01 -5.443163961172103882e-02 3.616107702255249023e-01 -4.961194843053817749e-02 -1.106155738234519958e-01 1.894960552453994751e-01 1.230681911110877991e-01 2.371231317520141602e-01 -3.371618092060089111e-01 2.268811017274856567e-01 1.698058843612670898e-01 -1.637479662895202637e-01 3.796528577804565430e-01 -1.463693082332611084e-01 1.152400225400924683e-01 2.931150197982788086e-01 5.719509720802307129e-02 8.213304728269577026e-02 4.508048668503761292e-02 -1.512853801250457764e-01 -1.448992788791656494e-01 -1.741563826799392700e-01 -8.463366329669952393e-02 9.412011131644248962e-03 -1.944890469312667847e-01 -1.634192615747451782e-01 4.616059362888336182e-02 4.345947504043579102e-01 -5.874675139784812927e-02 5.585375800728797913e-02 -6.740879034623503685e-04 -7.612919807434082031e-02 -1.697558462619781494e-01 -7.042108178138732910e-01 -8.850900828838348389e-02 -2.668689787387847900e-01 -1.548885852098464966e-01 2.587166149169206619e-03 -1.235795617103576660e-01 1.840666234493255615e-01 3.241365849971771240e-01 7.843618094921112061e-02 1.028976142406463623e-01 1.559604853391647339e-01 -1.223254352807998657e-01 8.944807201623916626e-02 1.664965301752090454e-01 1.021913513541221619e-01 -6.397271156311035156e-02 1.012123599648475647e-01 1.974738202989101410e-02 1.171281412243843079e-01 -3.890801072120666504e-01 5.968933179974555969e-02 -1.089958772063255310e-01 1.002095937728881836e-01 1.100819185376167297e-01 3.021703660488128662e-01
4.914748072624206543e-01 -5.747393891215324402e-02 2.310723215341567993e-01 -1.202476173639297485e-01 -3.211155235767364502e-01 -1.134262606501579285e-01 5.328145995736122131e-02 -1.655337810516357422e-01 3.594990074634552002e-01 -3.143222630023956299e-02 1.152391433715820312e-01 1.257498264312744141e-01 9.937120974063873291e-02 8.321645110845565796e-02 2.315697968006134033e-01 4.022657871246337891e-02 1.505724042654037476e-01 1.167941242456436157e-01 1.079262942075729370e-01 -1.299535017460584641e-02 2.250668406486511230e-01 1.647742837667465210e-01 -2.495680749416351318e-02 -1.623928360641002655e-02 1.367584168910980225e-01 -2.853521704673767090e-01 -3.900350332260131836e-01 -1.262023597955703735e-01 6.681655347347259521e-02 7.630741596221923828e-02 -2.175413668155670166e-01 1.560732424259185791e-01 -1.811425760388374329e-02 5.941225215792655945e-02 5.551339685916900635e-02 -3.676223754882812500e-02 -1.403901446610689163e-02 -2.876117825508117676e-01 -2.126560807228088379e-01 3.301456868648529053e-01 8.023686707019805908e-03 -7.809381932020187378e-02 4.932963252067565918e-01 -2.307398915290832520e-01 -1.525362953543663025e-02 2.605245113372802734e-01 -2.600106894969940186e-01 3.157026600092649460e-03 -9.097303450107574463e-02 9.197533130645751953e-02 -1.389488577842712402e-01 8.891867846250534058e-02 -1.582850366830825806e-01 7.513601332902908325e-02 -1.567610949277877808e-01 1.792566776275634766e-01 1.166398152709007263e-01 1.766572743654251099e-01 -1.311171650886535645e-01 -9.524520486593246460e-02 2.140187770128250122e-01 -1.803809255361557007e-01 2.059690840542316437e-02 -1.086641568690538406e-02
-6.244551856070756912e-03 -1.861425340175628662e-01 1.659040898084640503e-01 -2.118474803864955902e-03 1.641784161329269409e-01 -6.998088955879211426e-02 -1.019952669739723206e-01 -2.934792339801788330e-01 3.908219933509826660e-02 -1.605411916971206665e-01 8.264527469873428345e-02 1.225306242704391479e-01 7.580529153347015381e-02 5.337210837751626968e-03 -1.311554014682769775e-01 2.755534648895263672e-01 -5.183789506554603577e-02 4.142517969012260437e-02 -1.688234061002731323e-01 1.935882866382598877e-01 5.880146101117134094e-02 1.394550055265426636e-01 -2.560797380283474922e-03 2.147698551416397095e-01 -4.226746857166290283e-01 1.613353788852691650e-01 1.629000306129455566e-01 -6.249039620161056519e-02 -5.725634098052978516e-02 3.254943788051605225e-01 -5.304552614688873291e-02 -2.682858109474182129e-01 -5.395277962088584900e-02 -2.452212423086166382e-01 -6.712260097265243530e-02 -9.320020675659179688e-03 4.281601682305335999e-02 2.626399099826812744e-01 4.033312499523162842e-01 1.023349687457084656e-01 2.534923851490020752e-01 -4.547317326068878174e-01 3.552002906799316406e-01 1.676883548498153687e-01 3.816716969013214111e-01 -5.559004098176956177e-02 -1.192112937569618225e-01 6.444837152957916260e-02 -1.652941256761550903e-01 2.412687614560127258e-02 -1.729872673749923706e-01 1.445366740226745605e-01 -1.433277726173400879e-01 -1.033236384391784668e-01 1.021386496722698212e-02 8.639224618673324585e-02 8.157043159008026123e-02 -2.080342769622802734e-01 9.724518656730651855e-02 -4.550772309303283691e-01 -1.953197121620178223e-01 -2.279470562934875488e-01 -1.044578999280929565e-01 2.644059993326663971e-02
2.249691337347030640e-01 -1.970530897378921509e-01 1.430389285087585449e-01 -1.160830259323120117e-01 1.254717260599136353e-01 1.034727767109870911e-01 -4.319315776228904724e-02 1.559192985296249390e-01 -2.267456054687500000e-02 -5.498244985938072205e-02 2.347748875617980957e-01 -1.616976708173751831e-01 8.060111664235591888e-03 1.322956383228302002e-01 1.374106481671333313e-02 2.441171258687973022e-01 2.300717681646347046e-01 8.016735315322875977e-02 7.259649038314819336e-02 2.280032187700271606e-01 -2.023113891482353210e-02 2.992206513881683350e-01 1.063650846481323242e-01 -5.059474613517522812e-03 5.117169022560119629e-01 1.784778237342834473e-01 -1.356408894062042236e-01 -1.919711828231811523e-01 -1.156203001737594604e-01 1.668206751346588135e-01 3.356932401657104492e-01 -1.230054255574941635e-02 -1.035956963896751404e-01 1.943179070949554443e-01 1.170272082090377808e-01 6.394489668309688568e-03 -1.396574918180704117e-02 1.130708605051040649e-01 2.587498426437377930e-01 1.242118999361991882e-01 2.201102375984191895e-01 -5.487188696861267090e-01 -3.541760742664337158e-01 1.371942758560180664e-01 1.887348890304565430e-01 -3.223568573594093323e-02 -2.837748527526855469e-01 -4.131915420293807983e-02 -1.977562010288238525e-01 -1.566692143678665161e-01 3.168887272477149963e-02 2.410285323858261108e-01 -1.992213279008865356e-01 2.704931423068046570e-02 1.358302086591720581e-01 1.205328106880187988e-01 1.652950793504714966e-01 -2.108299285173416138e-01 1.837412081658840179e-02 -1.172590702772140503e-01 -9.025099128484725952e-02 -1.130375787615776062e-01 5.619195476174354553e-02 -1.276161372661590576e-01
-2.623177831992506981e-03 -4.771931469440460205e-02 -2.477636635303497314e-01 -2.665525674819946289e-01 -6.894505023956298828e-02 -2.447316050529479980e-02 1.023780740797519684e-02 -1.122116819024085999e-01 -8.193363249301910400e-02 3.218244910240173340e-01 -1.477754414081573486e-01 -1.304187532514333725e-02 4.371339976787567139e-01 1.317998915910720825e-01 -5.250515788793563843e-02 1.612444967031478882e-01 8.639157563447952271e-02 -2.896255999803543091e-02 -3.385584056377410889e-01 -1.149256750941276550e-01 -5.002640485763549805e-01 1.761927455663681030e-01 -8.139600604772567749e-02 -6.087766885757446289e-01 -3.042936623096466064e-01 2.840918600559234619e-01 1.197787523269653320e-01 -6.938506662845611572e-02 4.576691985130310059e-02 4.727196879684925079e-03 -4.335970059037208557e-02 2.372668087482452393e-01 2.092397361993789673e-01 2.889569699764251709e-01 -5.661889910697937012e-02 -1.141244322061538696e-01 -6.249052286148071289e-02 3.094951994717121124e-02 -1.586860418319702148e-01 -1.482718884944915771e-01 1.618918031454086304e-01 -9.079220890998840332e-02 -2.435593903064727783e-01 -1.022056210786104202e-02 -3.709831088781356812e-02 -5.036817789077758789e-01 2.033722214400768280e-02 -1.052909195423126221e-01 1.961714029312133789e-01 -3.697980344295501709e-01 -1.252754218876361847e-02 1.695404499769210815e-01 -3.317514359951019287e-01 1.130519807338714600e-02 4.477516561746597290e-02 -2.328348308801651001e-01 -1.564461439847946167e-01 1.805685609579086304e-01 1.396102458238601685e-02 9.368501603603363037e-02 1.382427215576171875e-01 3.519903123378753662e-02 4.602873325347900391e-02 6.729032099246978760e-02
-1.248737610876560211e-02 -3.079524636268615723e-02 2.187545448541641235e-01 -1.215238869190216064e-01 -2.501341998577117920e-01 -6.255558691918849945e-03 1.749901026487350464e-01 -9.056682139635086060e-02 7.144380807876586914e-01 -6.016118451952934265e-03 5.580241978168487549e-02 1.726529896259307861e-01 1.578816175460815430e-01 -3.778191283345222473e-02 6.578838825225830078e-02 2.567691169679164886e-02 -1.095139309763908386e-01 -7.162275165319442749e-02 -5.208526551723480225e-02 3.224809467792510986e-02 5.591351985931396484e-01 -1.545957326889038086e-01 1.504816263914108276e-01 -7.319691032171249390e-02 2.450078427791595459e-01 5.990540608763694763e-02 -3.380844295024871826e-01 -1.905766427516937256e-01 4.198927059769630432e-02 2.591077983379364014e-01 -2.160411030054092407e-01 1.551418285816907883e-02 4.746797680854797363e-02 -1.920880377292633057e-01 -1.157423704862594604e-01 -1.144960820674896240e-01 5.900278314948081970e-02 3.917439281940460205e-02 1.332653462886810303e-01 6.107204556465148926e-01 1.973621249198913574e-01 -1.326995342969894409e-01 4.119874238967895508e-01 -1.285685896873474121e-01 1.331610381603240967e-01 -1.116021275520324707e-01 -1.362554430961608887e-01 1.754563115537166595e-02 -9.469603002071380615e-02 1.509377211332321167e-01 1.559360176324844360e-01 2.142051309347152710e-01 -4.005720466375350952e-02 -4.007630422711372375e-02 -1.290568858385086060e-01 5.510137677192687988e-01 1.502494066953659058e-01 1.230869675055146217e-03 -1.162349805235862732e-01 -3.170971274375915527e-01 1.119851619005203247e-01 -1.814956814050674438e-01 -1.045767962932586670e-01 4.475696757435798645e-02
-2.235643863677978516e-01 -7.177583128213882446e-02 1.907341331243515015e-01 6.293437629938125610e-02 4.527674987912178040e-02 -7.885497808456420898e-02 -2.140878587961196899e-01 2.017140574753284454e-02 -4.264509677886962891e-01 1.547829657793045044e-01 1.421217322349548340e-01 -2.190460115671157837e-01 1.951846033334732056e-01 -2.661079168319702148e-01 3.592590689659118652e-01 3.443440794944763184e-02 5.731761455535888672e-02 3.820560574531555176e-01 -7.336704432964324951e-02 2.206411808729171753e-01 4.642593115568161011e-02 7.793561369180679321e-02 1.651760488748550415e-01 1.467001140117645264e-01 -1.899980590678751469e-03 5.594824254512786865e-02 6.978835910558700562e-02 -3.744605462998151779e-03 4.590740799903869629e-02 8.474297821521759033e-02 3.687958419322967529e-01 2.662783861160278320e-01 5.474112927913665771e-03 -1.995312124490737915e-01 7.131350040435791016e-02 -1.063204780220985413e-01 8.865843713283538818e-02 1.213714405894279480e-01 1.486256867647171021e-01 1.752179563045501709e-01 1.945391669869422913e-02 1.318048983812332153e-01 -3.103944957256317139e-01 -2.989681810140609741e-02 1.375753432512283325e-01 -5.396667718887329102e-01 -1.846274584531784058e-01 8.614675700664520264e-02 2.002621442079544067e-02 -2.348719239234924316e-01 3.554376661777496338e-01 1.938558518886566162e-01 -1.295167952775955200e-01 8.571641892194747925e-02 -5.424381420016288757e-02 1.801799386739730835e-01 -1.082837730646133423e-01 3.810594230890274048e-02 -7.189758121967315674e-02 -7.695202529430389404e-02 2.052622288465499878e-01 1.973667880520224571e-03 4.598575457930564880e-02 -4.004563093185424805e-01
-2.242745161056518555e-01 2.666228450834751129e-02 -1.842823326587677002e-01 -3.279864192008972168e-01 2.800963819026947021e-01 9.305873513221740723e-02 -5.000401660799980164e-02 -1.153302863240242004e-01 2.966400235891342163e-02 3.288276493549346924e-01 4.001329541206359863e-01 2.158466428518295288e-01 -4.738412052392959595e-02 1.311969310045242310e-01 3.604833483695983887e-01 -2.597691118717193604e-01 -5.632339119911193848e-01 7.388266175985336304e-02 5.302788689732551575e-03 -2.919211685657501221e-01 1.794444173574447632e-01 -3.035790026187896729e-01 2.776971161365509033e-01 -1.872956901788711548e-01 -6.567305326461791992e-02 -1.272080838680267334e-01 -2.178118675947189331e-01 -7.459638640284538269e-03 -1.012217625975608826e-01 -2.541801333427429199e-02 3.653142452239990234e-01 2.651539742946624756e-01 9.370544552803039551e-02 -9.576155245304107666e-02 -4.111488536000251770e-02 9.828417748212814331e-02 8.240977674722671509e-02 -4.826931357383728027e-01 -4.153696894645690918e-01 2.634523212909698486e-01 6.187687441706657410e-02 2.386217266321182251e-01 1.148640811443328857e-01 1.909027993679046631e-01 2.771507017314434052e-02 -1.986516267061233521e-01 8.950150758028030396e-02 -6.456840783357620239e-02 2.383004277944564819e-01 -1.801724545657634735e-02 -9.863575547933578491e-02 1.763547658920288086e-01 -1.685652285814285278e-01 -7.390491664409637451e-02 1.780709028244018555e-01 3.703675866127014160e-01 -2.758200764656066895e-01 1.331135164946317673e-03 1.008700430393218994e-01 8.340645581483840942e-02 -4.932501912117004395e-01 4.367597773671150208e-02 -2.446507336571812630e-03 -8.971688896417617798e-02
2.622321546077728271e-01 5.236019566655158997e-02 -9.381730854511260986e-02 -8.797776885330677032e-03 -1.364104002714157104e-01 2.339140512049198151e-02 1.965676993131637573e-01 -1.057187467813491821e-02 -2.706704735755920410e-01 -1.951735913753509521e-01 -1.865466237068176270e-01 4.721534550189971924e-01 3.424163460731506348e-01 -5.734752118587493896e-02 1.866885721683502197e-01 -4.021061658859252930e-01 6.760118156671524048e-02 1.537983268499374390e-01 1.512731462717056274e-01 -1.207298189401626587e-01 -5.579605698585510254e-01 2.065399475395679474e-02 -2.453108876943588257e-01 -2.981598079204559326e-01 3.891697851940989494e-03 6.988792121410369873e-02 7.268754392862319946e-02 8.302234858274459839e-02 -6.009126827120780945e-02 -1.912157386541366577e-01 -2.561051249504089355e-01 -1.096878498792648315e-01 1.788246817886829376e-02 -8.848439157009124756e-02 7.239721715450286865e-02 -1.118115037679672241e-01 9.665606170892715454e-02 -5.907766520977020264e-02 -1.420030444860458374e-01 -2.278207540512084961e-01 -5.381034016609191895e-01 3.347975909709930420e-01 3.075014054775238037e-01 -1.023532152175903320e-01 -5.343443751335144043e-01 1.134094148874282837e-01 -7.985197752714157104e-02 -4.315695166587829590e-02 2.931729145348072052e-02 -1.191000193357467651e-01 -1.714036762714385986e-01 -5.015410482883453369e-02 1.228574477136135101e-02 1.036637574434280396e-01 4.021363332867622375e-02 -3.374077081680297852e-01 1.196205317974090576e-01 2.246811985969543457e-01 2.407932281494140625e-01 -1.897608162835240364e-03 -4.387129843235015869e-02 -3.898516595363616943e-01 -1.103631854057312012e-01 -4.847197607159614563e-02
1.648759543895721436e-01 -1.632921583950519562e-02 8.231180906295776367e-02 3.477519750595092773e-02 -1.848114430904388428e-01 1.066077500581741333e-01 -1.808403879404067993e-01 -2.570229768753051758e-01 -2.505958676338195801e-01 -1.291653513908386230e-01 2.935482561588287354e-02 3.231590986251831055e-02 4.868139326572418213e-02 -4.415648877620697021e-01 5.643925070762634277e-01 -1.521276216953992844e-02 6.950547546148300171e-02 1.288197785615921021e-01 -1.532693207263946533e-01 8.084569126367568970e-02 -6.776256859302520752e-02 -6.647681444883346558e-02 2.424959093332290649e-01 1.844626367092132568e-01 3.097756206989288330e-01 9.033355861902236938e-02 -8.159394562244415283e-02 -8.033802360296249390e-02 5.380195751786231995e-02 7.749056816101074219e-02 7.186728715896606445e-02 9.938165545463562012e-02 -2.006244957447052002e-01 -1.991339176893234253e-01 4.052057920489460230e-04 -7.520952075719833374e-02 -8.708887733519077301e-03 -2.209355123341083527e-03 3.500971794128417969e-01 3.791941106319427490e-01 -8.554095774888992310e-02 3.251475989818572998e-01 8.269706368446350098e-02 -4.525718465447425842e-02 2.608706057071685791e-01 -9.939853101968765259e-02 -3.225015103816986084e-01 -9.776176512241363525e-02 2.828780114650726318e-01 -1.222944930195808411e-01 2.576072812080383301e-01 -1.062937229871749878e-01 -1.150913462042808533e-01 -6.836894154548645020e-02 -5.553599819540977478e-02 -1.880633234977722168e-01 -1.741219162940979004e-01 2.254417836666107178e-01 1.487735807895660400e-01 -1.433214545249938965e-01 1.267530471086502075e-01 8.589997887611389160e-02 1.061237826943397522e-01 -2.568364441394805908e-01
2.509069144725799561e-01 -4.001048803329467773e-01 2.766336128115653992e-02 9.052202105522155762e-02 -4.211434349417686462e-02 -1.296996474266052246e-01 -1.692009270191192627e-01 1.545563526451587677e-02 -1.611060202121734619e-01 -8.705608546733856201e-02 -3.125006258487701416e-01 -8.461884409189224243e-02 1.814874410629272461e-01 1.386397751048207283e-03 -2.258839458227157593e-01 1.337742060422897339e-01 1.646251231431961060e-01 -8.870966732501983643e-02 -9.231963008642196655e-02 -6.853345781564712524e-02 -3.468151092529296875e-01 1.959895640611648560e-01 -2.291466295719146729e-01 -5.094321370124816895e-01 1.058895885944366455e-01 3.853062912821769714e-02 1.083376631140708923e-02 1.128510013222694397e-01 3.901045769453048706e-02 -4.273190498352050781e-01 -2.510584890842437744e-01 2.630681693553924561e-01 9.458764456212520599e-03 2.344292551279067993e-01 3.029681509360671043e-03 6.122833490371704102e-02 6.247721612453460693e-02 3.588209673762321472e-02 -6.285143494606018066e-01 3.059946298599243164e-01 1.911603361368179321e-01 1.352100670337677002e-01 -1.539328247308731079e-01 -1.836935430765151978e-01 -3.348017334938049316e-01 1.840289235115051270e-01 5.281780660152435303e-02 -1.960698701441287994e-02 1.937450617551803589e-01 7.288075238466262817e-02 -6.329125910997390747e-02 1.946041435003280640e-01 1.732396483421325684e-01 -6.144443154335021973e-02 -4.742989540100097656e-01 -1.351646035909652710e-01 2.230379730463027954e-02 1.094690635800361633e-01 1.090718358755111694e-01 -1.678855270147323608e-01 3.773546814918518066e-01 -3.286708891391754150e-02 3.826797381043434143e-02 2.239321172237396240e-01
-1.949669867753982544e-01 1.188452616333961487e-01 -4.212216734886169434e-01 8.497429080307483673e-03 2.355019748210906982e-01 -1.231849193572998047e-02 1.245893463492393494e-01 2.610142901539802551e-02 -1.606117188930511475e-01 1.251777559518814087e-01 1.531780213117599487e-01 6.299482285976409912e-02 8.709815889596939087e-02 2.046622782945632935e-01 1.654639542102813721e-01 -1.195034384727478027e-01 -3.896427452564239502e-01 -2.445719242095947266e-01 -3.922268748283386230e-01 -2.305270135402679443e-01 -5.197613313794136047e-02 -9.765581041574478149e-02 5.039423108100891113e-01 3.283953666687011719e-01 4.097498655319213867e-01 6.524623930454254150e-02 -2.329732105135917664e-02 6.692535430192947388e-02 -1.283928658813238144e-02 5.457677692174911499e-02 2.355978786945343018e-01 2.712379992008209229e-01 9.801406413316726685e-02 -1.108535453677177429e-01 -4.471074417233467102e-02 5.412023141980171204e-02 -9.403395652770996094e-02 -2.474658936262130737e-01 2.248603701591491699e-01 3.121068328619003296e-02 -3.474828600883483887e-01 9.175900369882583618e-02 2.675099484622478485e-02 6.041805073618888855e-02 -1.167603954672813416e-01 -7.694060355424880981e-02 5.220538750290870667e-02 1.429117918014526367e-01 5.119452476501464844e-01 -2.899441719055175781e-01 -1.846299916505813599e-01 -2.360696196556091309e-01 -1.231278330087661743e-01 8.732763677835464478e-02 -1.660725027322769165e-01 -2.106507867574691772e-01 1.466337740421295166e-01 1.258684694766998291e-01 -2.499456331133842468e-02 4.884591326117515564e-02 5.155669525265693665e-02 1.376914381980895996e-01 6.203893572092056274e-02 -2.541970312595367432e-01
-4.058382511138916016e-01 -8.785703778266906738e-02 -1.156929433345794678e-01 -2.848102711141109467e-03 1.400762051343917847e-01 7.483711093664169312e-02 1.882132589817047119e-01 -1.629101634025573730e-01 -8.316052705049514771e-02 -1.934850215911865234e-01 -3.268871605396270752e-01 1.089781373739242554e-01 1.944109052419662476e-01 2.457192987203598022e-01 1.216550469398498535e-01 4.901717975735664368e-02 2.662717923521995544e-02 1.616002917289733887e-01 2.965658903121948242e-01 8.668383955955505371e-02 -3.898077830672264099e-02 2.261008918285369873e-01 2.294768989086151123e-01 2.718666791915893555e-01 1.975239068269729614e-01 -2.299958840012550354e-02 1.891913563013076782e-01 5.869263783097267151e-02 1.216060146689414978e-01 1.331217139959335327e-01 2.856596410274505615e-01 1.547148525714874268e-01 -2.319356501102447510e-01 -1.926186531782150269e-01 -6.108035892248153687e-02 -1.187881454825401306e-02 -3.192838281393051147e-02 4.392591491341590881e-02 3.026423156261444092e-01 -4.824507534503936768e-01 -2.341930568218231201e-01 -3.711451962590217590e-02 -2.742637097835540771e-01 2.786691784858703613e-01 1.385499238967895508e-01 -3.139918297529220581e-02 3.285804018378257751e-02 -8.466634154319763184e-02 1.303993314504623413e-01 -5.456284806132316589e-02 -4.451626837253570557e-01 -6.280590593814849854e-02 -2.363419234752655029e-01 2.948242239654064178e-02 1.380648612976074219e-01 -3.803173452615737915e-02 -1.395691484212875366e-01 6.199925020337104797e-02 2.932077273726463318e-02 -4.284503683447837830e-02 -3.585402369499206543e-01 5.467467010021209717e-02 2.070933394134044647e-02 -8.665571361780166626e-02
-4.769670218229293823e-02 -6.421819329261779785e-02 -1.907185763120651245e-01 -1.292345225811004639e-01 -6.921657919883728027e-02 1.166536882519721985e-01 1.284977197647094727e-01 -2.747742459177970886e-02 2.758958935737609863e-01 -7.957865297794342041e-02 2.274399548768997192e-01 5.331454798579216003e-02 3.178797662258148193e-01 3.309808969497680664e-01 1.707032322883605957e-01 -1.180995479226112366e-01 -9.108973294496536255e-02 4.151211678981781006e-02 9.988266974687576294e-02 4.316299036145210266e-02 -1.117675825953483582e-01 1.688162833452224731e-01 2.381228804588317871e-01 9.167016297578811646e-02 6.373079419136047363e-01 3.851390630006790161e-02 -6.651123613119125366e-02 -1.790222078561782837e-01 -4.635464027523994446e-02 3.370163440704345703e-01 1.278517693281173706e-01 2.687201499938964844e-01 1.370162367820739746e-01 -1.934055835008621216e-01 1.109964698553085327e-01 5.463473498821258545e-02 -7.847040146589279175e-02 -2.069540917873382568e-01 4.462708532810211182e-01 -2.497597187757492065e-01 -3.426391482353210449e-01 -9.013830684125423431e-03 -1.176973283290863037e-01 1.269533038139343262e-01 -6.290967762470245361e-02 1.330672651529312134e-01 -1.897611767053604126e-01 1.177929714322090149e-01 3.505548238754272461e-01 -1.985962986946105957e-01 7.527405023574829102e-02 -1.418409496545791626e-01 -7.172876596450805664e-02 -4.496802389621734619e-02 -9.773050248622894287e-02 2.656265795230865479e-01 4.348075389862060547e-02 -1.241926327347755432e-01 -3.339293599128723145e-01 6.283346097916364670e-03 1.674753031693398952e-03 -1.199336200952529907e-01 1.076984032988548279e-01 -2.020105123519897461e-01
-2.149942219257354736e-01 1.601798534393310547e-01 1.333688646554946899e-01 7.413072139024734497e-02 -3.720411658287048340e-02 -1.232939660549163818e-01 -9.362719953060150146e-02 2.376711368560791016e-01 -1.390179097652435303e-01 -2.871128916740417480e-01 -9.607000276446342468e-03 -1.212728098034858704e-01 -1.840550005435943604e-01 1.238937377929687500e-01 -3.291342258453369141e-01 4.538738727569580078e-02 7.721604406833648682e-02 3.295744955539703369e-02 3.706934452056884766e-01 1.911971420049667358e-01 2.226076126098632812e-01 8.785463869571685791e-02 3.562899306416511536e-02 -5.702628195285797119e-02 3.977679088711738586e-02 6.693758815526962280e-02 1.462022811174392700e-01 1.385562121868133545e-01 4.833916574716567993e-02 -2.151878327131271362e-01 1.230162009596824646e-01 8.497339487075805664e-02 -1.401195675134658813e-01 -6.794419884681701660e-02 -1.255915164947509766e-01 -4.781871568411588669e-03 8.379823528230190277e-03 1.075945124030113220e-01 3.706666827201843262e-02 -3.200848698616027832e-01 5.210476741194725037e-02 -1.155509948730468750e-01 -9.698718041181564331e-02 -6.560461968183517456e-02 2.121934443712234497e-01 -8.191993087530136108e-02 6.717382371425628662e-02 1.108183190226554871e-01 -1.924305111169815063e-01 3.176887053996324539e-03 -2.945361435413360596e-01 1.122524738311767578e-01 -5.673475563526153564e-02 3.108498454093933105e-02 2.382637262344360352e-01 -9.765908867120742798e-02 -4.651329666376113892e-02 -2.101525515317916870e-01 -2.768798172473907471e-01 -4.857260733842849731e-03 -1.271929889917373657e-01 1.557010412216186523e-01 -1.163212582468986511e-01 -2.351464703679084778e-03
-1.444315165281295776e-02 1.120861694216728210e-01 4.276184737682342529e-01 1.997289061546325684e-01 -3.191522359848022461e-01 -2.035990916192531586e-02 1.343649327754974365e-01 2.383859306573867798e-01 3.203774988651275635e-01 -1.022844836115837097e-01 3.189329802989959717e-01 -1.477886885404586792e-01 -1.035142242908477783e-01 -2.997560203075408936e-01 -1.068657860159873962e-01 -1.399109214544296265e-01 -1.223059520125389099e-01 -1.215985342860221863e-01 5.219109728932380676e-02 1.382320970296859741e-01 3.245608210563659668e-01 -2.304579317569732666e-01 -5.663710460066795349e-02 1.200451776385307312e-01 -3.697814345359802246e-01 7.623255997896194458e-02 1.018255949020385742e-01 -2.781542483717203140e-03 1.589247607626020908e-03 -2.067830413579940796e-01 3.563673049211502075e-02 -2.505424022674560547e-01 3.102347850799560547e-01 -3.265427052974700928e-02 -9.909930825233459473e-02 1.680187508463859558e-02 8.519782871007919312e-02 -3.484092280268669128e-02 -9.979745000600814819e-02 4.803484976291656494e-01 -5.567532777786254883e-02 -3.924848139286041260e-02 9.884322434663772583e-02 -2.577982842922210693e-01 4.306564480066299438e-02 1.786189228296279907e-01 4.388775676488876343e-02 1.114829108119010925e-01 -8.781162649393081665e-02 3.582893908023834229e-01 2.194983512163162231e-01 1.444772034883499146e-01 9.091169387102127075e-02 5.273885652422904968e-02 9.529968723654747009e-03 6.247026324272155762e-01 3.664630651473999023e-01 -3.429086506366729736e-01 3.900977596640586853e-02 5.707575380802154541e-02 2.762885205447673798e-02 -1.121201813220977783e-01 -1.592236384749412537e-02 -2.921773307025432587e-02
-3.628941252827644348e-02 4.470644518733024597e-02 1.695037186145782471e-01 -2.367631532251834869e-02 -1.938062608242034912e-01 -9.553584456443786621e-02 -4.115786403417587280e-02 3.630562219768762589e-03 -5.356394052505493164e-01 -3.596084713935852051e-01 -5.678430199623107910e-02 1.538041532039642334e-01 3.522562682628631592e-01 -3.630850017070770264e-01 -9.860608726739883423e-02 -1.554446518421173096e-01 3.143930435180664062e-01 2.534236572682857513e-02 3.602196648716926575e-02 5.426960997283458710e-03 -3.345670104026794434e-01 -3.439522683620452881e-01 1.736121624708175659e-02 -2.442307397723197937e-02 4.527118802070617676e-01 1.095036268234252930e-01 1.355251669883728027e-01 1.364676505327224731e-01 2.243215590715408325e-02 -5.139793157577514648e-01 -1.962835192680358887e-01 1.247569248080253601e-01 -8.780896663665771484e-02 5.022210627794265747e-02 -8.217293024063110352e-02 9.874205291271209717e-02 -5.582000315189361572e-02 -2.099272608757019043e-01 3.317727446556091309e-01 1.627296954393386841e-01 -2.297406047582626343e-01 1.738518625497817993e-01 -7.460162788629531860e-02 -4.158877730369567871e-01 -1.135857850313186646e-01 1.622562259435653687e-01 -2.855102419853210449e-01 -5.344820767641067505e-02 2.796279788017272949e-01 7.343970239162445068e-02 1.352052837610244751e-01 -6.544407457113265991e-02 1.005810685455799103e-02 6.883315742015838623e-03 4.250478930771350861e-03 -2.787204980850219727e-01 4.533723741769790649e-02 1.544249653816223145e-01 8.944483101367950439e-02 3.833133354783058167e-02 2.034484893083572388e-01 1.403042674064636230e-02 -3.315727785229682922e-02 4.552957788109779358e-02
2.750276327133178711e-01 -1.564194411039352417e-01 1.588155776262283325e-01 -9.165248274803161621e-02 1.739906221628189087e-01 -8.394783735275268555e-02 -3.214523568749427795e-02 7.866311818361282349e-02 -8.983743935823440552e-02 -9.401595592498779297e-02 2.803536355495452881e-01 -9.839842468500137329e-02 -1.286775320768356323e-01 -5.937217921018600464e-02 3.238263130187988281e-01 7.120438665151596069e-02 -1.100248098373413086e-01 -2.464630901813507080e-01 -2.202644497156143188e-01 -2.076173424720764160e-01 -9.324010461568832397e-02 -1.129991486668586731e-01 1.140155568718910217e-01 2.684458792209625244e-01 2.393410773947834969e-03 1.061476543545722961e-01 -8.845115453004837036e-02 2.540053986012935638e-02 2.823741361498832703e-02 5.818891525268554688e-02 3.639445900917053223e-01 4.589579533785581589e-03 1.465800404548645020e-01 -8.831727318465709686e-03 -2.049252390861511230e-02 -5.771607160568237305e-02 1.093900874257087708e-01 -8.849470317363739014e-02 -8.926239609718322754e-02 1.680710166692733765e-01 1.180879399180412292e-01 -1.299666911363601685e-01 7.107303291559219360e-02 1.788099557161331177e-01 5.240949243307113647e-02 -1.415720134973526001e-01 -1.341042220592498779e-01 1.185360848903656006e-01 -2.362562157213687897e-02 -6.088117882609367371e-02 -1.777030527591705322e-01 2.240058183670043945e-01 -1.398457735776901245e-01 -8.681736141443252563e-02 3.254366666078567505e-02 -1.736560761928558350e-01 2.277561426162719727e-01 -3.246921673417091370e-02 -7.283966243267059326e-02 -1.943042129278182983e-01 5.555938929319381714e-02 -8.307416737079620361e-02 1.181738972663879395e-01 -3.226007893681526184e-02
-1.351758539676666260e-01 1.217811033129692078e-01 -6.187653914093971252e-02 -4.473939538002014160e-03 -9.296888019889593124e-04 6.261832080781459808e-03 -7.791380584239959717e-02 1.816059499979019165e-01 6.848885416984558105e-01 -1.760745607316493988e-02 6.087854877114295959e-02 1.478228271007537842e-01 -6.613186746835708618e-02 -4.687676578760147095e-02 -3.284434080123901367e-01 -4.788520187139511108e-02 -5.322977527976036072e-02 -2.358265519142150879e-01 -6.088219955563545227e-02 1.071917638182640076e-02 1.520033329725265503e-01 -2.759131491184234619e-01 1.316468566656112671e-01 -4.355583339929580688e-02 -1.918773502111434937e-01 -1.124725490808486938e-01 -2.300117164850234985e-01 -7.159784436225891113e-02 -1.253816187381744385e-01 -1.587551087141036987e-01 -2.709123790264129639e-01 -1.411748528480529785e-01 -1.078674644231796265e-01 6.332629173994064331e-02 1.021825596690177917e-01 -2.063111960887908936e-02 8.527696877717971802e-02 -1.376698017120361328e-01 1.256890445947647095e-01 -1.529065966606140137e-01 7.605772465467453003e-02 -1.255963444709777832e-01 2.236538529396057129e-01 -1.927976459264755249e-01 -5.226157233119010925e-02 4.591091349720954895e-02 -7.549034059047698975e-02 1.429164707660675049e-01 -5.299482122063636780e-02 1.863655052147805691e-03 1.872360408306121826e-01 1.723930239677429199e-02 1.284254193305969238e-01 4.759920015931129456e-02 -1.252035200595855713e-01 2.955249547958374023e-01 1.433092504739761353e-01 -6.480439752340316772e-02 -3.497664034366607666e-01 2.439063489437103271e-01 -2.074290663003921509e-01 -4.910494014620780945e-02 7.812561094760894775e-02 -2.784011662006378174e-01
3.991371989250183105e-01 -3.227325156331062317e-02 2.030599564313888550e-01 2.906429767608642578e-01 -9.200392663478851318e-02 -5.655400827527046204e-02 -1.275390237569808960e-01 2.209151238203048706e-01 1.993536502122879028e-01 -7.744527608156204224e-02 3.833267604932188988e-03 -1.578848510980606079e-01 -4.555176496505737305e-01 -6.814662367105484009e-02 3.947916924953460693e-01 7.867304235696792603e-02 -1.715017706155776978e-01 4.680579877458512783e-05 1.939077675342559814e-02 -2.629280984401702881e-01 9.757309406995773315e-02 -4.797952249646186829e-02 1.224815100431442261e-02 -4.006187897175550461e-03 -1.507495194673538208e-01 9.627582132816314697e-02 -2.481672763824462891e-01 -4.532786011695861816e-01 -8.701421320438385010e-02 -1.509328633546829224e-01 -2.102756947278976440e-01 -3.092440366744995117e-01 -2.378132045269012451e-01 -1.557617485523223877e-01 8.438422530889511108e-02 3.433405607938766479e-02 -6.384250521659851074e-02 -2.513552904129028320e-01 -3.304030895233154297e-01 2.358933985233306885e-01 1.410806179046630859e-01 1.514434367418289185e-01 1.917214244604110718e-01 -3.666766285896301270e-01 9.893713146448135376e-02 1.094980984926223755e-01 4.454768076539039612e-02 5.336011946201324463e-02 9.484891779720783234e-03 -8.993087708950042725e-02 3.200606405735015869e-01 2.754977047443389893e-01 -4.434890672564506531e-02 -4.532673209905624390e-02 2.120666056871414185e-01 2.131626158952713013e-01 -6.127905473113059998e-02 -9.210226684808731079e-02 -1.223833784461021423e-01 1.264364868402481079e-01 -6.694471091032028198e-02 -6.782633811235427856e-02 1.299946289509534836e-02 -4.444329068064689636e-02
-4.429948627948760986e-01 1.890518516302108765e-01 -5.937313288450241089e-02 -9.853712283074855804e-03 1.701692342758178711e-01 -2.084659598767757416e-02 6.383509933948516846e-02 8.299821615219116211e-02 -2.914781309664249420e-02 -4.045853763818740845e-02 1.245451122522354126e-01 2.212876379489898682e-01 -6.766743957996368408e-02 2.053331211209297180e-02 -1.228742301464080811e-01 -1.673482954502105713e-01 -2.795158326625823975e-01 -1.262679845094680786e-01 1.456133723258972168e-01 -4.703680798411369324e-02 2.526471205055713654e-02 -1.168690472841262817e-01 -9.403504431247711182e-02 1.979105919599533081e-01 -3.520576357841491699e-01 -2.761743776500225067e-02 1.066498681902885437e-01 2.233561426401138306e-01 1.850831508636474609e-02 -2.893571853637695312e-01 -1.631064563989639282e-01 -2.083952426910400391e-01 2.175176143646240234e-01 -1.060068607330322266e-02 8.132340386509895325e-03 -8.039219677448272705e-02 -8.329100906848907471e-03 -4.242994487285614014e-01 1.979098916053771973e-01 -2.230491191148757935e-01 -2.172681242227554321e-01 2.470366097986698151e-02 -4.032351374626159668e-01 -1.667506098747253418e-01 -5.919170379638671875e-02 6.498306989669799805e-02 -5.220118165016174316e-02 2.719984017312526703e-02 2.344809770584106445e-01 2.674608528614044189e-01 -1.118411794304847717e-01 2.390727028250694275e-02 1.425110846757888794e-01 -8.642441034317016602e-02 1.190196871757507324e-01 6.319239735603332520e-02 -8.260290324687957764e-02 2.943093180656433105e-01 9.130834788084030151e-02 2.684658765792846680e-01 -1.448105424642562866e-01 1.279297173023223877e-01 -2.950799278914928436e-02 -1.316207647323608398e-01
-6.528648734092712402e-02 -1.287384182214736938e-01 1.149433851242065430e-02 -3.832908570766448975e-01 1.547517329454421997e-01 -8.088952302932739258e-02 -1.766512244939804077e-01 -1.748602539300918579e-01 1.593385785818099976e-01 4.672452434897422791e-02 8.731970191001892090e-02 3.057228326797485352e-01 1.772668063640594482e-01 -7.486776262521743774e-02 -1.525797098875045776e-01 1.642918586730957031e-01 1.210086867213249207e-01 8.077662438154220581e-02 -3.697642982006072998e-01 -2.462894767522811890e-01 -1.268197149038314819e-01 1.495876610279083252e-01 6.628037989139556885e-02 -4.707691967487335205e-01 8.687424659729003906e-02 -6.663565337657928467e-02 1.170990150421857834e-02 1.739405095577239990e-01 -3.937782347202301025e-02 2.088953927159309387e-02 -4.645802453160285950e-02 3.107359409332275391e-01 1.412145644426345825e-01 6.438021063804626465e-01 8.185698091983795166e-02 4.339098930358886719e-03 -8.745867013931274414e-02 1.571431942284107208e-02 -1.825285255908966064e-01 3.823671936988830566e-01 1.363762468099594116e-01 -3.007574081420898438e-01 3.437731415033340454e-02 -4.746824502944946289e-02 2.036867290735244751e-01 -1.571867614984512329e-01 -3.242174685001373291e-01 6.468090415000915527e-02 2.908983528614044189e-01 -9.875970333814620972e-02 -9.694524109363555908e-02 1.525578927248716354e-02 -8.416125923395156860e-02 -7.807318866252899170e-02 -2.998890280723571777e-01 -1.737443655729293823e-01 -6.577251106500625610e-02 2.528620958328247070e-01 1.696670204401016235e-01 5.852635577321052551e-02 7.435993850231170654e-02 -2.810041792690753937e-02 3.571318089962005615e-02 -1.408764719963073730e-01
3.748253583908081055e-01 1.555788964033126831e-01 2.570700645446777344e-01 1.486519575119018555e-01 -1.988762021064758301e-01 3.959069401025772095e-02 2.304415255784988403e-01 2.314573973417282104e-01 4.273039400577545166e-01 2.789734303951263428e-02 1.760856360197067261e-01 -1.901842057704925537e-01 -3.160812258720397949e-01 1.972731500864028931e-01 -1.415780745446681976e-02 -1.456904858350753784e-01 2.581224739551544189e-01 -1.437559425830841064e-01 2.664675116539001465e-01 -3.339066356420516968e-02 1.433384567499160767e-01 1.106778979301452637e-01 -1.692595630884170532e-01 -6.475636735558509827e-03 -2.163216285407543182e-02 -1.075652763247489929e-01 -2.427767664194107056e-01 -2.921166121959686279e-01 -1.823380775749683380e-02 -1.328971683979034424e-01 -4.319161772727966309e-01 -3.196718990802764893e-01 -1.056326329708099365e-01 -1.149098128080368042e-01 1.047833263874053955e-01 -3.154230490326881409e-02 1.064540371298789978e-01 -3.440141677856445312e-02 -1.530682295560836792e-01 -2.198976697400212288e-03 3.978949785232543945e-02 -1.070985421538352966e-01 8.554252237081527710e-02 -7.132659852504730225e-02 -2.852804958820343018e-02 1.775315850973129272e-01 2.262933403253555298e-01 -1.445845216512680054e-01 -4.388213157653808594e-02 7.172044366598129272e-02 8.230746537446975708e-02 2.830947041511535645e-01 5.948770418763160706e-02 2.435850165784358978e-02 -1.578980386257171631e-01 1.907177083194255829e-02 -5.645869299769401550e-02 -1.926017403602600098e-01 -5.582580566406250000e-01 7.780361338518559933e-04 3.229769691824913025e-02 -1.636628508567810059e-01 8.301042020320892334e-02 1.464506387710571289e-01
1.309886127710342407e-01 -8.599675260484218597e-03 -1.996742933988571167e-01 -1.069282814860343933e-01 1.519107669591903687e-01 -5.339558795094490051e-02 2.017402797937393188e-01 -1.085298806428909302e-01 -4.462102949619293213e-01 3.036439418792724609e-01 -2.913073599338531494e-01 9.575529955327510834e-03 1.744870841503143311e-01 1.284599602222442627e-01 4.154133610427379608e-03 -3.065295517444610596e-01 1.429162919521331787e-01 4.567740559577941895e-01 1.867075562477111816e-01 -1.881803572177886963e-01 -4.616347253322601318e-01 1.204646006226539612e-01 -1.521508842706680298e-01 -4.591086879372596741e-02 -3.278774395585060120e-02 -1.625147648155689240e-02 8.982119709253311157e-02 2.286992967128753662e-01 -9.722550958395004272e-02 5.050168558955192566e-02 2.040476799011230469e-01 7.365850359201431274e-02 -3.335340321063995361e-02 -1.643307507038116455e-01 -1.768664107657968998e-03 -8.697673678398132324e-02 -4.277887195348739624e-02 2.737626433372497559e-01 -1.362245827913284302e-01 -3.606348335742950439e-01 -2.304309755563735962e-01 7.783947885036468506e-02 -2.374864555895328522e-02 2.842792272567749023e-01 -2.172165662050247192e-01 9.414242953062057495e-02 -1.032892167568206787e-01 -2.407398307695984840e-03 5.694949999451637268e-03 -2.136741578578948975e-01 -3.139424324035644531e-01 -3.400930166244506836e-01 1.061310321092605591e-01 -8.886649459600448608e-02 1.466093808412551880e-01 -1.501351147890090942e-01 1.429313123226165771e-01 1.967601329088211060e-01 1.973815858364105225e-01 3.437226405367255211e-04 -1.421315968036651611e-01 -8.852180838584899902e-02 -3.849004209041595459e-02 3.348936885595321655e-02
-1.605447381734848022e-01 6.571751087903976440e-02 -3.339426219463348389e-02 1.357347071170806885e-01 -1.178947626613080502e-03 -1.618735119700431824e-02 1.881774067878723145e-01 1.587233878672122955e-02 -2.846421599388122559e-01 -4.023813009262084961e-01 -3.505760133266448975e-01 9.156844764947891235e-02 -1.198594123125076294e-01 6.716277450323104858e-02 1.448631137609481812e-01 8.157959580421447754e-02 4.457968100905418396e-02 -1.408875435590744019e-01 4.948686063289642334e-02 3.384345769882202148e-02 -2.985562682151794434e-01 3.934699296951293945e-01 4.297141358256340027e-02 2.832085192203521729e-01 1.206573545932769775e-01 3.703100606799125671e-02 4.736583679914474487e-02 1.394065767526626587e-01 -5.309924110770225525e-02 9.562551230192184448e-02 3.387068957090377808e-02 -1.538428068161010742e-01 -4.186519682407379150e-01 -2.297242134809494019e-01 -8.487226814031600952e-02 -7.825866341590881348e-03 -2.584766224026679993e-02 -1.441725492477416992e-01 1.864545494318008423e-01 -2.040829062461853027e-01 -4.712119400501251221e-01 1.250005960464477539e-01 2.929361462593078613e-01 -9.771987795829772949e-03 4.557118937373161316e-02 3.272402659058570862e-02 1.533882021903991699e-01 4.378822445869445801e-02 3.348980844020843506e-02 1.169063746929168701e-01 -3.872509300708770752e-01 -7.311628013849258423e-02 -1.728546023368835449e-01 -1.200311705470085144e-01 1.426078528165817261e-01 -5.223390460014343262e-01 -7.306922078132629395e-01 1.071841791272163391e-01 -1.916063725948333740e-01 6.045257207006216049e-03 -4.298011362552642822e-01 2.103365212678909302e-02 9.529475867748260498e-02 1.195456013083457947e-01
7.079977076500654221e-03 2.085225135087966919e-01 -2.302316129207611084e-01 -9.449882805347442627e-02 1.780389249324798584e-01 4.911771416664123535e-02 -8.455196022987365723e-02 -8.064666390419006348e-02 -2.926965057849884033e-01 -5.062781274318695068e-02 -1.944523155689239502e-01 -5.726265534758567810e-02 3.516422212123870850e-02 -1.701558828353881836e-01 1.130998283624649048e-01 3.247897326946258545e-01 9.342008084058761597e-02 2.810788750648498535e-01 1.884172670543193817e-02 2.603283710777759552e-02 -1.870800554752349854e-01 1.653964519500732422e-01 8.057472109794616699e-02 1.172362267971038818e-01 -3.138515353202819824e-02 1.192980483174324036e-01 7.036966085433959961e-02 6.177395582199096680e-02 -4.036154597997665405e-02 -8.975292742252349854e-02 -7.357314229011535645e-03 2.732484936714172363e-01 2.578438259661197662e-02 5.088794231414794922e-01 -6.890785694122314453e-02 6.541760265827178955e-02 1.005736887454986572e-01 -1.019855067133903503e-01 -1.935444772243499756e-01 -3.463075757026672363e-01 1.440145969390869141e-01 7.582400739192962646e-02 -4.548557400703430176e-01 1.683717221021652222e-02 -1.477178335189819336e-01 1.169038042426109314e-01 1.999043375253677368e-01 7.545805722475051880e-02 -1.886874437332153320e-02 -5.896842852234840393e-02 -3.247143328189849854e-01 -2.468283921480178833e-01 -3.446646407246589661e-02 1.203044652938842773e-01 2.984465658664703369e-02 -2.966758012771606445e-01 2.468166351318359375e-01 1.250881105661392212e-01 -1.240381523966789246e-01 8.395078033208847046e-02 -6.556416302919387817e-02 8.629471808671951294e-02 4.715374112129211426e-02 9.690660983324050903e-02
-1.955024302005767822e-01 -2.991078235208988190e-02 -3.943450748920440674e-02 -2.957640960812568665e-02 1.365362852811813354e-01 -7.672847062349319458e-02 -2.937599830329418182e-02 3.982640802860260010e-03 3.702339231967926025e-01 3.563298285007476807e-01 1.027653068304061890e-01 1.179975271224975586e-01 2.669703960418701172e-01 4.313773512840270996e-01 -2.401333600282669067e-01 1.643622070550918579e-01 -1.890225559473037720e-01 3.242297843098640442e-02 1.890798360109329224e-01 1.817965358495712280e-01 2.911595404148101807e-01 1.342194527387619019e-01 9.039610624313354492e-02 -1.749398410320281982e-01 -2.339474260807037354e-01 1.660804152488708496e-01 2.106796018779277802e-03 6.517179310321807861e-02 1.585536636412143707e-03 2.232371643185615540e-02 3.275831937789916992e-01 -4.279700666666030884e-02 1.579713672399520874e-01 -3.594731912016868591e-02 3.038407675921916962e-02 -1.201163530349731445e-01 -2.124482393264770508e-02 -4.171860590577125549e-02 -2.893902361392974854e-03 -2.871392965316772461e-01 2.274151295423507690e-01 -2.769798934459686279e-01 1.118942201137542725e-01 1.554604321718215942e-01 1.153777763247489929e-01 -2.538634538650512695e-01 1.880615800619125366e-01 4.852930083870887756e-02 -5.455237813293933868e-03 -3.518073856830596924e-01 -3.446595072746276855e-01 2.940308302640914917e-02 -1.311847269535064697e-01 1.103994846343994141e-01 1.668924093246459961e-02 3.892973065376281738e-01 -2.357583045959472656e-01 -6.435449421405792236e-02 1.418452262878417969e-01 6.550852209329605103e-02 -1.745262444019317627e-01 6.967467814683914185e-02 -1.617981120944023132e-03 3.453047201037406921e-02
2.668491601943969727e-01 2.517876029014587402e-01 2.575655579566955566e-01 1.402708739042282104e-01 -1.502627879381179810e-01 7.093024253845214844e-02 -1.788190305233001709e-01 -8.193440735340118408e-02 -3.882009983062744141e-01 -7.511761039495468140e-02 -1.072230711579322815e-01 -1.648683995008468628e-01 -1.700918674468994141e-01 -3.201415240764617920e-01 1.402083784341812134e-01 -5.225265398621559143e-02 1.770746260881423950e-01 4.141249656677246094e-01 2.928093373775482178e-01 1.002246364951133728e-01 -1.970401778817176819e-02 -1.911004036664962769e-01 4.355425015091896057e-02 -1.389852613210678101e-01 1.444393992424011230e-01 -2.660384774208068848e-01 1.199478060007095337e-01 -7.239083200693130493e-02 -4.340865463018417358e-02 3.034229762852191925e-02 1.625923067331314087e-01 2.043636590242385864e-01 -2.220492511987686157e-01 -1.317487508058547974e-01 2.096358314156532288e-02 -2.749234251677989960e-02 9.427352994680404663e-02 6.101260427385568619e-03 -9.040204435586929321e-02 2.430190294981002808e-01 -2.290735766291618347e-02 1.537652760744094849e-01 -4.327353239059448242e-01 -1.787576079368591309e-01 2.132032513618469238e-01 -1.739472299814224243e-01 -1.098816096782684326e-01 -7.013327628374099731e-02 -2.398661971092224121e-01 -3.571133315563201904e-02 3.116228580474853516e-01 1.266478002071380615e-01 -1.363516133278608322e-02 -9.565997123718261719e-02 1.050646752119064331e-01 4.539970308542251587e-02 1.329970955848693848e-01 -1.218488663434982300e-01 -1.368052214384078979e-01 1.678352653980255127e-01 -2.887309715151786804e-02 -1.081823185086250305e-01 -2.173447608947753906e-02 -2.154288738965988159e-01
1.476947218179702759e-01 1.322572492063045502e-02 3.260532021522521973e-01 3.001698665320873260e-02 -2.621670812368392944e-02 -1.200044751167297363e-01 -2.436666041612625122e-01 -2.722200155258178711e-01 -2.092429697513580322e-01 -6.026366725564002991e-02 -1.185231208801269531e-01 -3.929857909679412842e-01 2.320559173822402954e-01 -4.141132831573486328e-01 2.815423905849456787e-01 -2.465908229351043701e-02 1.532308310270309448e-01 3.983101248741149902e-01 2.122360318899154663e-01 -9.845611639320850372e-03 2.327392995357513428e-01 -1.186863854527473450e-01 -5.721167544834315777e-04 9.383583068847656250e-02 -9.113664738833904266e-03 9.785968065261840820e-02 8.159871399402618408e-02 -1.440240293741226196e-01 -2.380731701850891113e-02 2.065493166446685791e-01 1.234758794307708740e-01 1.822099834680557251e-02 -1.948397159576416016e-01 -2.527379691600799561e-01 -9.671084582805633545e-02 1.033842563629150391e-03 4.531331732869148254e-02 -8.110686205327510834e-03 1.553399562835693359e-01 -1.580637544393539429e-01 1.639341749250888824e-02 3.319200277328491211e-01 -3.456084728240966797e-01 -8.651767671108245850e-02 2.430392801761627197e-01 -5.492463707923889160e-01 -3.400200903415679932e-01 -4.137974977493286133e-02 -1.055614501237869263e-01 -1.059884056448936462e-01 1.133068352937698364e-01 -1.907196454703807831e-02 -1.269637197256088257e-01 1.067178249359130859e-01 1.505873054265975952e-01 1.785974949598312378e-01 -9.084621071815490723e-02 -2.431992292404174805e-01 -1.329921069554984570e-03 -1.844521760940551758e-01 9.106654673814773560e-02 -1.231300085783004761e-01 7.838094234466552734e-02 -3.332321941852569580e-01
-2.002843320369720459e-01 -2.524252533912658691e-01 -1.420596390962600708e-01 -2.116341888904571533e-01 8.168523758649826050e-02 -1.193299591541290283e-01 -1.182840839028358459e-01 3.095128387212753296e-02 -1.612470000982284546e-01 -1.125167235732078552e-01 8.177389204502105713e-02 6.349465996026992798e-02 4.558550938963890076e-02 -1.519049853086471558e-01 -7.590538263320922852e-02 -7.467702031135559082e-02 -9.188880212604999542e-03 5.098385736346244812e-02 -2.192879170179367065e-01 -9.410259127616882324e-02 -2.623801827430725098e-01 -5.428655818104743958e-02 3.204597393050789833e-03 -2.028877735137939453e-01 5.935323983430862427e-02 -1.416780799627304077e-01 1.650962531566619873e-01 7.319669425487518311e-02 1.143311336636543274e-01 -6.509243696928024292e-02 -8.797761797904968262e-02 1.299049109220504761e-01 1.763956397771835327e-01 -6.969615817070007324e-02 7.242127507925033569e-02 5.145248770713806152e-02 -1.253484636545181274e-01 1.868863999843597412e-01 -2.045094668865203857e-01 5.136223137378692627e-02 -1.629251241683959961e-01 -1.533419638872146606e-01 -2.323126494884490967e-01 -2.420545667409896851e-01 6.870388984680175781e-02 -2.338896691799163818e-01 3.834599256515502930e-02 2.105084061622619629e-02 7.583212852478027344e-02 -1.222345232963562012e-01 -1.548636108636856079e-01 -1.573437005281448364e-01 -1.573674008250236511e-02 1.104964762926101685e-01 -5.028067156672477722e-02 1.170044913887977600e-01 -4.197383821010589600e-01 4.894398897886276245e-02 -7.570683211088180542e-02 -2.887484431266784668e-01 1.662162691354751587e-01 -5.751265585422515869e-02 1.079021021723747253e-01 7.464177906513214111e-02
-3.063104152679443359e-01 -8.929475396871566772e-02 7.906502485275268555e-02 -6.542810238897800446e-03 9.677413105964660645e-02 -3.604296222329139709e-02 1.308391988277435303e-01 -1.480700224637985229e-01 1.317081302404403687e-01 -3.054838776588439941e-01 -1.431535184383392334e-01 1.554203331470489502e-01 3.399983346462249756e-01 -1.763872951269149780e-01 1.151542663574218750e-01 -8.833060855977237225e-04 -1.611493378877639771e-01 1.027649566531181335e-01 -7.408033311367034912e-02 2.092571407556533813e-01 -2.165592908859252930e-01 2.497041225433349609e-01 1.066801771521568298e-01 2.974525988101959229e-01 -4.139144346117973328e-02 9.089615941047668457e-02 8.435631543397903442e-02 -1.168726161122322083e-01 5.244646221399307251e-02 1.640283763408660889e-01 1.710895895957946777e-01 -1.432042270898818970e-01 -2.218350023031234741e-01 -3.775215148925781250e-01 -3.761072829365730286e-02 -1.512052677571773529e-02 1.941516064107418060e-02 2.885326445102691650e-01 6.886618137359619141e-01 -2.412359267473220825e-01 -1.988698691129684448e-01 -1.067461073398590088e-01 2.535240724682807922e-02 1.631635278463363647e-01 2.690971195697784424e-01 8.589564263820648193e-02 -2.923047542572021484e-01 1.462178025394678116e-02 -1.156563609838485718e-01 1.807570010423660278e-01 -1.786723583936691284e-01 -1.279111653566360474e-01 -3.320615738630294800e-02 -6.713513284921646118e-02 2.356901168823242188e-01 9.648998826742172241e-02 1.346306800842285156e-01 -2.788455411791801453e-02 1.644516587257385254e-01 -1.411128230392932892e-02 -2.697856128215789795e-01 -2.843147814273834229e-01 4.865607619285583496e-02 -6.575071066617965698e-02
4.731717705726623535e-01 -3.793575167655944824e-01 3.939644247293472290e-02 6.047609075903892517e-02 -3.889960702508687973e-03 6.569085270166397095e-02 -8.721716701984405518e-02 -1.193499416112899780e-01 3.248625397682189941e-01 3.840762376785278320e-02 6.200988590717315674e-02 -8.553998172283172607e-02 3.387181162834167480e-01 2.366255074739456177e-01 1.737265139818191528e-01 -1.318989247083663940e-01 -1.855811849236488342e-02 2.442686818540096283e-02 -3.677656650543212891e-01 -1.203211545944213867e-01 -1.443685740232467651e-01 6.058327853679656982e-02 -2.424421310424804688e-01 -2.624514997005462646e-01 2.227076441049575806e-01 -6.175151467323303223e-02 6.514674425125122070e-02 -9.962243027985095978e-03 9.126366674900054932e-02 5.720257014036178589e-02 3.794734552502632141e-02 -5.001342296600341797e-02 4.131082072854042053e-02 2.508724033832550049e-01 1.071161478757858276e-01 -4.465888440608978271e-02 4.845591261982917786e-02 1.394167244434356689e-01 -1.815241575241088867e-01 2.539436817169189453e-01 1.109454855322837830e-01 -1.224032565951347351e-01 5.270683765411376953e-01 -7.246395200490951538e-02 5.231496691703796387e-02 7.049395889043807983e-02 -5.965596064925193787e-02 4.168487340211868286e-02 -7.058831304311752319e-02 2.271038293838500977e-01 1.806772947311401367e-01 -3.704768419265747070e-02 7.169048488140106201e-02 1.764637045562267303e-02 -2.102671712636947632e-01 -2.196251302957534790e-01 -2.122785151004791260e-02 9.138394147157669067e-03 1.483329236507415771e-01 -3.521912498399615288e-03 3.522135317325592041e-01 -1.946510970592498779e-01 -7.971590757369995117e-02 2.232358157634735107e-01
-4.102261066436767578e-01 -1.086723953485488892e-01 -5.765307545661926270e-01 -2.145749777555465698e-01 1.150042489171028137e-01 -6.243225932121276855e-02 1.967469751834869385e-01 -3.435713425278663635e-02 9.758827090263366699e-02 7.349458428507205099e-06 -1.345072835683822632e-01 3.302991688251495361e-01 1.841166019439697266e-01 1.336144804954528809e-01 2.863060235977172852e-01 -1.351827681064605713e-01 -3.333275914192199707e-01 -2.306185215711593628e-01 -2.285099476575851440e-01 -2.219997346401214600e-01 -1.507034599781036377e-01 -4.350252076983451843e-02 3.124746680259704590e-01 1.861775964498519897e-01 2.939638495445251465e-01 6.868210434913635254e-02 4.335879907011985779e-02 1.370360106229782104e-01 -4.063981398940086365e-02 1.205511484295129776e-02 3.997172415256500244e-02 1.059399768710136414e-01 9.383376687765121460e-02 -7.069925963878631592e-02 2.553838677704334259e-02 -8.417839556932449341e-02 -6.691341847181320190e-02 -1.057939529418945312e-01 1.388577967882156372e-01 1.537298411130905151e-01 -6.234645843505859375e-01 1.070121079683303833e-01 8.461240679025650024e-02 2.623187936842441559e-02 -1.968779116868972778e-01 4.758320748805999756e-02 1.753243654966354370e-01 1.174787059426307678e-01 5.028582811355590820e-01 1.051816865801811218e-01 6.772086024284362793e-02 -3.787334263324737549e-01 1.339235752820968628e-01 -3.799982368946075439e-02 -2.823639661073684692e-02 -2.261329591274261475e-01 -3.060570955276489258e-01 4.664182960987091064e-01 1.833252161741256714e-01 1.927538365125656128e-01 5.812954530119895935e-02 1.072916984558105469e-01 -2.756173163652420044e-02 -2.857857383787631989e-02
-4.374334216117858887e-01 1.276742517948150635e-01 -3.839265555143356323e-02 -6.311526894569396973e-02 1.846451126039028168e-02 7.624332606792449951e-02 6.315172463655471802e-02 1.289799213409423828e-01 -4.232321977615356445e-01 -1.646771430969238281e-01 -5.396129563450813293e-02 -4.866096749901771545e-02 4.001956433057785034e-02 2.271323464810848236e-02 1.269933879375457764e-01 -2.483029291033744812e-02 1.045341417193412781e-01 2.309083491563796997e-01 2.563066482543945312e-01 1.001954078674316406e-01 2.563806474208831787e-01 1.676443219184875488e-01 2.437466382980346680e-01 2.415733486413955688e-01 1.378973126411437988e-01 8.588597923517227173e-02 7.034345716238021851e-02 3.831599652767181396e-02 -6.828957796096801758e-02 3.939345106482505798e-02 3.257800638675689697e-01 5.128578469157218933e-02 -1.563057154417037964e-01 -8.081603795289993286e-02 -2.508357353508472443e-02 9.171687811613082886e-02 -1.153474003076553345e-01 -9.884836524724960327e-02 5.002214312553405762e-01 -6.354926824569702148e-01 -8.200602233409881592e-02 7.258825004100799561e-02 -4.182209968566894531e-01 -4.275178164243698120e-02 1.742822676897048950e-01 -1.160623431205749512e-01 -5.712446570396423340e-02 -6.942125409841537476e-02 -6.865365058183670044e-02 -1.417245864868164062e-01 -2.126695066690444946e-01 2.683851122856140137e-02 -1.026191711425781250e-01 6.269875168800354004e-02 8.717994391918182373e-02 -1.262735128402709961e-01 5.011013895273208618e-02 -2.041123956441879272e-01 -7.444513589143753052e-02 8.874598145484924316e-02 -2.228236794471740723e-01 1.744471043348312378e-01 -1.017327606678009033e-02 -2.331590503454208374e-01
2.024982124567031860e-01 1.320040524005889893e-01 6.751191616058349609e-02 -8.842609822750091553e-02 2.391053587198257446e-01 1.106703057885169983e-01 -4.133290648460388184e-01 1.236518025398254395e-01 -2.453320026397705078e-01 2.468072026968002319e-01 2.216392010450363159e-02 -1.439356058835983276e-01 7.334443926811218262e-02 -4.782546684145927429e-02 2.944384813308715820e-01 1.265541464090347290e-01 1.234957426786422729e-01 2.187224179506301880e-01 2.976071536540985107e-01 -1.164663061499595642e-01 6.552774459123611450e-02 -5.078630149364471436e-02 6.026025488972663879e-02 -1.366483420133590698e-01 2.442839592695236206e-01 1.914303004741668701e-01 -2.037870883941650391e-02 -1.334450542926788330e-01 -1.288062483072280884e-01 1.551623195409774780e-01 3.991948366165161133e-01 2.080890238285064697e-01 -1.326929628849029541e-01 -2.187289297580718994e-02 6.553887575864791870e-02 9.196569025516510010e-02 4.615740478038787842e-02 7.852366566658020020e-02 -6.949219387024641037e-03 2.019537091255187988e-01 3.169083595275878906e-01 -6.113328039646148682e-02 -2.116110771894454956e-01 2.116309553384780884e-01 1.252885758876800537e-01 -9.506229311227798462e-02 -1.773685812950134277e-01 -1.431229561567306519e-01 -3.842086791992187500e-01 -1.625150889158248901e-01 1.922151595354080200e-01 5.489660054445266724e-02 -7.582338154315948486e-02 1.145056113600730896e-01 2.374249696731567383e-01 1.709299907088279724e-02 -3.899166593328118324e-03 -2.692848145961761475e-01 3.522427752614021301e-02 -6.603462249040603638e-02 -1.192370057106018066e-01 2.785450220108032227e-01 -9.280905127525329590e-03 2.592643499374389648e-01
-7.293266803026199341e-02 1.308356672525405884e-01 -1.001672223210334778e-01 1.542621552944183350e-01 2.049140781164169312e-01 -1.126429159194231033e-02 1.887068897485733032e-02 1.039173379540443420e-01 -1.503288596868515015e-01 1.030377000570297241e-01 2.993432879447937012e-01 2.303682565689086914e-01 -4.259745776653289795e-01 -3.969307243824005127e-01 4.507028460502624512e-01 -9.745991975069046021e-02 -1.730920821428298950e-01 -5.745777115225791931e-02 -1.430251449346542358e-01 6.287308782339096069e-02 -1.437259316444396973e-01 -1.602376699447631836e-01 2.186108008027076721e-02 2.525067329406738281e-01 -2.383001893758773804e-01 -8.027154207229614258e-02 1.451905369758605957e-01 -6.897272169589996338e-02 7.986617088317871094e-02 -5.162083506584167480e-01 -1.266917139291763306e-01 -3.556325733661651611e-01 2.211062759160995483e-01 -6.132033094763755798e-02 -2.522362954914569855e-02 -7.151113450527191162e-02 1.456489041447639465e-02 -1.268327981233596802e-01 7.408080995082855225e-02 1.881595104932785034e-01 -1.976487338542938232e-01 3.868410289287567139e-01 1.003889553248882294e-02 -2.550164461135864258e-01 -3.563916683197021484e-01 2.476440817117691040e-01 1.408115262165665627e-03 -1.871322840452194214e-02 1.989676207304000854e-01 3.968536853790283203e-02 -2.523007392883300781e-01 1.152730286121368408e-01 1.404874473810195923e-01 9.673725068569183350e-02 -6.939932703971862793e-02 5.204059928655624390e-02 1.320648286491632462e-02 1.049224734306335449e-01 2.059790492057800293e-01 2.407993823289871216e-01 -1.568288058042526245e-01 -1.355608366429805756e-02 9.811647236347198486e-02 -9.823065996170043945e-02
1.790501028299331665e-01 -3.222425580024719238e-01 -5.566391348838806152e-02 -2.407985627651214600e-01 2.169754505157470703e-01 1.018940955400466919e-01 5.939329043030738831e-02 -1.637436002492904663e-01 9.991806745529174805e-02 1.102177649736404419e-01 -1.487232148647308350e-01 6.067745760083198547e-02 -6.288291513919830322e-02 1.396550089120864868e-01 9.902615100145339966e-02 2.035238742828369141e-01 -7.140579819679260254e-02 -3.058688640594482422e-01 1.699877530336380005e-02 -8.603378385305404663e-02 -3.194221556186676025e-01 3.300594687461853027e-01 -2.560610696673393250e-02 -1.495931949466466904e-02 -7.690250128507614136e-02 -4.365469515323638916e-02 -9.862037003040313721e-02 1.728444844484329224e-01 4.416644945740699768e-02 -5.418292433023452759e-02 -1.453659683465957642e-01 2.227135449647903442e-01 1.115901172161102295e-01 1.993921399116516113e-01 -1.064838767051696777e-01 7.857750356197357178e-02 3.268101438879966736e-02 -2.542186900973320007e-02 -8.173665404319763184e-02 -3.856386244297027588e-01 -1.121476367115974426e-01 -1.645404249429702759e-01 -8.279152959585189819e-02 1.024345830082893372e-01 1.090733930468559265e-01 2.224956750869750977e-01 1.135125011205673218e-01 8.040589094161987305e-02 -2.653456665575504303e-02 -6.498470902442932129e-02 -3.466539084911346436e-01 -1.932195872068405151e-01 9.064894914627075195e-02 -7.423361390829086304e-02 2.892228960990905762e-02 -2.763081490993499756e-01 -1.252454966306686401e-01 2.880426049232482910e-01 1.695552021265029907e-01 6.170646846294403076e-02 -1.703842431306838989e-01 -3.054655343294143677e-02 -2.098163589835166931e-02 3.395336270332336426e-01
-1.285969167947769165e-01 -3.962796032428741455e-01 -2.440827190876007080e-01 -1.064754053950309753e-01 6.324905902147293091e-02 -1.104907095432281494e-01 -3.478947877883911133e-01 1.150954216718673706e-01 2.768021523952484131e-01 -5.546809174120426178e-03 -2.461478710174560547e-01 2.215482294559478760e-03 1.193011328577995300e-01 2.501769736409187317e-02 8.434961736202239990e-02 1.567730307579040527e-01 -2.239588648080825806e-01 2.867619991302490234e-01 -2.298921346664428711e-01 2.058622390031814575e-01 -1.652848273515701294e-01 1.668396219611167908e-02 -1.442230194807052612e-01 -1.034606620669364929e-02 1.790613867342472076e-02 1.063540950417518616e-01 -4.297050647437572479e-03 -1.878699064254760742e-01 -5.612329766154289246e-02 9.956460446119308472e-03 4.581283926963806152e-01 1.334408577531576157e-02 7.139249891042709351e-02 -3.806478679180145264e-01 5.899612605571746826e-02 6.977879256010055542e-02 8.571952581405639648e-03 7.957475632429122925e-02 8.418168127536773682e-02 -1.793802827596664429e-01 -1.924130320549011230e-01 -1.020442694425582886e-01 3.327889740467071533e-01 1.402598917484283447e-01 -1.542520672082901001e-01 -1.046571582555770874e-01 -1.249069571495056152e-01 -7.676590979099273682e-02 -1.906776577234268188e-01 -9.398610889911651611e-02 -2.495351433753967285e-01 -2.832306921482086182e-01 -5.369226261973381042e-02 1.142812818288803101e-01 -7.284199446439743042e-02 1.910912990570068359e-01 -1.297626048326492310e-01 1.267163157463073730e-01 1.080025658011436462e-01 -3.419340550899505615e-01 -3.391040563583374023e-01 2.736955285072326660e-01 8.035957068204879761e-02 -1.117237955331802368e-01
-2.547549605369567871e-01 -1.733384132385253906e-01 2.014739960432052612e-01 3.303880095481872559e-01 -1.168009936809539795e-01 -1.058097034692764282e-01 7.109702378511428833e-02 8.134517073631286621e-02 -1.519903540611267090e-01 1.241891607642173767e-01 -3.554713353514671326e-02 -2.267679274082183838e-01 4.935584589838981628e-02 -1.701581925153732300e-01 -3.447744250297546387e-01 1.399011313915252686e-01 5.340278521180152893e-02 4.321455359458923340e-01 3.076066970825195312e-01 3.185945749282836914e-01 -5.566244572401046753e-02 8.072423934936523438e-02 -1.016436964273452759e-01 -1.077362373471260071e-01 -5.276521444320678711e-01 2.545560598373413086e-01 3.390929400920867920e-01 2.667789459228515625e-01 -6.148848310112953186e-02 -6.145158782601356506e-03 2.509355545043945312e-01 -4.604392498731613159e-02 -2.377970367670059204e-01 -2.456007711589336395e-02 -4.284773766994476318e-02 5.496978759765625000e-02 1.011353954672813416e-01 3.799185752868652344e-01 -1.049978658556938171e-01 -3.188328817486763000e-02 -3.719929233193397522e-02 -1.101500540971755981e-01 -1.657264828681945801e-01 1.431070715188980103e-01 -1.500964909791946411e-01 -3.513698279857635498e-02 -1.392016857862472534e-01 6.368154287338256836e-02 -6.183011531829833984e-01 1.622220724821090698e-01 -4.091481864452362061e-02 1.668867468833923340e-01 -1.548353731632232666e-01 1.594138890504837036e-02 1.333437561988830566e-01 1.948703378438949585e-01 1.062287911772727966e-01 -4.592148363590240479e-01 -7.786341942846775055e-03 -4.626022651791572571e-02 -1.468442659825086594e-02 -1.349498634226620197e-03 -6.745009124279022217e-02 -7.529702037572860718e-03
2.217050194740295410e-01 -6.010177358984947205e-02 1.095189452171325684e-01 4.554633796215057373e-02 -2.243846207857131958e-01 3.915506601333618164e-02 -5.309155955910682678e-02 -1.677012294530868530e-01 1.866773366928100586e-01 4.957842826843261719e-02 1.348869595676660538e-02 -1.463337242603302002e-01 -2.517418377101421356e-02 7.079104334115982056e-02 3.257347643375396729e-01 -3.813344240188598633e-02 3.126688301563262939e-01 -3.848283886909484863e-01 1.482571363449096680e-01 -1.721854507923126221e-01 1.210238710045814514e-01 4.250434041023254395e-02 -3.956573009490966797e-01 -1.337334960699081421e-01 -8.389250375330448151e-03 -2.941811382770538330e-01 -3.419458270072937012e-01 -2.971204519271850586e-01 4.340954124927520752e-02 2.513224482536315918e-01 2.529864907264709473e-01 1.026138439774513245e-01 1.788054965436458588e-02 -6.487011909484863281e-02 8.500775694847106934e-02 6.093231961131095886e-02 -1.255223900079727173e-01 5.476321280002593994e-02 -4.713069498538970947e-01 3.775277137756347656e-01 2.140281498432159424e-01 9.963530302047729492e-02 6.533207744359970093e-02 -1.023275256156921387e-01 1.260377168655395508e-01 -5.839315056800842285e-02 -8.539249747991561890e-02 1.122192889451980591e-01 -1.364086568355560303e-01 -8.240670710802078247e-02 3.209228515625000000e-01 2.139919251203536987e-01 -1.304208487272262573e-01 1.012364774942398071e-01 -1.505126655101776123e-01 8.537568897008895874e-02 8.792276680469512939e-02 2.738061733543872833e-02 -3.058028519153594971e-01 2.337544137844815850e-04 -5.533312261104583740e-02 -1.856628805398941040e-03 -4.292266443371772766e-02 7.248634099960327148e-02
-3.192540630698204041e-02 1.041647121310234070e-01 -2.228947579860687256e-01 -4.322671517729759216e-02 2.708606980741024017e-02 -1.018575429916381836e-01 -7.816058583557605743e-03 -1.740157157182693481e-01 -5.471125841140747070e-01 3.087423741817474365e-01 2.159020304679870605e-01 -6.894584745168685913e-02 1.369170695543289185e-01 -3.462737798690795898e-01 2.143847048282623291e-01 -1.008097678422927856e-01 -7.948204874992370605e-02 1.052123978734016418e-01 -5.242092013359069824e-01 1.530774384737014771e-01 4.428397864103317261e-02 -1.217738017439842224e-01 1.103777512907981873e-01 6.346616148948669434e-02 6.744085252285003662e-02 1.121431663632392883e-01 1.869409829378128052e-01 2.043699473142623901e-01 -4.624811932444572449e-02 7.241323590278625488e-02 3.246578872203826904e-01 1.053813993930816650e-01 2.809891998767852783e-01 -3.725895583629608154e-01 -1.182515844702720642e-01 -9.319491684436798096e-02 6.892160326242446899e-02 1.992499381303787231e-01 9.829928725957870483e-02 5.092039108276367188e-01 -6.457736343145370483e-02 1.370160281658172607e-01 -1.614767909049987793e-01 1.185085177421569824e-01 -7.753191888332366943e-02 -4.190594330430030823e-02 -2.495369464159011841e-01 9.140934050083160400e-02 1.672352552413940430e-01 -4.336809739470481873e-02 3.221417665481567383e-01 -3.284852951765060425e-02 2.178209125995635986e-01 -7.901914417743682861e-02 5.744851659983396530e-03 1.604639142751693726e-01 3.549978435039520264e-01 7.517234981060028076e-02 2.957349419593811035e-01 1.638638824224472046e-01 2.020987868309020996e-01 -1.688631325960159302e-01 1.852320134639739990e-02 -5.815291404724121094e-01
1.006163954734802246e-01 -3.042950034141540527e-01 1.224164143204689026e-01 -1.731918454170227051e-01 5.201779678463935852e-02 -2.909594774246215820e-02 -1.952384859323501587e-01 -4.184296727180480957e-02 1.213162392377853394e-01 2.867528796195983887e-01 8.816868066787719727e-02 1.784067600965499878e-01 2.379712611436843872e-01 -9.649629890918731689e-02 -4.030778631567955017e-02 5.665703490376472473e-02 -1.645118296146392822e-01 -4.000610411167144775e-01 1.097542345523834229e-01 -3.286596238613128662e-01 3.345547318458557129e-01 -6.116881594061851501e-02 2.656442224979400635e-01 2.065228484570980072e-02 1.765311062335968018e-01 -1.184904575347900391e-01 -3.846236169338226318e-01 -1.348534226417541504e-01 1.236670985817909241e-01 2.268292605876922607e-01 -2.674514055252075195e-01 1.710084527730941772e-01 2.038273662328720093e-01 5.656870082020759583e-03 -1.044123694300651550e-01 -6.859014928340911865e-02 6.727312505245208740e-02 -2.838320136070251465e-01 -1.044129803776741028e-01 4.749400317668914795e-01 2.427986413240432739e-01 -9.767410811036825180e-04 2.428718358278274536e-01 -1.186060979962348938e-01 2.109388262033462524e-01 -8.448008447885513306e-02 1.599182188510894775e-01 -9.987601637840270996e-02 4.949909821152687073e-02 1.021759063005447388e-01 2.626761496067047119e-01 2.625069916248321533e-01 -2.233350574970245361e-01 -6.751030683517456055e-03 -3.662337362766265869e-01 5.682363733649253845e-02 2.731737494468688965e-01 2.026551812887191772e-01 -3.079223334789276123e-01 -5.903319921344518661e-03 2.930007576942443848e-01 8.877132087945938110e-02 9.500459418632090092e-04 1.073018237948417664e-01
-2.343651205301284790e-01 2.375622093677520752e-01 2.285804450511932373e-01 1.098929569125175476e-01 -2.126612812280654907e-01 -1.083295196294784546e-01 -1.299729011952877045e-02 2.015550732612609863e-01 -5.463466048240661621e-02 -9.117136895656585693e-02 1.169399544596672058e-01 -1.646914333105087280e-01 -2.393931001424789429e-01 -7.861404120922088623e-02 -6.010507941246032715e-01 9.732995182275772095e-03 1.241476684808731079e-01 -4.400644823908805847e-02 2.115299552679061890e-01 2.542532980442047119e-01 -4.583283886313438416e-02 2.812783606350421906e-02 1.443677544593811035e-01 1.288577914237976074e-01 9.929437935352325439e-02 2.253046184778213501e-01 1.798320412635803223e-01 9.610964357852935791e-02 -3.157263994216918945e-02 -2.037810087203979492e-01 -1.411841958761215210e-01 -2.545816302299499512e-01 -1.653762906789779663e-01 -8.994761854410171509e-02 8.173672109842300415e-02 1.378318481147289276e-02 -1.149333193898200989e-01 1.697672903537750244e-01 1.324985921382904053e-01 -1.234976761043071747e-02 -3.488785028457641602e-02 -2.175427079200744629e-01 -1.552837667986750603e-03 -1.045768931508064270e-01 -5.923531204462051392e-02 -3.064459003508090973e-02 -7.890388369560241699e-02 1.072607189416885376e-01 -1.356115788221359253e-01 1.605187952518463135e-01 1.901629194617271423e-02 -8.865835145115852356e-03 -1.152122616767883301e-01 -4.389563202857971191e-02 1.844349652528762817e-01 -9.520711004734039307e-02 -1.109858155250549316e-01 -2.057969421148300171e-01 -2.019618898630142212e-01 1.794255897402763367e-02 6.999949365854263306e-02 1.906700432300567627e-01 6.488693505525588989e-02 -1.114550009369850159e-01
2.857578992843627930e-01 -2.098082751035690308e-02 -3.899438679218292236e-02 1.112974435091018677e-01 2.649814188480377197e-01 -4.627822339534759521e-02 -2.692433297634124756e-01 1.941452920436859131e-01 -4.590842723846435547e-01 7.546272873878479004e-02 -4.046800732612609863e-01 -2.246116846799850464e-01 4.853121936321258545e-02 -4.649117961525917053e-02 7.928396761417388916e-02 8.989802002906799316e-02 2.151068896055221558e-01 1.540748029947280884e-01 2.488551139831542969e-01 1.930855363607406616e-01 -2.240903377532958984e-01 2.455918043851852417e-01 1.483809389173984528e-02 -1.925956755876541138e-01 -1.572697237133979797e-02 2.003068476915359497e-02 7.481629401445388794e-02 2.257298864424228668e-02 -1.762020587921142578e-02 -4.681279882788658142e-02 1.851873397827148438e-01 2.446788549423217773e-01 -1.319740265607833862e-01 1.378190815448760986e-01 1.240807771682739258e-01 2.937078475952148438e-02 1.168236695230007172e-02 1.741592586040496826e-01 -3.181226849555969238e-01 -1.211245283484458923e-01 1.410331279039382935e-01 -9.073095768690109253e-02 -4.902166724205017090e-01 1.182040348649024963e-01 -2.466685473918914795e-01 -1.505474150180816650e-01 -9.787113964557647705e-02 -1.561623811721801758e-02 -3.055880963802337646e-01 -3.444323837757110596e-01 1.610909700393676758e-01 -1.964334398508071899e-02 -6.166068091988563538e-02 7.993297278881072998e-02 -7.044430822134017944e-02 -2.530211806297302246e-01 2.982789576053619385e-01 -1.257135868072509766e-01 -8.934950828552246094e-02 1.730541139841079712e-01 1.448030397295951843e-02 -1.391137018799781799e-02 -1.134408861398696899e-01 2.831703750416636467e-05
-3.167991042137145996e-01 1.695692986249923706e-01 -1.100433692336082458e-01 1.081729680299758911e-01 1.869646366685628891e-03 2.796765603125095367e-02 -4.230403900146484375e-02 -1.089328005909919739e-01 2.833200693130493164e-01 -2.152756750583648682e-01 8.677043020725250244e-02 -6.557620316743850708e-02 3.268748149275779724e-02 4.477646946907043457e-02 -2.765723466873168945e-01 2.912805415689945221e-02 -9.434358030557632446e-02 -1.851429790258407593e-01 1.726981401443481445e-01 -3.169933855533599854e-01 1.652667124290019274e-04 2.376896701753139496e-02 1.763030588626861572e-01 2.417691200971603394e-01 1.998428702354431152e-01 -9.663328528404235840e-02 -7.510901242494583130e-02 -3.843915462493896484e-02 -2.957196347415447235e-02 -3.668228685855865479e-01 -5.159677267074584961e-01 -1.501946598291397095e-01 -6.886690855026245117e-02 3.587037324905395508e-01 1.654425635933876038e-02 9.076341986656188965e-03 1.057327315211296082e-01 -9.094650298357009888e-02 1.501874476671218872e-01 -3.050760626792907715e-01 -8.021024614572525024e-02 -1.059645041823387146e-01 -1.785997450351715088e-01 2.699117176234722137e-02 1.103492006659507751e-01 1.289866417646408081e-01 3.515784442424774170e-02 3.128563519567251205e-03 2.687114775180816650e-01 1.744215637445449829e-01 1.021503210067749023e-01 -1.965355360880494118e-03 -4.013566765934228897e-03 -5.027681589126586914e-03 -1.772810369729995728e-01 2.291591763496398926e-01 4.186371341347694397e-02 1.249714866280555725e-01 -1.199394315481185913e-01 4.988227039575576782e-02 1.167727634310722351e-01 7.240279763936996460e-02 5.923506617546081543e-02 1.175659000873565674e-01
3.161455392837524414e-01 2.112430185079574585e-01 -3.898265538737177849e-03 1.847559660673141479e-01 1.930671185255050659e-01 -1.250603795051574707e-01 3.015886805951595306e-02 -2.856983616948127747e-02 1.142650321125984192e-01 -5.341079831123352051e-02 1.176349297165870667e-01 3.200232088565826416e-01 5.609182640910148621e-02 6.604913622140884399e-02 4.347654581069946289e-01 -5.149151682853698730e-01 -3.649589717388153076e-01 8.819662779569625854e-02 -2.039355225861072540e-02 -1.429820209741592407e-01 -4.295871257781982422e-01 -4.730921089649200439e-01 1.320134401321411133e-01 1.758021861314773560e-01 1.239366084337234497e-01 -3.423107042908668518e-02 8.610434015281498432e-04 -4.441404044628143311e-01 -3.552529960870742798e-02 -3.149030506610870361e-01 1.514194607734680176e-01 -2.334936410188674927e-01 5.965373478829860687e-03 1.888440847396850586e-01 9.823158383369445801e-02 7.088217139244079590e-02 -9.158487617969512939e-02 -9.841975569725036621e-02 1.085039824247360229e-01 4.029192924499511719e-01 -5.042598247528076172e-01 2.226815372705459595e-01 3.750134110450744629e-01 -3.416527211666107178e-01 -4.972597360610961914e-01 1.705124229192733765e-01 3.601793199777603149e-02 9.762757271528244019e-02 9.128282545134425163e-04 3.054257482290267944e-02 2.510422766208648682e-01 -1.626375317573547363e-01 6.944753974676132202e-02 -5.191735178232192993e-02 4.760785493999719620e-03 5.672790855169296265e-02 -1.809576600790023804e-01 3.909761011600494385e-01 -1.561514735221862793e-01 1.675065606832504272e-01 4.630298539996147156e-02 -9.977112710475921631e-02 8.100642263889312744e-02 -1.858107447624206543e-01
4.186225831508636475e-01 2.800470218062400818e-03 1.392838209867477417e-01 7.936064898967742920e-02 5.548364669084548950e-02 -5.813554674386978149e-02 -1.799760162830352783e-01 -1.036692112684249878e-01 1.378458440303802490e-01 -2.249497547745704651e-02 9.067890048027038574e-02 1.676889210939407349e-01 3.309520483016967773e-01 9.149578213691711426e-02 -1.497225370258092880e-02 -1.184649989008903503e-01 8.575848489999771118e-02 -1.902949810028076172e-02 1.149404272437095642e-01 -3.357405066490173340e-01 2.249929904937744141e-01 -1.283600926399230957e-01 4.146512970328330994e-02 -4.315373003482818604e-01 -6.564674526453018188e-02 -2.076324373483657837e-01 -3.846491575241088867e-01 -2.051990330219268799e-01 1.156208664178848267e-02 7.323210686445236206e-02 -4.429643154144287109e-01 1.418498903512954712e-01 1.340376883745193481e-01 1.385494470596313477e-01 -7.621321827173233032e-02 -3.994569182395935059e-03 7.274769246578216553e-02 -2.251535952091217041e-01 -3.456420898437500000e-01 -1.802588552236557007e-01 2.536415159702301025e-01 1.474540978670120239e-01 1.612547636032104492e-01 -3.472420573234558105e-01 1.477214414626359940e-02 1.257033050060272217e-01 7.645204663276672363e-02 3.113545477390289307e-02 -1.153535768389701843e-01 6.228262558579444885e-03 1.604060530662536621e-01 2.891178056597709656e-02 -1.135351359844207764e-01 1.114352941513061523e-01 -3.174057006835937500e-01 1.149313002824783325e-01 3.951785862445831299e-01 -1.423182897269725800e-02 -1.648790836334228516e-01 2.868672311305999756e-01 2.191829234361648560e-01 -1.831228435039520264e-01 9.571526199579238892e-02 -6.299095600843429565e-02
