1.618995815515518188e-01
9.816538542509078979e-02
-5.694512650370597839e-02
-2.183808572590351105e-02
1.422469317913055420e-01
-2.839810587465763092e-02
5.391722545027732849e-03
-6.934424489736557007e-02
-1.588838845491409302e-01
1.204839199781417847e-01
9.312113374471664429e-02
7.727777212858200073e-02
1.462596803903579712e-01
9.283271431922912598e-02
1.077020168304443359e-01
-6.245396286249160767e-02
5.522324144840240479e-02
1.512221246957778931e-01
-6.895279884338378906e-02
-4.466351121664047241e-02
-4.538068175315856934e-02
-1.666610687971115112e-01
1.650131493806838989e-01
-3.240796551108360291e-02
2.059861719608306885e-01
-1.531373150646686554e-02
2.116069197654724121e-02
-4.889794066548347473e-02
-3.655977547168731689e-02
8.299333602190017700e-02
2.831426262855529785e-01
1.792788356542587280e-01
-2.411139197647571564e-02
-3.452819585800170898e-02
-2.736909501254558563e-02
-2.990221790969371796e-02
-4.253222048282623291e-02
-1.395237743854522705e-01
4.087247699499130249e-02
6.892666220664978027e-02
7.090729475021362305e-02
1.257147043943405151e-01
1.036032335832715034e-03
1.538301855325698853e-01
-5.100763961672782898e-02
-7.597603648900985718e-02
-1.100345849990844727e-01
-4.323562234640121460e-02
-3.085189266130328178e-03
-2.458781749010086060e-01
1.471173018217086792e-01
2.995027974247932434e-02
-1.654431074857711792e-01
1.772019895724952221e-03
4.776446148753166199e-03
-1.305370479822158813e-01
2.415934801101684570e-01
1.063907444477081299e-01
1.098434254527091980e-01
6.301643699407577515e-02
4.154075682163238525e-02
1.329073905944824219e-01
-4.173955321311950684e-02
-1.697854697704315186e-01
