-2.971154078841209412e-02 1.176274195313453674e-02 -2.767793834209442139e-02 3.516058251261711121e-02 -1.288623549044132233e-02 -1.475744135677814484e-02 3.570384159684181213e-02 2.525724470615386963e-03 3.070020303130149841e-02 -3.341116011142730713e-03 -2.061035856604576111e-02 2.382031083106994629e-02 1.194360777735710144e-01 9.651522338390350342e-02 1.388776004314422607e-01 6.966400146484375000e-02 -7.336214184761047363e-04 -1.666046120226383209e-02 -1.054743863642215729e-02 2.220442518591880798e-02 6.630856543779373169e-03 -3.100741468369960785e-02 7.956475019454956055e-03 -2.613969892263412476e-02 -1.843587122857570648e-02 -1.771368086338043213e-03 3.453803434967994690e-02 2.172254025936126709e-02 -2.898979373276233673e-02 6.081983447074890137e-03 1.184431090950965881e-02 2.077455818653106689e-02 1.248099096119403839e-02 7.427548617124557495e-02 2.238648682832717896e-01 1.797564923763275146e-01 1.941135227680206299e-01 1.511069238185882568e-01 2.990492880344390869e-01 2.020823210477828979e-01 1.576302945613861084e-01 3.416794538497924805e-02 -1.496725250035524368e-03 3.917558193206787109e-01 4.808685183525085449e-01 3.996139466762542725e-01 2.904045581817626953e-01 3.337294459342956543e-01 3.562245368957519531e-01 2.621147632598876953e-01 9.793969243764877319e-02 1.190535649657249451e-01 -1.867290586233139038e-03 1.600045710802078247e-02 -3.281533718109130859e-04 1.495021581649780273e-02 2.285605296492576599e-02 -5.963955074548721313e-03 7.201989740133285522e-02 1.334507912397384644e-01 1.977903991937637329e-01 1.192822456359863281e-01 2.486085891723632812e-01 3.474076688289642334e-01 4.063655436038970947e-01 2.239164859056472778e-01 3.477472960948944092e-01 5.543621778488159180e-01 3.691662847995758057e-01 3.563307523727416992e-01 3.898657858371734619e-01 4.902204573154449463e-01 3.018373250961303711e-01 2.199422121047973633e-01 2.250646054744720459e-01 2.768608629703521729e-01 1.592403054237365723e-01 2.443772554397583008e-01 2.427269816398620605e-01 2.814184427261352539e-01 1.979729533195495605e-01 5.084454640746116638e-02 -3.333077952265739441e-02 -6.090160459280014038e-03 -1.136592589318752289e-02 3.437272086739540100e-02 1.655202545225620270e-02 6.509175896644592285e-02 1.052930206060409546e-01 2.566608488559722900e-01 3.415801823139190674e-01 2.500193417072296143e-01 1.585687100887298584e-01 2.966437637805938721e-01 2.346828281879425049e-01 7.024467736482620239e-02 -4.713774099946022034e-02 7.688648998737335205e-02 -1.670440658926963806e-02 -1.308739483356475830e-01 -1.931483745574951172e-01 -8.472024649381637573e-02 -9.064247831702232361e-03 1.206196099519729614e-01 2.067572623491287231e-01 2.473476529121398926e-01 1.301338225603103638e-01 6.573612987995147705e-02 1.630997471511363983e-02 -7.777788490056991577e-02 2.498463168740272522e-02 -7.129698991775512695e-03 -2.305483445525169373e-02 -3.043742850422859192e-02 3.001773171126842499e-02 -8.279841393232345581e-02 8.596074581146240234e-02 1.672614216804504395e-01 2.674239575862884521e-01 2.556200027465820312e-01 1.866905540227890015e-01 1.544409841299057007e-01 2.738335132598876953e-01 7.783571630716323853e-02 -2.741780597716569901e-03 -2.713859267532825470e-02 -5.102605000138282776e-02 -2.087789028882980347e-01 -2.836693823337554932e-01 -1.773985624313354492e-01 -1.377414911985397339e-01 5.345663428306579590e-02 -1.205275952816009521e-02 -2.695954032242298126e-02 -1.535366326570510864e-01 -1.889490783214569092e-01 -2.096075415611267090e-01 -1.640953421592712402e-01 1.614657603204250336e-02 2.526092156767845154e-02 2.263202518224716187e-02 1.847149804234504700e-02 1.926318407058715820e-01 -1.101622730493545532e-01 2.105393260717391968e-01 1.029138788580894470e-01 1.176737174391746521e-01 6.762305647134780884e-02 8.205387741327285767e-02 9.303831309080123901e-02 5.549259856343269348e-02 -7.518323510885238647e-02 -1.249042525887489319e-01 -7.564014196395874023e-02 -1.140140220522880554e-01 -8.031389117240905762e-02 -1.525842249393463135e-01 -6.141560897231101990e-02 -3.126587346196174622e-02 -4.865204915404319763e-02 -6.841175258159637451e-02 -6.757183372974395752e-02 -2.735509276390075684e-01 -3.722237646579742432e-01 -2.794778943061828613e-01 -1.790232360363006592e-01 -6.189459562301635742e-02 -2.030183747410774231e-02 3.422686085104942322e-02 -4.939154163002967834e-02 -8.161841332912445068e-02 -1.922431290149688721e-01 1.614660918712615967e-01 -8.417681604623794556e-02 4.957358911633491516e-02 -5.354274436831474304e-02 -1.118152812123298645e-01 -1.343020200729370117e-01 -3.865900263190269470e-02 9.437676519155502319e-02 -8.057262748479843140e-02 -7.163606118410825729e-03 -2.888755314052104950e-02 -1.238338798284530640e-01 -1.313878297805786133e-01 -8.068519085645675659e-02 -1.756536215543746948e-02 -2.171179056167602539e-01 -2.542119622230529785e-01 -7.985484600067138672e-02 -4.083790779113769531e-01 -4.947720468044281006e-01 -3.017332851886749268e-01 -1.340694427490234375e-01 -4.578877612948417664e-02 -2.393894828855991364e-02 -3.351613879203796387e-02 -5.142100527882575989e-02 -9.537132084369659424e-02 -3.194450438022613525e-01 -7.464749738574028015e-03 -1.488206237554550171e-01 -3.937499225139617920e-02 -2.088772132992744446e-02 -9.624650329351425171e-02 -1.077980771660804749e-01 7.822790741920471191e-02 1.041342094540596008e-01 3.402435407042503357e-02 -6.617210060358047485e-02 1.229540165513753891e-02 -9.114883840084075928e-02 -2.825994491577148438e-01 -1.229640766978263855e-01 -1.529517471790313721e-01 -2.289793640375137329e-01 -2.042907029390335083e-01 -1.681789159774780273e-01 -4.119940400123596191e-01 -5.797974467277526855e-01 -2.734915912151336670e-01 -2.372016608715057373e-01 -1.522977948188781738e-01 -9.260965883731842041e-02 1.222715526819229126e-02 4.536061733961105347e-02 -1.773119345307350159e-02 -2.981182336807250977e-01 -5.768711119890213013e-02 -1.122985631227493286e-01 -3.715126216411590576e-02 -1.495217066258192062e-02 -1.436455994844436646e-01 -4.242866113781929016e-02 2.254978120326995850e-01 7.946987450122833252e-02 -4.293758422136306763e-02 6.570055335760116577e-02 9.567333757877349854e-02 -1.111268848180770874e-01 -3.769857585430145264e-01 -1.962685137987136841e-01 -1.375080198049545288e-01 2.659509703516960144e-02 1.378931477665901184e-02 -1.407608538866043091e-01 -3.973422050476074219e-01 -4.690249860286712646e-01 -5.771236419677734375e-01 -4.456352889537811279e-01 -1.923685073852539062e-01 -7.794684171676635742e-02 -2.179615572094917297e-02 -7.426653802394866943e-02 2.603475935757160187e-02 3.389769000932574272e-03 -6.596815655939280987e-04 -8.351296931505203247e-02 -9.493476152420043945e-02 5.517508834600448608e-02 -3.007870912551879883e-02 -5.157705396413803101e-02 5.944592878222465515e-02 3.650325164198875427e-02 -1.260695327073335648e-02 8.192306011915206909e-02 1.579099893569946289e-01 -1.195122152566909790e-01 -4.263352751731872559e-01 -3.254507780075073242e-01 -8.270411938428878784e-02 2.840872853994369507e-02 7.673124223947525024e-02 -5.300018191337585449e-02 -1.692459583282470703e-01 -3.713142871856689453e-01 -3.001339733600616455e-01 -3.154805004596710205e-01 -5.020303279161453247e-02 6.624538451433181763e-02 5.593825131654739380e-03 -7.212541252374649048e-02 -1.107581332325935364e-01 -7.120895385742187500e-02 -6.847818940877914429e-02 1.749974489212036133e-01 1.250619888305664062e-01 2.905966341495513916e-02 1.368464082479476929e-01 -3.269757507950998843e-05 6.094057112932205200e-02 9.320785850286483765e-02 -9.010083228349685669e-02 7.552955299615859985e-02 -1.479173172265291214e-02 -1.586437672376632690e-01 -2.364888787269592285e-01 -8.468746393918991089e-02 -7.574501447379589081e-03 2.431586757302284241e-02 3.008214198052883148e-02 1.017512828111648560e-01 -8.897942304611206055e-02 -1.761086583137512207e-01 -2.204811722040176392e-01 -6.873091310262680054e-02 -8.769807964563369751e-02 3.363931551575660706e-02 -5.436794832348823547e-03 5.623815581202507019e-02 -2.576333284378051758e-01 -2.074186056852340698e-01 3.556383028626441956e-02 1.675234735012054443e-01 1.778193376958370209e-02 8.039362728595733643e-02 -3.927168622612953186e-02 -1.345510035753250122e-01 3.958178311586380005e-02 -4.798364266753196716e-02 -1.351670771837234497e-01 -7.600627094507217407e-02 -8.147037774324417114e-02 -2.481511086225509644e-01 -1.824709475040435791e-01 -9.998940676450729370e-02 -8.600228279829025269e-02 6.191208586096763611e-02 1.357487589120864868e-01 9.046699106693267822e-02 -7.297264039516448975e-02 -1.171360388398170471e-01 -1.032124087214469910e-01 -7.866058731451630592e-04 -2.851888537406921387e-01 -1.156626120209693909e-01 -3.234448283910751343e-02 4.861365631222724915e-02 -1.160237565636634827e-01 -7.092752307653427124e-02 1.139365881681442261e-01 8.302540332078933716e-02 -1.704937219619750977e-01 -1.783219575881958008e-01 -1.207634210586547852e-01 -1.956268846988677979e-01 -1.455427706241607666e-02 -6.591136753559112549e-02 -9.118398278951644897e-02 -1.084064915776252747e-01 -1.715560816228389740e-02 -8.281788229942321777e-02 5.914447829127311707e-03 -2.792824432253837585e-02 -3.860801458358764648e-02 1.794238090515136719e-01 1.315591484308242798e-01 1.103930100798606873e-01 8.749431371688842773e-02 5.773786082863807678e-02 7.641195505857467651e-02 2.229315638542175293e-01 -1.116017345339059830e-02 2.296934835612773895e-02 1.200215965509414673e-01 4.188629984855651855e-02 3.665370866656303406e-02 5.455299466848373413e-02 9.372033923864364624e-02 4.550563544034957886e-02 7.690449710935354233e-03 -2.306682765483856201e-01 -2.129197269678115845e-01 -2.493997067213058472e-01 -1.269218623638153076e-01 -8.756148815155029297e-02 -5.942170694470405579e-02 1.231068745255470276e-01 1.150495558977127075e-01 1.814375072717666626e-01 1.261842250823974609e-01 3.156042471528053284e-02 7.215650379657745361e-02 1.891441792249679565e-01 3.809437155723571777e-02 3.024508431553840637e-02 1.101771891117095947e-01 2.368998974561691284e-01 2.692799270153045654e-01 2.580238878726959229e-01 4.525328278541564941e-01 1.344045996665954590e-01 6.593380123376846313e-03 -1.007152125239372253e-01 5.893438309431076050e-02 1.544355601072311401e-01 6.078971084207296371e-03 -8.952633477747440338e-03 8.048573136329650879e-02 -8.261619508266448975e-02 -2.097498178482055664e-01 -8.596003800630569458e-02 2.931374311447143555e-02 -9.245071560144424438e-02 -1.489555090665817261e-02 2.609301507472991943e-01 2.110456377267837524e-01 1.455299556255340576e-01 8.496666699647903442e-02 -1.351862400770187378e-01 9.993514046072959900e-03 -4.681088775396347046e-02 -4.573501646518707275e-02 1.728176698088645935e-02 2.510987520217895508e-01 2.934748232364654541e-01 1.594577878713607788e-01 2.115568518638610840e-01 4.460668265819549561e-01 2.050361037254333496e-01 -7.697748020291328430e-03 -4.680291935801506042e-02 8.052900433540344238e-02 -7.283116877079010010e-02 -8.802795410156250000e-02 6.071745604276657104e-02 9.891609102487564087e-02 -5.296405777335166931e-02 -1.034585535526275635e-01 -5.729926377534866333e-02 -8.269482105970382690e-02 -2.171858400106430054e-02 1.526152789592742920e-01 3.658657968044281006e-01 3.043009340763092041e-01 8.411405980587005615e-02 7.092814892530441284e-02 2.920784428715705872e-02 6.075416505336761475e-02 6.200554966926574707e-02 9.482745081186294556e-03 2.555477805435657501e-02 3.292860090732574463e-02 6.223582848906517029e-02 2.006174623966217041e-01 4.189195930957794189e-01 3.663508594036102295e-01 2.476007193326950073e-01 2.529148384928703308e-02 8.088933676481246948e-02 1.302650719881057739e-01 1.195139903575181961e-02 3.101808205246925354e-02 1.116694435477256775e-01 2.007161378860473633e-01 2.970933355391025543e-02 -1.127220466732978821e-01 -7.029622048139572144e-02 -1.578997634351253510e-02 7.305386662483215332e-02 6.967324763536453247e-02 2.138085961341857910e-01 4.004072844982147217e-01 1.198343560099601746e-01 1.052611842751502991e-01 1.531673073768615723e-01 1.193509921431541443e-01 -2.969654509797692299e-03 -1.239213123917579651e-01 4.195670410990715027e-02 3.859512135386466980e-02 3.258344903588294983e-02 2.308991551399230957e-01 5.245193839073181152e-01 3.116219043731689453e-01 2.920786440372467041e-01 -3.009769506752490997e-02 9.285420924425125122e-02 5.831520631909370422e-02 7.804467808455228806e-03 4.014801606535911560e-02 5.233544483780860901e-02 1.702258735895156860e-01 -7.513640820980072021e-02 -7.017985731363296509e-02 -1.039137169718742371e-01 -2.617096155881881714e-02 1.187369152903556824e-01 2.335508465766906738e-01 1.925225704908370972e-01 3.047002255916595459e-01 1.457598805427551270e-01 1.272195279598236084e-01 8.459596335887908936e-02 6.736649572849273682e-02 -4.841024801135063171e-02 -5.290243402123451233e-02 1.199297159910202026e-01 -2.295387536287307739e-02 -1.085592340677976608e-02 -3.286356851458549500e-02 4.646561741828918457e-01 1.968871206045150757e-01 3.303031027317047119e-01 -2.215595357120037079e-02 3.852165117859840393e-02 -2.408578433096408844e-02 1.364245861768722534e-01 8.223193138837814331e-02 2.249296009540557861e-02 6.922170519828796387e-02 -8.306967094540596008e-03 -3.890584781765937805e-02 -1.214583218097686768e-01 -9.284704178571701050e-02 8.534252643585205078e-02 2.225156277418136597e-01 2.317944169044494629e-01 3.016868531703948975e-01 2.346491366624832153e-01 2.101465612649917603e-01 1.987400799989700317e-01 1.544721275568008423e-01 3.906679898500442505e-02 -1.054682070389389992e-03 7.283549755811691284e-02 5.442661046981811523e-02 2.147895693778991699e-01 1.222314238548278809e-01 5.319618582725524902e-01 5.570898577570915222e-02 2.054360210895538330e-01 5.680362880229949951e-02 -2.664651488885283470e-03 -1.864612400531768799e-01 2.054583281278610229e-01 5.594123527407646179e-02 1.372237130999565125e-02 -3.623150661587715149e-02 -1.144923120737075806e-01 -1.811349391937255859e-01 -8.909498155117034912e-02 7.139378227293491364e-03 2.239965498447418213e-01 2.543285191059112549e-01 2.213732898235321045e-01 2.728329598903656006e-01 2.849096655845642090e-01 3.132257759571075439e-01 1.509848684072494507e-01 8.076617866754531860e-02 2.278758678585290909e-03 -5.560033768415451050e-02 -6.857045739889144897e-02 5.315072089433670044e-02 2.340695410966873169e-01 1.339511126279830933e-01 3.847118020057678223e-01 2.237062901258468628e-01 1.743858307600021362e-01 -1.576863974332809448e-02 6.509857252240180969e-03 1.409254409372806549e-02 2.529576420783996582e-01 1.840815693140029907e-01 3.103022649884223938e-02 -1.425079107284545898e-01 -8.643975853919982910e-02 -2.520286142826080322e-01 -1.940356045961380005e-01 -4.533741623163223267e-02 9.293601661920547485e-02 1.416988670825958252e-01 5.615474190562963486e-03 2.042924314737319946e-01 1.949027776718139648e-01 9.475215524435043335e-02 -2.121560461819171906e-02 9.814949333667755127e-02 -2.069300226867198944e-02 -8.353717625141143799e-02 -2.016977071762084961e-01 -7.592321187257766724e-02 -1.163200438022613525e-01 4.376785084605216980e-02 -1.556579302996397018e-02 2.133500725030899048e-01 3.457414358854293823e-02 4.920549690723419189e-02 1.100778728723526001e-01 7.299257814884185791e-02 1.271999776363372803e-01 1.142290011048316956e-01 4.639879614114761353e-02 -6.247271224856376648e-02 -2.557260990142822266e-01 -3.551981449127197266e-01 -2.176750600337982178e-01 -1.443127244710922241e-01 -2.113953679800033569e-01 -1.343380808830261230e-01 -1.015517860651016235e-01 2.747000008821487427e-02 -5.412828177213668823e-02 -1.441899985074996948e-01 -1.360317021608352661e-01 1.310117542743682861e-02 -4.617180302739143372e-02 -1.868364512920379639e-01 -2.616145908832550049e-01 -1.861726194620132446e-01 -2.115978151559829712e-01 -8.417259901762008667e-03 2.465554513037204742e-02 1.229428574442863464e-01 3.042890504002571106e-02 6.677823513746261597e-02 5.509838461875915527e-02 1.192762926220893860e-01 2.227073758840560913e-01 2.084661275148391724e-01 7.232395559549331665e-02 -7.239530980587005615e-02 -1.913546919822692871e-01 -3.311834037303924561e-01 -2.379344701766967773e-01 -2.474296987056732178e-01 -4.995023012161254883e-01 -3.476452827453613281e-01 -2.585409879684448242e-01 -2.082743644714355469e-01 -9.427033364772796631e-02 -1.653070896863937378e-01 -1.983093172311782837e-01 -3.642502799630165100e-02 8.794093877077102661e-02 -1.020719297230243683e-02 -1.697341799736022949e-01 -8.523733168840408325e-02 -1.705987900495529175e-01 -1.281939893960952759e-01 -1.687916181981563568e-02 5.175255239009857178e-02 -1.100524887442588806e-02 2.903741225600242615e-02 1.408957317471504211e-02 1.020350307226181030e-01 6.061662361025810242e-02 -8.436980843544006348e-02 -1.139137893915176392e-01 -1.655267328023910522e-01 -1.594093739986419678e-01 -2.916198372840881348e-01 -2.483398765325546265e-01 -2.214714288711547852e-01 -2.525199651718139648e-01 -2.774893045425415039e-01 -2.788375318050384521e-01 -2.606726884841918945e-01 -1.933488696813583374e-01 -1.908251196146011353e-01 -2.144432663917541504e-01 -1.421190500259399414e-01 1.231991499662399292e-02 7.821297645568847656e-02 4.849005490541458130e-02 -3.023888682946562767e-03 -2.021289020776748657e-01 -1.577063053846359253e-01 -1.187074407935142517e-01 1.309141702950000763e-02 9.516958147287368774e-03 -2.768912911415100098e-02 -2.214282751083374023e-02 -2.380706369876861572e-03 -5.649501085281372070e-02 -3.774543479084968567e-02 -1.913693249225616455e-01 -2.163270711898803711e-01 -2.929869592189788818e-01 -2.479560226202011108e-01 -4.017795026302337646e-01 -4.097817242145538330e-01 -4.796068072319030762e-01 -4.761047959327697754e-01 -5.341503024101257324e-01 -4.673179984092712402e-01 -4.437387585639953613e-01 -4.428015649318695068e-01 -3.011111617088317871e-01 -1.938607841730117798e-01 -9.409502893686294556e-02 1.293861027806997299e-02 6.055161939002573490e-04 -1.172094792127609253e-02 -1.599386185407638550e-01 -2.722347527742385864e-02 1.966098099946975708e-01 1.808516532182693481e-01 2.257693931460380554e-02 6.973274052143096924e-03 -2.610558830201625824e-02 6.426066160202026367e-03 -7.860897481441497803e-02 -1.056319251656532288e-01 -2.196524292230606079e-01 -2.954147458076477051e-01 -3.317166566848754883e-01 -3.096315860748291016e-01 -4.747019112110137939e-01 -4.431023597717285156e-01 -3.350569903850555420e-01 -4.694305956363677979e-01 -4.684996604919433594e-01 -4.654933512210845947e-01 -5.554287433624267578e-01 -5.867336988449096680e-01 -3.437052667140960693e-01 -4.622996747493743896e-01 -4.298110604286193848e-01 -2.321172803640365601e-01 -4.688687622547149658e-02 -2.558817267417907715e-01 -1.648914366960525513e-01 -5.226949602365493774e-02 6.360486894845962524e-02 1.054698005318641663e-01 1.403086259961128235e-02 -2.628515660762786865e-02 7.465500384569168091e-03 3.008131310343742371e-02 -6.619215011596679688e-02 -6.149852275848388672e-02 -8.273652940988540649e-02 -1.598542630672454834e-01 -1.160391867160797119e-01 -2.473524361848831177e-01 -2.514554858207702637e-01 -2.005629241466522217e-01 -5.089676380157470703e-02 -2.463513910770416260e-01 -2.591860294342041016e-01 -2.144338190555572510e-01 -1.805892437696456909e-01 -1.627424508333206177e-01 -1.322802454233169556e-01 -2.098491042852401733e-01 -7.556977123022079468e-02 -5.898814648389816284e-02 -2.609899640083312988e-01 -1.913482397794723511e-01 -3.418584913015365601e-02 1.550715230405330658e-02 -1.922684162855148315e-02 2.946486696600914001e-02 2.484963461756706238e-02 9.035993367433547974e-03 -1.749263145029544830e-02 2.145030349493026733e-02 -1.847766339778900146e-03 8.367933332920074463e-03 -2.572142332792282104e-02 1.947256550192832947e-02 -8.005512878298759460e-03 3.694703802466392517e-02 1.465287059545516968e-02 1.186167821288108826e-02 -6.759267300367355347e-03 -2.295384556055068970e-02 -4.761385172605514526e-02 -4.669125005602836609e-02 1.660235598683357239e-02 2.976661315187811852e-03 3.049286454916000366e-02 2.450041659176349640e-02 1.559023396112024784e-03 -3.305676952004432678e-02 -5.486936867237091064e-02 -4.033667221665382385e-02 -2.407689392566680908e-02 -1.288596540689468384e-03 -2.491462975740432739e-03 -8.506873622536659241e-03 8.470389991998672485e-03
8.065834641456604004e-03 2.609926834702491760e-02 -1.709140278398990631e-02 -1.640363782644271851e-02 2.619231864809989929e-02 5.589038133621215820e-03 -1.550156623125076294e-03 -1.304193027317523956e-02 -1.949525438249111176e-02 -1.776560395956039429e-02 2.768607810139656067e-02 2.164004743099212646e-02 3.933203220367431641e-02 5.387842189520597458e-03 -5.987150594592094421e-03 2.440415322780609131e-03 1.625505089759826660e-02 -8.325330913066864014e-03 8.742220699787139893e-03 1.830437406897544861e-02 4.189211875200271606e-03 -9.273564442992210388e-03 -3.309889137744903564e-02 -5.459884181618690491e-03 8.128851652145385742e-03 2.631282061338424683e-02 -2.036011777818202972e-02 2.206947654485702515e-03 1.595396548509597778e-02 3.528988733887672424e-02 2.455769479274749756e-02 6.091721355915069580e-03 3.925408702343702316e-03 8.798584342002868652e-02 2.545790188014507294e-02 1.027731597423553467e-01 1.415755450725555420e-01 1.004399359226226807e-01 1.068960279226303101e-01 1.417195744579657912e-04 1.832687556743621826e-01 1.428000479936599731e-01 1.095412969589233398e-01 3.558445954695343971e-03 -9.325832128524780273e-03 -5.147366970777511597e-02 -2.826878242194652557e-02 8.216280490159988403e-02 6.892159581184387207e-02 -8.180545642971992493e-03 2.086602151393890381e-02 -2.158408984541893005e-02 -3.031678497791290283e-04 -2.694463729858398438e-02 -1.653277501463890076e-02 2.954572066664695740e-02 1.680804044008255005e-02 5.401939153671264648e-03 3.270889073610305786e-02 -8.752410113811492920e-02 -1.045393124222755432e-01 3.891357406973838806e-02 9.823670983314514160e-02 1.264023333787918091e-01 1.441854387521743774e-01 1.895387843251228333e-02 -5.449758470058441162e-02 5.518805235624313354e-02 8.645097911357879639e-02 8.447784185409545898e-02 7.737410813570022583e-02 1.595891565084457397e-01 -2.259708382189273834e-02 -1.879103854298591614e-02 5.824796110391616821e-02 -4.848115146160125732e-02 6.249679252505302429e-02 -1.034318506717681885e-01 5.519610643386840820e-02 -1.072279363870620728e-01 -8.172400295734405518e-02 -4.919768124818801880e-02 3.363571688532829285e-02 -1.507679559290409088e-02 3.287177905440330505e-02 -1.231351122260093689e-02 1.717614531517028809e-01 -8.027519285678863525e-02 -8.935013413429260254e-02 -1.212505474686622620e-01 -2.887425478547811508e-03 1.209050789475440979e-02 -1.329037696123123169e-01 -5.109528824687004089e-02 -1.662371158599853516e-01 -6.260953098535537720e-02 6.272343546152114868e-02 9.738863259553909302e-02 -6.599935889244079590e-02 -7.805784791707992554e-02 -9.772320836782455444e-02 -9.924909472465515137e-02 8.271287381649017334e-02 1.496842713095247746e-03 -4.953773319721221924e-02 4.459600150585174561e-02 1.919571608304977417e-01 1.446276009082794189e-01 2.599076740443706512e-02 1.223092675209045410e-01 -1.050942670553922653e-02 -3.678955137729644775e-03 1.597303524613380432e-02 1.972122862935066223e-02 1.453444659709930420e-01 7.754178345203399658e-02 4.350523650646209717e-02 -7.468611747026443481e-02 -1.081418432295322418e-02 -5.320720747113227844e-02 -1.217555180191993713e-01 -4.621132463216781616e-02 3.233454748988151550e-02 2.584894932806491852e-02 -3.481777757406234741e-02 -2.419998943805694580e-01 -2.683483064174652100e-01 -1.368655711412429810e-01 -6.815312802791595459e-02 9.682703763246536255e-02 6.161013618111610413e-02 -2.650552242994308472e-02 -1.573032140731811523e-02 4.798540100455284119e-02 6.329502910375595093e-02 7.640131562948226929e-02 1.309186816215515137e-01 1.714228391647338867e-01 2.276473939418792725e-01 1.590558439493179321e-01 -2.620084583759307861e-02 2.906256541609764099e-02 1.354978531599044800e-01 -1.600685566663742065e-01 -1.129659861326217651e-01 -6.783548276871442795e-03 -1.544754952192306519e-01 -1.336638778448104858e-01 -2.318305335938930511e-02 -3.001842461526393890e-02 -9.458265453577041626e-02 1.349539589136838913e-02 1.826489269733428955e-01 -1.886212266981601715e-02 -1.899825483560562134e-01 -2.067160755395889282e-01 -1.306438446044921875e-01 -1.499232500791549683e-01 -1.354137361049652100e-01 -9.261264652013778687e-02 -7.669752836227416992e-02 -1.651516184210777283e-02 -3.885010257363319397e-02 -6.192306056618690491e-02 2.048663049936294556e-01 4.334366917610168457e-01 3.561346828937530518e-01 1.570692062377929688e-01 3.143690153956413269e-02 -2.361998520791530609e-02 6.067482009530067444e-02 -1.149751543998718262e-01 -6.825028359889984131e-02 -9.205180220305919647e-03 -1.594152748584747314e-01 -2.244134098291397095e-01 -7.061412930488586426e-02 -8.435040712356567383e-03 1.244870666414499283e-02 5.615347251296043396e-02 1.463849246501922607e-01 -2.955591119825839996e-02 3.757701814174652100e-02 1.968123763799667358e-02 -1.217969805002212524e-01 3.603608533740043640e-02 1.449930816888809204e-01 7.987717539072036743e-02 9.360277652740478516e-02 1.924926489591598511e-01 2.073987871408462524e-01 2.760483324527740479e-01 3.453565239906311035e-01 4.513183236122131348e-01 2.737404406070709229e-01 4.443638492375612259e-03 2.699601650238037109e-02 -1.722861081361770630e-02 1.552799791097640991e-01 1.514779925346374512e-01 -1.963787078857421875e-01 -1.039223894476890564e-01 -1.619077026844024658e-01 -5.300600454211235046e-02 1.059391573071479797e-01 9.866215288639068604e-03 1.005131471902132034e-02 6.141883134841918945e-02 7.417875528335571289e-02 -6.252496386878192425e-04 -3.429878037422895432e-03 1.538954824209213257e-01 9.292272478342056274e-02 7.845679670572280884e-02 2.477876842021942139e-01 3.065283298492431641e-01 2.143853157758712769e-01 1.932505816221237183e-01 1.886627078056335449e-01 3.080624938011169434e-01 1.877260059118270874e-01 1.366445720195770264e-01 1.124137565493583679e-01 -2.223313786089420319e-02 -1.288025528192520142e-01 1.839206069707870483e-01 -3.523334115743637085e-02 6.336636841297149658e-02 -1.322094947099685669e-01 3.228281810879707336e-02 1.212030202150344849e-01 2.302475273609161377e-01 1.661536544561386108e-01 1.192365027964115143e-02 2.366560883820056915e-02 -6.447362154722213745e-02 -4.535795748233795166e-02 5.056846514344215393e-02 1.199072375893592834e-01 1.161780506372451782e-01 2.706648595631122589e-02 3.360417438670992851e-03 1.210797354578971863e-01 7.156533747911453247e-02 7.234689593315124512e-02 3.121835552155971527e-02 3.919462114572525024e-02 7.614077627658843994e-02 1.499741226434707642e-01 2.280832976102828979e-01 1.405412554740905762e-01 2.153617441654205322e-01 1.480457782745361328e-01 1.589493006467819214e-01 -7.548025250434875488e-02 -8.513176813721656799e-03 -9.187499433755874634e-02 1.359294652938842773e-01 2.958182692527770996e-01 2.032922357320785522e-01 8.221010118722915649e-02 5.834254622459411621e-02 -5.414819344878196716e-02 -8.049282431602478027e-02 -1.760156452655792236e-01 -1.798029989004135132e-02 2.377829886972904205e-02 -5.846799910068511963e-02 -1.653020456433296204e-02 -1.032425090670585632e-01 -1.123491153120994568e-01 -1.528578400611877441e-01 -6.191826425492763519e-03 5.665519088506698608e-02 2.536481618881225586e-02 -7.984769344329833984e-02 1.914044469594955444e-01 3.592266440391540527e-01 3.001829087734222412e-01 -1.024864763021469116e-01 1.510706841945648193e-01 3.269655406475067139e-01 3.811527416110038757e-02 -2.879269719123840332e-01 8.385906368494033813e-02 1.945616155862808228e-01 3.733888268470764160e-01 2.386088371276855469e-01 1.157081276178359985e-01 1.064879745244979858e-01 8.182287216186523438e-02 -3.347051143646240234e-02 -1.752261072397232056e-02 -9.524578601121902466e-02 -5.800741165876388550e-02 -1.497937142848968506e-01 -2.852273583412170410e-01 -3.199201524257659912e-01 -1.567694246768951416e-01 -6.843291223049163818e-02 -5.783920735120773315e-02 1.811122149229049683e-02 -8.947320282459259033e-03 -8.335340023040771484e-02 2.404157817363739014e-01 3.272810578346252441e-01 1.975150257349014282e-01 2.608902007341384888e-02 1.453666687011718750e-01 9.769157506525516510e-03 -9.618013352155685425e-02 -4.293374717235565186e-02 1.287591755390167236e-01 3.379782438278198242e-01 3.557908535003662109e-01 2.490888983011245728e-01 2.478664666414260864e-01 2.327582538127899170e-01 2.003464102745056152e-01 1.915524601936340332e-01 1.649959385395050049e-01 8.716657757759094238e-02 -7.992455735802650452e-03 -2.145179957151412964e-01 -3.479960560798645020e-01 -2.496945261955261230e-01 -3.780731931328773499e-02 -2.413602545857429504e-02 -2.585848048329353333e-02 9.032464772462844849e-02 1.732015013694763184e-01 3.214309737086296082e-02 1.263243407011032104e-01 1.829176694154739380e-01 4.671691954135894775e-01 2.177137285470962524e-01 4.967866092920303345e-02 1.850368827581405640e-01 1.050511561334133148e-02 9.849914908409118652e-02 1.330115199089050293e-01 2.756817042827606201e-01 1.489926427602767944e-01 1.631050854921340942e-01 2.353182882070541382e-01 1.276339739561080933e-01 1.151158809661865234e-01 2.456043362617492676e-01 1.218779608607292175e-01 5.059136822819709778e-02 -1.016590818762779236e-01 -1.263615041971206665e-01 -1.510677635669708252e-01 -1.047316566109657288e-01 5.720271915197372437e-02 3.896399214863777161e-02 1.527002006769180298e-01 2.845344841480255127e-01 1.062183901667594910e-01 8.611948788166046143e-02 2.697695419192314148e-02 1.316788494586944580e-01 1.651950776576995850e-01 5.358891189098358154e-02 6.127867382019758224e-03 1.200804263353347778e-01 8.014001697301864624e-02 1.122752130031585693e-01 1.514021456241607666e-01 1.546970754861831665e-01 2.244617417454719543e-02 1.851607263088226318e-01 1.944532841444015503e-01 2.454683333635330200e-01 2.130383849143981934e-01 2.370743006467819214e-01 -9.592249989509582520e-02 -9.121692180633544922e-02 -5.122407525777816772e-02 -8.803907781839370728e-02 -8.469595760107040405e-02 -9.236659854650497437e-02 7.974164932966232300e-02 1.626772284507751465e-01 1.986613124608993530e-01 3.094203472137451172e-01 1.134621053934097290e-01 -7.248687744140625000e-02 -7.604728639125823975e-02 9.265020489692687988e-02 -1.879186183214187622e-02 1.353413425385951996e-02 7.591328024864196777e-02 8.147714287042617798e-02 2.035174816846847534e-01 1.392076760530471802e-01 6.642082333564758301e-02 7.441352307796478271e-02 3.065514750778675079e-02 6.767761427909135818e-03 8.018946647644042969e-02 5.727663263678550720e-02 1.067033559083938599e-01 -1.929779420606791973e-03 -1.903106272220611572e-01 -2.448679134249687195e-02 1.679416149854660034e-01 2.776377089321613312e-02 6.149652972817420959e-02 1.197718232870101929e-01 5.499078333377838135e-02 1.286422759294509888e-01 2.883246727287769318e-02 -9.305939078330993652e-03 5.314964801073074341e-02 5.938505753874778748e-02 -2.022112458944320679e-01 -7.130333036184310913e-02 -9.006793797016143799e-02 -6.955967098474502563e-02 7.229310274124145508e-02 2.607939951121807098e-02 -4.982930049300193787e-02 2.251402102410793304e-02 -5.647135898470878601e-02 -6.701510399580001831e-02 -1.439902931451797485e-01 -2.640712559223175049e-01 -1.576725542545318604e-01 -2.028750181198120117e-01 -9.785442054271697998e-02 -1.940542608499526978e-01 -1.482640951871871948e-01 5.064995959401130676e-02 2.898749411106109619e-01 1.615568846464157104e-01 7.817339897155761719e-02 1.452030092477798462e-01 3.093923442065715790e-02 -1.046445518732070923e-01 -1.990829706192016602e-01 -2.015856951475143433e-01 1.334105059504508972e-02 5.504865571856498718e-02 -1.949746310710906982e-01 -3.520895838737487793e-01 -6.057646125555038452e-02 -7.875929027795791626e-02 5.741793289780616760e-02 2.188302390277385712e-02 -9.880010783672332764e-02 -6.046272069215774536e-02 -8.518463373184204102e-02 -1.229126900434494019e-01 -2.751821279525756836e-01 -3.734714388847351074e-01 -3.447668254375457764e-01 -1.859560310840606689e-01 -1.753089874982833862e-01 -1.746650934219360352e-01 -7.961018383502960205e-02 1.243190988898277283e-01 2.617048025131225586e-01 1.495493054389953613e-01 1.246232166886329651e-01 5.317831411957740784e-03 -1.134808957576751709e-01 -2.564704716205596924e-01 -2.645299434661865234e-01 -1.622479707002639771e-01 -7.727538794279098511e-02 -4.225532710552215576e-02 -1.129123568534851074e-01 -3.134651780128479004e-01 -1.878964453935623169e-01 -1.423019766807556152e-01 -1.938500255346298218e-02 -1.888801716268062592e-02 -5.674962326884269714e-02 6.863302737474441528e-02 -1.046331152319908142e-01 -2.484719902276992798e-01 -2.765416204929351807e-01 -3.957800567150115967e-01 -3.517465591430664062e-01 -1.727380454540252686e-01 -8.615254610776901245e-02 -7.166970986872911453e-03 2.802802063524723053e-02 1.601755172014236450e-01 3.001340627670288086e-01 2.264170050621032715e-01 9.317774325609207153e-02 -1.286409795284271240e-01 -1.573656797409057617e-01 -2.657370567321777344e-01 -9.071739017963409424e-02 -1.510824710130691528e-01 -7.960198819637298584e-02 -1.402566134929656982e-01 1.243022158741950989e-01 -9.246472269296646118e-02 -1.166236400604248047e-01 -7.680605351924896240e-02 2.221689075231552124e-01 -2.046495303511619568e-02 -1.007341966032981873e-01 -5.272622779011726379e-02 -1.426152884960174561e-01 -2.848245501518249512e-01 -3.047707378864288330e-01 -3.454074859619140625e-01 -2.496702969074249268e-01 -1.701286882162094116e-01 -1.022178214043378830e-02 -1.028907112777233124e-02 4.566033184528350830e-02 2.181682437658309937e-01 2.627471089363098145e-01 7.972229272127151489e-02 -4.897426441311836243e-02 -1.116770431399345398e-01 -2.084203213453292847e-01 -1.816161125898361206e-01 -1.068315058946609497e-01 -2.470975071191787720e-01 -1.023105606436729431e-01 -1.930411309003829956e-01 8.073527365922927856e-02 7.435040920972824097e-02 7.267592102289199829e-02 -3.831553831696510315e-02 -2.409788034856319427e-02 -2.259186282753944397e-02 -1.541610211133956909e-01 -3.267546892166137695e-01 -4.093330800533294678e-01 -3.425373733043670654e-01 -3.365823626518249512e-01 -2.469685226678848267e-01 -9.636490792036056519e-02 -3.136597946286201477e-02 1.347269304096698761e-02 -7.294973731040954590e-02 1.274848636239767075e-02 2.518553733825683594e-01 2.334058135747909546e-01 5.471662431955337524e-02 -5.948219075798988342e-02 -2.881064265966415405e-02 -1.500210762023925781e-01 -9.347282350063323975e-02 -1.632255315780639648e-01 -2.155962288379669189e-01 -1.165253072977066040e-01 -7.850859314203262329e-02 1.288928389549255371e-01 1.890073865652084351e-01 -4.061102401465177536e-03 1.704709418118000031e-02 5.476977676153182983e-03 4.143343865871429443e-02 -9.952373802661895752e-02 -5.248649120330810547e-01 -4.123902320861816406e-01 -3.229948878288269043e-01 -2.850978672504425049e-01 -1.188212111592292786e-01 -7.106236368417739868e-02 -5.013996735215187073e-02 3.540459088981151581e-03 -5.197083577513694763e-02 3.108869493007659912e-02 1.915560960769653320e-01 1.153884828090667725e-01 8.518561720848083496e-02 2.339462749660015106e-02 2.299592085182666779e-02 -8.317430317401885986e-02 -2.050347253680229187e-02 -1.340491622686386108e-01 -8.352180570363998413e-02 8.173937350511550903e-02 -5.622390285134315491e-02 5.688331648707389832e-02 9.826463460922241211e-02 -1.343232691287994385e-01 3.690932318568229675e-02 -2.046274207532405853e-02 -1.259886194020509720e-02 -9.934237599372863770e-02 -4.259930253028869629e-01 -1.468620598316192627e-01 -5.542746186256408691e-02 3.801147919148206711e-03 -5.775607377290725708e-02 -7.099814713001251221e-02 -3.271306306123733521e-02 -3.278662636876106262e-02 -1.724364119581878185e-03 1.734629645943641663e-02 1.913074702024459839e-01 1.259862482547760010e-01 3.922203183174133301e-02 -2.186237089335918427e-02 1.430181413888931274e-01 4.853105545043945312e-02 1.603147760033607483e-02 -3.598137199878692627e-02 9.499521553516387939e-02 1.503328680992126465e-01 -4.999349266290664673e-02 -6.280385702848434448e-02 -5.997762829065322876e-02 -1.698377430438995361e-01 -1.683338731527328491e-02 -2.533387765288352966e-02 1.163532398641109467e-02 -9.972782433032989502e-02 -2.874366939067840576e-01 7.486478984355926514e-02 9.401404857635498047e-02 7.145898044109344482e-02 4.155598208308219910e-02 3.612634912133216858e-02 -6.153993308544158936e-02 -1.467696875333786011e-01 -2.748749591410160065e-02 7.079052180051803589e-02 9.980872273445129395e-02 9.378518164157867432e-02 -1.901553198695182800e-02 6.003360729664564133e-03 9.123532474040985107e-02 8.357028709724545479e-04 7.832229137420654297e-02 -3.625247860327363014e-03 5.201435461640357971e-02 8.045995235443115234e-02 5.422077700495719910e-02 -3.122065030038356781e-02 -3.770586103200912476e-03 -1.359536349773406982e-01 -2.925342507660388947e-02 -2.142973244190216064e-04 2.009852230548858643e-02 -9.447123110294342041e-02 -3.296467959880828857e-01 1.068459078669548035e-01 1.387691050767898560e-01 6.755209714174270630e-02 1.230484060943126678e-02 5.088911578059196472e-02 -8.768238127231597900e-02 -8.962180465459823608e-02 -9.779851138591766357e-02 -3.294734284281730652e-02 -1.094503607600927353e-02 -6.676302105188369751e-02 2.029806748032569885e-02 1.919123530387878418e-01 4.508905485272407532e-02 7.920065894722938538e-03 5.406225100159645081e-02 -4.573700949549674988e-02 1.441710740327835083e-01 9.893133491277694702e-02 1.413643807172775269e-01 -2.865813486278057098e-02 1.343647837638854980e-01 -8.338425308465957642e-02 2.799558266997337341e-02 1.490327343344688416e-02 2.834379673004150391e-03 -1.098148152232170105e-01 -6.727821379899978638e-02 -8.507260680198669434e-02 -1.057662442326545715e-02 9.351962059736251831e-02 4.602460935711860657e-02 -7.356166094541549683e-02 -1.583881974220275879e-01 -9.749525785446166992e-02 1.157229244709014893e-01 1.065274924039840698e-01 1.234602481126785278e-01 9.114869683980941772e-02 1.248077973723411560e-01 1.549094915390014648e-01 -9.707520902156829834e-02 2.170709148049354553e-02 1.122978031635284424e-01 1.084088608622550964e-01 2.514505386352539062e-02 -4.448077082633972168e-02 1.932431361638009548e-03 -7.648650556802749634e-02 -1.599884219467639923e-02 1.824503578245639801e-02 3.228605166077613831e-02 1.129261404275894165e-02 2.102107182145118713e-02 -1.246068328619003296e-01 1.864267140626907349e-01 -7.234151940792798996e-03 -7.678657770156860352e-02 -3.397100046277046204e-02 -4.524819925427436829e-02 -9.310140460729598999e-02 -1.272681355476379395e-01 2.067269198596477509e-02 7.569790631532669067e-02 1.709997504949569702e-01 1.368604153394699097e-01 2.299167215824127197e-01 2.534692883491516113e-01 2.526124715805053711e-01 3.139157593250274658e-01 1.961279958486557007e-01 7.192695140838623047e-02 3.061001934111118317e-02 -1.277081370353698730e-01 -8.421169966459274292e-02 9.203577786684036255e-02 2.350460924208164215e-02 3.662078455090522766e-02 -6.105973199009895325e-02 -1.350373029708862305e-02 3.072059527039527893e-02 -3.128056600689888000e-02 -2.241058647632598877e-02 1.318300366401672363e-01 1.260789334774017334e-01 -5.028216540813446045e-02 2.971175126731395721e-02 1.127973645925521851e-01 6.122924014925956726e-02 1.721090674400329590e-01 1.211901307106018066e-01 1.069726422429084778e-01 1.836656332015991211e-01 2.004856467247009277e-01 3.959849476814270020e-01 2.241325974464416504e-01 7.496511936187744141e-02 2.600570023059844971e-01 1.855890303850173950e-01 -2.216707728803157806e-02 -7.200651615858078003e-02 -5.718642845749855042e-02 -7.449685037136077881e-02 -2.081925980746746063e-02 -8.892510831356048584e-02 8.016530424356460571e-02 2.453075721859931946e-02 -3.172146901488304138e-02 2.708074077963829041e-02 9.361036121845245361e-03 -3.065530955791473389e-02 1.273987069725990295e-02 1.234442740678787231e-01 2.293521612882614136e-01 2.007324844598770142e-01 2.244877964258193970e-01 2.228891551494598389e-01 3.241096138954162598e-01 4.357812404632568359e-01 4.081408679485321045e-01 3.056044876575469971e-01 2.690514028072357178e-01 3.499667346477508545e-01 2.444634139537811279e-01 3.305366933345794678e-01 4.598986208438873291e-01 2.326982319355010986e-01 7.148823887109756470e-02 1.684188842773437500e-02 -7.225639652460813522e-03 -9.667704999446868896e-02 2.053474634885787964e-02 9.023007005453109741e-03 -3.041895851492881775e-02 -3.555184230208396912e-02 -3.186457604169845581e-02
-1.344060897827148438e-02 3.141472861170768738e-02 -1.698644831776618958e-02 -3.342716395854949951e-02 2.381950989365577698e-02 2.620307728648185730e-02 -2.035193145275115967e-03 -1.378782093524932861e-03 2.933105453848838806e-02 -1.620510220527648926e-02 -1.473258249461650848e-02 -5.936712026596069336e-03 2.778584882616996765e-02 2.131703868508338928e-02 3.555851802229881287e-02 2.300648391246795654e-02 3.389537334442138672e-03 -1.628800854086875916e-02 3.522343561053276062e-02 1.224785670638084412e-02 -7.985813543200492859e-03 -2.365673147141933441e-02 3.435735031962394714e-02 -3.023920394480228424e-02 3.553489968180656433e-02 6.470121443271636963e-04 1.081563904881477356e-02 6.801463663578033447e-03 1.655200123786926270e-02 -2.835668623447418213e-03 2.195811271667480469e-02 1.400917768478393555e-03 1.621957868337631226e-03 -1.273543946444988251e-02 -1.510295271873474121e-02 3.481524437665939331e-02 4.285610467195510864e-02 -7.104448974132537842e-02 -1.766463741660118103e-03 -9.792745113372802734e-02 -2.133253216743469238e-02 -5.958365648984909058e-02 1.112919822335243225e-01 1.949326395988464355e-01 1.313925385475158691e-01 -1.242433413863182068e-01 2.514419378712773323e-03 -3.204785659909248352e-02 1.802136190235614777e-02 5.574610084295272827e-03 2.957213297486305237e-02 -3.434337303042411804e-02 1.935781911015510559e-02 -2.084858156740665436e-02 -1.094931364059448242e-02 8.171435445547103882e-03 1.667223870754241943e-02 2.600806578993797302e-02 3.303438797593116760e-02 8.942062035202980042e-03 -5.088768154382705688e-02 8.374962024390697479e-03 2.897129394114017487e-02 5.090553686022758484e-02 -1.149219796061515808e-01 4.954328387975692749e-02 1.674817949533462524e-01 9.862325340509414673e-02 3.784316405653953552e-02 7.799775898456573486e-02 1.480786874890327454e-02 1.320813894271850586e-01 3.542868793010711670e-01 2.555094361305236816e-01 2.634853422641754150e-01 1.308500021696090698e-01 7.142418622970581055e-02 -3.257232159376144409e-02 -5.825892090797424316e-02 5.245563015341758728e-02 1.533047761768102646e-02 4.757442977279424667e-03 2.788005396723747253e-02 9.342946112155914307e-03 6.948113441467285156e-03 -1.521045900881290436e-02 1.709005534648895264e-01 8.335930854082107544e-02 7.856330275535583496e-02 2.111786603927612305e-02 3.038901835680007935e-02 2.328888624906539917e-01 1.793800741434097290e-01 1.283482611179351807e-01 -1.220399141311645508e-01 -2.130854725837707520e-01 1.147449091076850891e-01 2.544500678777694702e-02 -1.063906773924827576e-01 5.536750704050064087e-02 1.501719206571578979e-01 5.302138254046440125e-02 1.376150995492935181e-01 4.852228611707687378e-02 -8.837051689624786377e-02 -1.970024853944778442e-01 -1.176017746329307556e-01 -1.906085759401321411e-01 -1.245537325739860535e-01 -5.992621183395385742e-02 -2.884653210639953613e-02 2.035566791892051697e-02 -1.635920256376266479e-02 1.253786031156778336e-02 2.053360790014266968e-01 5.456205829977989197e-02 1.553415507078170776e-01 2.363474220037460327e-01 3.144479691982269287e-01 3.697226941585540771e-01 4.034969210624694824e-01 3.317205905914306641e-01 2.475178539752960205e-01 1.761521995067596436e-01 5.511974915862083435e-02 -2.562319673597812653e-02 -3.088146634399890900e-02 1.068850904703140259e-01 2.554989755153656006e-01 1.158901676535606384e-01 1.017595976591110229e-01 1.614957451820373535e-01 -7.189419865608215332e-02 -7.130526006221771240e-02 -1.659650057554244995e-01 -1.245035827159881592e-01 -6.064964085817337036e-02 7.000728696584701538e-02 1.519254297018051147e-01 1.874777860939502716e-02 -3.175456821918487549e-02 -2.798705920577049255e-02 3.451463580131530762e-01 2.617841958999633789e-01 3.247313797473907471e-01 2.676998972892761230e-01 3.057875037193298340e-01 2.920401096343994141e-01 3.553657978773117065e-02 -3.561996668577194214e-02 1.368808150291442871e-01 7.150974124670028687e-02 2.849660627543926239e-02 -8.398352190852165222e-03 -6.326518952846527100e-03 5.236753076314926147e-02 8.664711564779281616e-02 -9.707579389214515686e-03 -5.435627326369285583e-02 -3.711895644664764404e-02 -7.008482515811920166e-02 7.204484194517135620e-02 9.080450981855392456e-02 -4.089941084384918213e-02 -5.756425485014915466e-02 8.296851813793182373e-02 4.592542722821235657e-02 2.031802944839000702e-02 2.523254975676536560e-02 5.884438753128051758e-02 -1.088979467749595642e-01 1.313965115696191788e-02 -1.948661543428897858e-02 -4.484688490629196167e-02 1.020685732364654541e-01 -4.231831803917884827e-02 -2.336772233247756958e-01 -1.789446473121643066e-01 -6.733539700508117676e-02 -6.065097451210021973e-02 -5.022383481264114380e-02 -7.883290760219097137e-03 1.397462375462055206e-02 1.662507653236389160e-02 -1.021880358457565308e-01 -1.703007072210311890e-01 -1.098250895738601685e-01 -1.887121945619583130e-01 2.108783647418022156e-02 9.889881312847137451e-02 1.162978634238243103e-02 1.625689417123794556e-01 -1.764519885182380676e-02 -3.309152554720640182e-03 1.486262977123260498e-01 1.610415801405906677e-02 -4.047814582008868456e-04 1.470667719841003418e-01 -1.532138884067535400e-01 -1.625136584043502808e-01 3.146247193217277527e-02 -4.933229461312294006e-02 -1.517844945192337036e-01 -1.823188066482543945e-01 -7.666266709566116333e-02 -1.855239421129226685e-01 -1.447987854480743408e-01 -1.925232559442520142e-01 -8.923184126615524292e-02 -8.287664502859115601e-02 1.509045362472534180e-01 4.372752085328102112e-02 -2.574526891112327576e-02 -5.647885426878929138e-02 -3.505897149443626404e-02 -6.073815375566482544e-02 5.432210746221244335e-04 1.108884364366531372e-01 1.309200525283813477e-01 8.011789619922637939e-02 -2.803605422377586365e-02 1.036210432648658752e-01 1.414060592651367188e-01 8.406774699687957764e-02 -6.484747678041458130e-02 4.318829998373985291e-02 -6.397066265344619751e-02 8.961954712867736816e-02 1.496812552213668823e-01 -6.979274004697799683e-02 -1.738121807575225830e-01 -2.334794998168945312e-01 -2.023715227842330933e-01 -1.053917184472084045e-01 -4.421335831284523010e-02 -2.425022423267364502e-01 -8.194996416568756104e-02 1.219691783189773560e-01 1.835374087095260620e-01 1.673008799552917480e-01 4.566461779177188873e-03 -4.179898276925086975e-02 -3.384796902537345886e-02 4.087357595562934875e-02 1.335068140178918839e-02 1.132079660892486572e-01 3.038326501846313477e-01 1.206148043274879456e-01 8.509175479412078857e-02 3.809753060340881348e-01 3.244582414627075195e-01 2.230207920074462891e-01 -1.022334955632686615e-02 -2.656284021213650703e-03 7.295539975166320801e-02 1.963160634040832520e-01 1.663464009761810303e-01 -7.010965794324874878e-02 -1.120091974735260010e-01 -2.309880405664443970e-02 2.766680158674716949e-02 7.360045798122882843e-03 -1.243615597486495972e-01 -7.783902436494827271e-02 -7.321134954690933228e-02 1.061251387000083923e-01 1.200360730290412903e-01 3.545977920293807983e-02 -1.963503472506999969e-02 -1.032495647668838501e-01 -9.323699027299880981e-02 -2.791487425565719604e-02 7.061454653739929199e-02 2.069899886846542358e-01 4.186702370643615723e-01 3.150136470794677734e-01 3.690479099750518799e-01 4.701012969017028809e-01 2.211929112672805786e-01 1.036475673317909241e-01 -3.914834186434745789e-02 -4.892767965793609619e-02 6.417802721261978149e-02 2.469183802604675293e-01 1.904179602861404419e-01 -5.926830321550369263e-02 -1.475267112255096436e-01 -6.003674864768981934e-02 3.283235058188438416e-02 -1.303858309984207153e-01 -5.623164400458335876e-02 -9.317283332347869873e-02 -6.665927916765213013e-02 4.771070554852485657e-02 2.791845798492431641e-02 -1.095377095043659210e-02 -4.446033015847206116e-02 -6.910926848649978638e-02 -3.383481875061988831e-02 4.022741317749023438e-02 2.166692018508911133e-01 2.174773365259170532e-01 2.793568670749664307e-01 3.207196593284606934e-01 3.232701718807220459e-01 3.138478398323059082e-01 1.862055063247680664e-01 1.407896429300308228e-01 -7.030635327100753784e-02 -8.547914773225784302e-02 -1.836742311716079712e-01 2.236679941415786743e-01 4.088873565196990967e-01 6.241957098245620728e-02 -6.353810429573059082e-02 -1.665851622819900513e-01 -1.600661575794219971e-01 -1.898028254508972168e-01 -1.109911426901817322e-01 -2.199704498052597046e-01 -1.954483240842819214e-01 -1.057867985218763351e-02 1.018161792308092117e-02 -1.581587828695774078e-02 -8.005842566490173340e-02 -9.046247601509094238e-02 3.270461410284042358e-02 1.166050434112548828e-01 2.484492957592010498e-01 1.198043301701545715e-01 -9.232191741466522217e-02 -6.168431788682937622e-02 3.389311581850051880e-02 1.435364335775375366e-01 1.938153058290481567e-01 1.337700039148330688e-01 -4.882620647549629211e-02 -8.571265637874603271e-02 -1.428361684083938599e-01 1.241822764277458191e-01 1.996039897203445435e-01 -4.699119180440902710e-02 -9.686911106109619141e-02 -1.988468766212463379e-01 -1.841045320034027100e-01 -5.644402652978897095e-02 -1.870633661746978760e-01 -2.992563545703887939e-01 -8.659654110670089722e-02 -4.323447123169898987e-02 5.946366488933563232e-02 8.711569011211395264e-03 -1.307846903800964355e-01 -9.214655309915542603e-02 -1.190901827067136765e-02 7.525642961263656616e-02 7.383015751838684082e-02 -1.002993658185005188e-01 -3.988377451896667480e-01 -4.828014075756072998e-01 -5.355554223060607910e-01 -1.891331225633621216e-01 1.484555844217538834e-02 9.938395023345947266e-02 1.240498125553131104e-01 -1.054280549287796021e-01 -9.193396568298339844e-02 1.746091693639755249e-01 -2.588494867086410522e-02 -1.576404422521591187e-01 -6.272941082715988159e-02 -7.117268443107604980e-02 5.022554472088813782e-02 -4.667574167251586914e-02 -1.967944651842117310e-01 -2.677855193614959717e-01 -1.190672665834426880e-01 -1.580323874950408936e-01 1.725591532886028290e-02 -3.160432353615760803e-02 -1.264410614967346191e-01 -8.892006427049636841e-02 -9.637193381786346436e-02 -3.266709297895431519e-02 -1.118727847933769226e-01 -3.559734821319580078e-01 -4.614750742912292480e-01 -5.476229190826416016e-01 -5.706142187118530273e-01 -2.858828902244567871e-01 -7.191508077085018158e-03 4.339324682950973511e-02 5.771929398179054260e-02 -4.589835554361343384e-02 -9.126866608858108521e-02 1.303182989358901978e-01 -1.237934157252311707e-01 -1.547041386365890503e-01 6.338760722428560257e-03 -5.679710581898689270e-02 1.286752223968505859e-01 5.574883520603179932e-02 -6.155152618885040283e-02 -1.545845866203308105e-01 -7.224565744400024414e-02 4.937119781970977783e-02 1.750817298889160156e-01 -8.799693547189235687e-03 -1.268721520900726318e-01 -2.555708587169647217e-01 -2.601317465305328369e-01 -2.255615293979644775e-01 -3.149062693119049072e-01 -3.695153892040252686e-01 -3.873164951801300049e-01 -3.664005696773529053e-01 -3.138566315174102783e-01 -2.079318761825561523e-01 -5.346267297863960266e-02 5.810082331299781799e-02 2.966039627790451050e-02 -1.118488516658544540e-02 1.179805845022201538e-01 -3.466708818450570107e-03 -1.815759688615798950e-01 -2.735499739646911621e-01 -6.057535484433174133e-02 -2.674594335258007050e-02 6.315260380506515503e-02 1.337786018848419189e-01 -8.290247060358524323e-03 -5.382871255278587341e-02 7.488188892602920532e-02 2.636621892452239990e-01 3.472306132316589355e-01 2.378758788108825684e-02 -7.126600295305252075e-02 -2.997893691062927246e-01 -3.120099306106567383e-01 -2.848506271839141846e-01 -4.066398739814758301e-01 -3.416383862495422363e-01 -3.560944795608520508e-01 -3.405824601650238037e-01 -9.534624218940734863e-02 -1.254609525203704834e-01 8.418975025415420532e-02 -2.088107541203498840e-02 -3.115172684192657471e-02 8.430645614862442017e-02 2.028265148401260376e-01 1.995093226432800293e-01 -8.972334116697311401e-02 -3.215388953685760498e-01 -2.261345237493515015e-01 -2.416186630725860596e-01 -1.776016801595687866e-01 7.703346014022827148e-02 3.659025579690933228e-02 -1.260778456926345825e-01 -4.268947616219520569e-02 2.130383551120758057e-01 2.720793187618255615e-01 4.007514938712120056e-02 -5.862813815474510193e-02 -2.029733508825302124e-01 -1.303263008594512939e-01 -1.320545077323913574e-01 -1.551780253648757935e-01 -1.613261848688125610e-01 -7.892937213182449341e-02 -1.361152529716491699e-01 -5.918439012020826340e-03 -1.065157428383827209e-01 1.622689664363861084e-01 1.082590781152248383e-02 1.893963664770126343e-02 7.738930732011795044e-02 1.145245283842086792e-01 2.826040685176849365e-01 -5.362661927938461304e-02 -1.350098401308059692e-01 -1.023456901311874390e-01 -1.082838028669357300e-01 -3.222184255719184875e-02 -1.205493733286857605e-01 -1.575555652379989624e-01 -3.057010769844055176e-01 -1.842590272426605225e-01 4.465975239872932434e-02 1.779046803712844849e-01 8.946541696786880493e-02 -1.044872496277093887e-02 -6.085998192429542542e-02 -8.987957984209060669e-02 1.121105253696441650e-02 -1.062183901667594910e-01 -6.260043382644653320e-02 -6.186227127909660339e-02 -1.069370582699775696e-01 -2.274416014552116394e-02 4.216152057051658630e-02 1.515879034996032715e-01 1.041297614574432373e-01 3.937825385946780443e-04 6.267149001359939575e-02 9.694174677133560181e-02 3.700601160526275635e-01 9.151940047740936279e-02 8.515184372663497925e-02 -4.729899019002914429e-02 -2.050274796783924103e-02 -1.097389846108853817e-03 -2.084621340036392212e-01 -3.353132605552673340e-01 -3.359472751617431641e-01 -2.830050587654113770e-01 -6.279318034648895264e-02 6.055653840303421021e-02 1.336638033390045166e-01 1.448130458593368530e-01 8.466789126396179199e-02 -3.413190692663192749e-02 8.877287060022354126e-02 6.078819930553436279e-02 -5.389658734202384949e-02 -5.824826657772064209e-02 -8.525597304105758667e-02 9.453712403774261475e-02 1.651949137449264526e-01 -9.454849362373352051e-02 -4.345389828085899353e-02 -9.857027791440486908e-03 9.089321829378604889e-03 -3.884944692254066467e-02 1.387446522712707520e-01 -1.228465512394905090e-02 5.863441526889801025e-02 5.853574350476264954e-02 -6.296152621507644653e-02 -8.177416771650314331e-02 -3.351155519485473633e-01 -3.314126431941986084e-01 -2.115777134895324707e-01 -1.476454138755798340e-01 6.907606869935989380e-02 7.833153754472732544e-02 1.905599087476730347e-01 2.842923104763031006e-01 2.400084137916564941e-01 1.974379122257232666e-01 1.480278223752975464e-01 1.584708392620086670e-01 -1.670053042471408844e-02 -7.275485992431640625e-02 -4.250749200582504272e-02 -1.534868963062763214e-03 -2.905328758060932159e-02 -9.923366457223892212e-02 -1.710528135299682617e-02 7.670931518077850342e-04 2.085802331566810608e-02 -9.785673022270202637e-02 6.703725457191467285e-02 7.652955502271652222e-02 3.508260101079940796e-02 5.562582984566688538e-02 9.806286543607711792e-04 -7.599445432424545288e-02 -1.012255027890205383e-01 -1.616118401288986206e-01 7.795581221580505371e-02 2.279821597039699554e-02 7.887949235737323761e-03 1.215649992227554321e-01 1.964877247810363770e-01 2.915171086788177490e-01 2.315269261598587036e-01 3.548629283905029297e-01 2.017236053943634033e-01 2.314912229776382446e-01 1.740503162145614624e-01 3.525665402412414551e-02 6.777311861515045166e-02 1.224407106637954712e-01 6.581702735275030136e-03 -8.530756831169128418e-02 2.550278417766094208e-02 9.115203469991683960e-02 8.924433588981628418e-02 1.072650402784347534e-02 1.325875073671340942e-01 1.768835484981536865e-01 1.038816124200820923e-01 4.178865626454353333e-02 2.351244911551475525e-02 -2.725512348115444183e-02 -1.331342570483684540e-02 -9.499139152467250824e-03 8.471075445413589478e-02 9.497592598199844360e-02 9.129197895526885986e-02 1.650967895984649658e-01 2.387792468070983887e-01 2.765306830406188965e-01 2.428897768259048462e-01 2.639737725257873535e-01 1.802205592393875122e-01 2.275024801492691040e-01 1.885070204734802246e-01 1.915105283260345459e-01 1.066341847181320190e-01 3.608246892690658569e-02 1.073975786566734314e-01 -3.776358440518379211e-03 -3.416637331247329712e-02 1.133849471807479858e-01 1.039852499961853027e-01 -3.161361441016197205e-02 1.544059365987777710e-01 2.725280821323394775e-01 3.001958131790161133e-01 1.281292140483856201e-01 5.420837551355361938e-02 -2.279190579429268837e-03 -1.929477229714393616e-02 4.938720539212226868e-02 1.570894122123718262e-01 1.363826096057891846e-01 1.318607479333877563e-01 2.063607275485992432e-01 1.512474119663238525e-01 1.724360585212707520e-01 2.146694958209991455e-01 1.323205083608627319e-01 1.425873786211013794e-01 2.064775377511978149e-01 2.987474501132965088e-01 1.011364981532096863e-01 1.769641339778900146e-01 2.058999985456466675e-01 1.837231516838073730e-01 -6.818360835313796997e-02 -3.137655928730964661e-02 -2.345322445034980774e-02 1.856286078691482544e-03 3.176471889019012451e-01 3.147414326667785645e-01 1.997968703508377075e-01 1.298647969961166382e-01 1.176163107156753540e-01 1.587679088115692139e-01 1.870610984042286873e-03 7.429055869579315186e-02 8.454399183392524719e-03 1.039353981614112854e-01 1.741817742586135864e-01 1.833122372627258301e-01 5.414467677474021912e-02 1.691135764122009277e-01 1.352417767047882080e-01 1.662714779376983643e-01 1.976483911275863647e-01 9.532652050256729126e-02 2.380770444869995117e-01 1.556419581174850464e-01 9.514253586530685425e-03 1.979411244392395020e-01 2.403920441865921021e-01 1.552904546260833740e-01 1.970279365777969360e-01 -2.111065015196800232e-02 3.003736957907676697e-02 -5.594445392489433289e-03 2.102577835321426392e-01 2.140059620141983032e-01 8.870831876993179321e-02 -2.900571562349796295e-04 1.745202988386154175e-01 1.081705242395401001e-01 6.070025637745857239e-02 -5.881305783987045288e-02 -2.104761004447937012e-01 -9.117625653743743896e-02 6.473588943481445312e-02 8.732683956623077393e-02 9.168253093957901001e-02 -8.730303496122360229e-02 -8.247847668826580048e-03 6.263483315706253052e-02 9.732055664062500000e-02 1.107344776391983032e-01 7.603077590465545654e-02 -2.434588782489299774e-02 -4.615727439522743225e-02 2.383759617805480957e-02 8.399727940559387207e-02 1.092243790626525879e-01 1.578888297080993652e-01 -3.458548337221145630e-02 -3.058568574488162994e-02 1.072009652853012085e-02 8.411176502704620361e-02 -1.690118014812469482e-01 -2.340969741344451904e-01 -9.977071732282638550e-02 1.864976286888122559e-01 2.251297384500503540e-01 2.651318311691284180e-01 1.087351739406585693e-01 -1.326732486486434937e-01 -1.756643056869506836e-01 2.053827233612537384e-02 2.661840431392192841e-02 -3.761627152562141418e-02 -2.983494997024536133e-01 -2.209394127130508423e-01 -6.260233372449874878e-02 -6.870107352733612061e-02 3.974572941660881042e-02 -1.668590158224105835e-01 -2.168933451175689697e-01 -2.442163378000259399e-01 -1.781411767005920410e-01 2.327025867998600006e-02 -7.622840255498886108e-02 1.343000773340463638e-02 3.512555733323097229e-02 3.506474196910858154e-03 3.278980776667594910e-02 -4.169054329395294189e-03 -5.541077628731727600e-02 -7.862114906311035156e-02 -6.435138732194900513e-02 -1.226920709013938904e-01 -8.650146424770355225e-02 -2.099148742854595184e-02 -1.219126358628273010e-01 -8.921054005622863770e-02 -1.292902082204818726e-01 -1.185107380151748657e-01 -1.967047005891799927e-01 -2.500741481781005859e-01 -2.943280935287475586e-01 -2.979182302951812744e-01 -9.890363365411758423e-02 -7.316636294126510620e-02 -8.235537260770797729e-02 -2.527710795402526855e-01 -2.069002762436866760e-02 8.446656167507171631e-02 1.025874242186546326e-01 -2.043416909873485565e-02 -2.832834422588348389e-02 -1.145552843809127808e-03 1.558652520179748535e-02 -3.552775457501411438e-02 2.750284597277641296e-02 -2.294446527957916260e-02 2.070682123303413391e-02 -7.305715233087539673e-03 -3.048506937921047211e-02 -8.450175821781158447e-02 -1.375115811824798584e-01 -7.201705873012542725e-02 -6.847069412469863892e-02 -8.226305246353149414e-02 -8.666234463453292847e-02 -9.477832913398742676e-02 -2.855457365512847900e-01 -1.628657132387161255e-01 -1.544401198625564575e-01 -2.272975444793701172e-01 -2.811893522739410400e-01 -1.334277391433715820e-01 -1.630940586328506470e-01 -1.349809207022190094e-02 -8.201641030609607697e-03 -3.200037032365798950e-02 -2.974330261349678040e-02 -2.883005701005458832e-02 2.443520352244377136e-02 7.701836526393890381e-03 -2.599741891026496887e-02
-2.436487376689910889e-02 3.094776347279548645e-02 2.248428389430046082e-02 -1.617811992764472961e-02 -1.345880515873432159e-02 -4.571735858917236328e-03 2.473436295986175537e-03 1.183488592505455017e-02 9.554408490657806396e-03 1.627766713500022888e-02 -6.211392581462860107e-03 1.834561675786972046e-02 7.269527018070220947e-02 1.102902591228485107e-01 6.731782108545303345e-03 -3.550048917531967163e-03 3.436708822846412659e-02 1.841992139816284180e-03 1.232414320111274719e-02 2.130430564284324646e-02 -3.011588007211685181e-03 2.194088324904441833e-02 -2.787076681852340698e-02 2.085440605878829956e-02 -1.657855510711669922e-02 -1.510600186884403229e-02 1.651718840003013611e-02 -2.857701480388641357e-02 2.624516189098358154e-02 -3.523590788245201111e-02 -2.201943472027778625e-02 -1.803245395421981812e-02 2.536088600754737854e-02 5.864582583308219910e-02 1.230341568589210510e-01 1.405186802148818970e-01 9.197077155113220215e-02 1.076954305171966553e-01 1.720621287822723389e-01 1.174232214689254761e-01 2.440774887800216675e-01 2.199984490871429443e-01 1.883628517389297485e-01 1.080980896949768066e-01 1.256838440895080566e-01 8.482138812541961670e-02 1.547040641307830811e-01 2.842058837413787842e-01 2.786551117897033691e-01 2.459872961044311523e-01 2.365061640739440918e-02 3.098361892625689507e-03 -5.641914904117584229e-04 -1.581696607172489166e-02 5.036178976297378540e-03 -6.049195304512977600e-03 -3.172550722956657410e-02 -9.380886331200599670e-03 6.234307587146759033e-02 4.942811559885740280e-03 1.044548079371452332e-01 1.201996728777885437e-01 1.052317097783088684e-01 2.246840596199035645e-01 2.467232793569564819e-01 1.087133213877677917e-01 1.450552642345428467e-01 3.064644634723663330e-01 6.588838249444961548e-02 1.882627904415130615e-01 2.740310132503509521e-01 4.783545732498168945e-01 4.563632011413574219e-01 3.253793716430664062e-01 2.465250492095947266e-01 3.237518370151519775e-01 3.268975317478179932e-01 2.881045043468475342e-01 4.145740568637847900e-01 2.104181945323944092e-01 2.496020868420600891e-02 -9.848413057625293732e-03 1.109307259321212769e-02 6.471052765846252441e-04 -3.981359302997589111e-03 -8.493419736623764038e-03 1.657112240791320801e-01 1.113021001219749451e-01 3.653252869844436646e-02 1.503394544124603271e-01 2.586320042610168457e-01 2.100209146738052368e-01 1.455657035112380981e-01 1.472633928060531616e-01 1.714088395237922668e-02 -2.068894505500793457e-01 -1.210212334990501404e-01 7.325020432472229004e-02 -3.741443157196044922e-02 7.900747656822204590e-02 9.684024751186370850e-02 4.519633203744888306e-02 2.174472212791442871e-01 1.345100402832031250e-01 5.104827880859375000e-02 1.373090147972106934e-01 3.035111725330352783e-01 4.522787928581237793e-01 3.460592627525329590e-01 8.656551130115985870e-03 1.013442724943161011e-01 1.028653606772422791e-02 -2.463722229003906250e-02 3.959590569138526917e-02 1.021873503923416138e-01 2.034616619348526001e-01 1.805137246847152710e-01 1.301041245460510254e-01 8.666099607944488525e-02 1.208762302994728088e-01 2.537648193538188934e-02 8.249251544475555420e-02 1.680821627378463745e-01 1.072567775845527649e-01 1.231564283370971680e-01 5.431553721427917480e-02 7.242119312286376953e-02 3.310884907841682434e-02 1.640872359275817871e-01 1.549806594848632812e-01 1.217556819319725037e-01 2.114985734224319458e-01 1.028615012764930725e-01 1.091252919286489487e-02 1.100550126284360886e-02 2.427047789096832275e-01 3.798597157001495361e-01 3.038382530212402344e-01 3.107285499572753906e-01 2.551883161067962646e-01 -2.917919121682643890e-02 3.030912205576896667e-02 1.851924210786819458e-01 2.872852236032485962e-02 2.733462676405906677e-02 2.919252030551433563e-02 8.888361626304686069e-04 -6.777333468198776245e-02 -2.196000367403030396e-01 -1.386737972497940063e-01 -8.423479646444320679e-02 3.107513301074504852e-02 8.955337852239608765e-02 7.039888203144073486e-02 8.747021853923797607e-02 9.605091065168380737e-02 1.230055689811706543e-01 1.431919485330581665e-01 -2.008600533008575439e-02 4.060513526201248169e-02 1.698946952819824219e-01 8.502566069364547729e-02 -7.887756451964378357e-03 5.002830922603607178e-02 2.556906044483184814e-01 4.315524399280548096e-01 3.568801283836364746e-01 1.150703802704811096e-01 1.088298857212066650e-03 1.126250475645065308e-01 5.941505730152130127e-02 -1.563659757375717163e-01 -1.751183420419692993e-01 -1.004512980580329895e-01 -1.572035253047943115e-01 -1.818246394395828247e-01 -5.279871448874473572e-02 -9.644833207130432129e-02 -2.295867539942264557e-02 -5.494217388331890106e-03 1.082040518522262573e-01 4.504016786813735962e-02 -4.722795914858579636e-03 -3.406041767448186874e-03 -1.116870194673538208e-01 -1.073336303234100342e-01 -1.796628683805465698e-01 -9.845443814992904663e-02 1.470695994794368744e-02 -1.202708333730697632e-01 5.113889649510383606e-02 1.995327621698379517e-01 1.398289203643798828e-01 4.691808223724365234e-01 1.715158224105834961e-01 7.343357056379318237e-02 -3.595934808254241943e-02 3.890582919120788574e-02 -2.486551180481910706e-02 -1.460545659065246582e-01 -1.439363509416580200e-01 -1.329382658004760742e-01 -1.899001896381378174e-01 -9.910444170236587524e-02 7.152380794286727905e-02 -1.790504902601242065e-02 1.107229217886924744e-01 6.001788005232810974e-02 8.484338223934173584e-02 -2.257121540606021881e-02 -9.760310500860214233e-02 -8.500328287482261658e-03 -1.502314358949661255e-01 -1.771128475666046143e-01 -7.852831482887268066e-02 -7.378263771533966064e-02 -2.563333697617053986e-02 9.582526236772537231e-02 1.560094207525253296e-01 2.271047681570053101e-01 1.440812349319458008e-01 1.881198436021804810e-01 7.416427135467529297e-03 1.055391952395439148e-01 2.182533778250217438e-02 -1.930949836969375610e-01 9.891622699797153473e-03 6.575612351298332214e-03 -5.763797834515571594e-02 -1.127991452813148499e-01 -6.618488579988479614e-02 8.141600340604782104e-02 5.808238312602043152e-02 3.345155343413352966e-02 1.214735060930252075e-01 7.121226191520690918e-02 3.664074093103408813e-02 1.298581063747406006e-01 -2.379861474037170410e-02 -7.719996571540832520e-02 -8.387718349695205688e-02 -3.678934276103973389e-02 2.183757536113262177e-02 5.187846720218658447e-02 2.502116002142429352e-02 6.115662306547164917e-02 1.699021458625793457e-01 1.467889696359634399e-01 1.290422827005386353e-01 2.419757544994354248e-01 1.333171427249908447e-01 1.971437335014343262e-01 -8.799865096807479858e-02 -9.529230743646621704e-02 -1.479216665029525757e-01 4.564682953059673309e-03 -5.548284202814102173e-02 -1.217262446880340576e-01 6.169709563255310059e-02 8.523612469434738159e-02 9.439388662576675415e-02 6.471540033817291260e-02 5.011248216032981873e-02 1.326048932969570160e-02 -6.137004867196083069e-02 -1.503381785005331039e-02 -5.532281100749969482e-02 -1.100093200802803040e-01 -3.038755990564823151e-02 -3.401426598429679871e-02 -1.184512153267860413e-01 -3.412707149982452393e-02 4.714905843138694763e-02 1.582214683294296265e-01 1.253753900527954102e-01 9.754812717437744141e-02 1.659507006406784058e-01 2.803239226341247559e-01 1.614082604646682739e-01 -6.800392270088195801e-02 -3.646807000041007996e-02 -1.451786905527114868e-01 -2.890057265758514404e-01 -1.789773404598236084e-01 7.110761851072311401e-02 -4.679169133305549622e-02 2.986608259379863739e-02 1.097192466259002686e-01 1.161802709102630615e-01 1.215711086988449097e-01 6.720119714736938477e-02 -6.097906827926635742e-02 -7.182825356721878052e-02 -6.418892741203308105e-02 1.210958361625671387e-01 3.642870113253593445e-02 -1.066857352852821350e-01 -1.637225896120071411e-01 -1.421774625778198242e-01 -2.156158350408077240e-02 -3.289664536714553833e-02 -4.605612158775329590e-02 -5.714759603142738342e-02 1.086892485618591309e-01 8.229377865791320801e-02 4.449469596147537231e-02 1.416226774454116821e-01 1.871727034449577332e-02 -5.114869028329849243e-02 -7.860267907381057739e-02 -2.224768698215484619e-01 -1.944726705551147461e-01 7.179553061723709106e-02 4.526489973068237305e-02 1.714512147009372711e-02 4.352964088320732117e-02 6.822473555803298950e-02 9.894485026597976685e-02 9.253717027604579926e-03 -2.947459183633327484e-02 4.609301686286926270e-02 2.276351600885391235e-01 3.283526003360748291e-01 1.662455648183822632e-01 -7.005450874567031860e-02 -1.693397462368011475e-01 -1.348088681697845459e-01 -7.349710911512374878e-02 -1.359410136938095093e-01 -2.167125046253204346e-01 -2.899862229824066162e-01 -8.424122631549835205e-02 8.592240512371063232e-02 1.830523908138275146e-01 5.271200537681579590e-01 2.945342659950256348e-02 -4.490818455815315247e-02 -7.539691776037216187e-02 -3.016000688076019287e-01 -6.070520356297492981e-02 -4.004319012165069580e-02 2.671318873763084412e-02 8.030720800161361694e-02 3.739544376730918884e-02 1.431529317051172256e-02 -4.545018076896667480e-03 -1.572339050471782684e-02 1.034111455082893372e-01 2.531948387622833252e-01 3.654100298881530762e-01 3.103425800800323486e-01 8.000855147838592529e-02 -1.120236888527870178e-01 -1.253401935100555420e-01 -1.177131235599517822e-01 -1.069296523928642273e-01 -1.180813983082771301e-01 -9.760008752346038818e-02 -2.127257734537124634e-01 -9.502858668565750122e-02 -4.398895427584648132e-02 1.650938391685485840e-02 6.205511838197708130e-02 -5.742848664522171021e-02 1.364904493093490601e-01 -7.103908061981201172e-02 -1.240847632288932800e-01 -1.351001951843500137e-02 -2.199310362339019775e-01 1.282110158354043961e-02 7.453852146863937378e-02 4.044595733284950256e-02 1.266747415065765381e-01 1.743574589490890503e-01 -2.155467867851257324e-02 2.192995995283126831e-01 3.101512193679809570e-01 2.714826166629791260e-01 2.443650960922241211e-01 1.635958552360534668e-01 6.729833781719207764e-02 -8.538682013750076294e-02 -9.981174767017364502e-02 -8.113428205251693726e-02 -4.175715520977973938e-02 -1.179403811693191528e-01 -8.382563292980194092e-02 -1.277370303869247437e-01 -2.399401068687438965e-01 -1.850223690271377563e-01 -1.352734714746475220e-01 1.066836863756179810e-01 9.595628082752227783e-02 5.237282812595367432e-02 -1.055115759372711182e-01 -5.703990161418914795e-02 -3.184715211391448975e-01 -3.252438455820083618e-02 5.672404542565345764e-02 2.616372145712375641e-02 4.872188717126846313e-02 7.278089225292205811e-02 8.809415251016616821e-02 1.738518029451370239e-01 2.123894691467285156e-01 3.145945072174072266e-01 3.116270601749420166e-01 1.189356073737144470e-01 8.532975614070892334e-02 -5.259943380951881409e-02 -1.355317682027816772e-01 -1.795591264963150024e-01 -3.013778328895568848e-01 -2.233275920152664185e-01 -1.238315552473068237e-01 -1.539772748947143555e-01 -2.089198976755142212e-01 1.237167343497276306e-01 -3.625504299998283386e-02 7.901738584041595459e-02 4.779553413391113281e-02 2.880550222471356392e-03 2.137530148029327393e-01 -2.469023317098617554e-01 -2.983251810073852539e-01 -1.200452744960784912e-01 5.284909531474113464e-02 -3.543000295758247375e-02 -2.775577595457434654e-03 7.163063436746597290e-02 6.040255352854728699e-02 1.829928904771804810e-01 2.930835187435150146e-01 3.623116910457611084e-01 3.704967796802520752e-01 1.035002022981643677e-01 1.477596312761306763e-01 -2.019434422254562378e-02 -1.643317639827728271e-01 -2.690335810184478760e-01 -2.451356649398803711e-01 -2.549347579479217529e-01 -4.478073492646217346e-02 -4.221677407622337341e-02 -1.414331793785095215e-02 3.330026865005493164e-01 -1.301443278789520264e-01 -4.224238172173500061e-02 -8.293318003416061401e-02 1.044534370303153992e-01 1.995229274034500122e-01 -2.017718702554702759e-01 -2.655932009220123291e-01 -3.132348954677581787e-01 7.874846458435058594e-03 -5.762136355042457581e-02 -7.731226831674575806e-02 5.468323081731796265e-02 2.480880729854106903e-02 2.026464790105819702e-02 1.896324306726455688e-01 2.644613087177276611e-01 2.571006715297698975e-01 4.635229706764221191e-02 2.002179622650146484e-02 -9.249813109636306763e-02 -1.082756519317626953e-01 -2.190591543912887573e-01 -2.239676117897033691e-01 -1.800307929515838623e-01 -2.120616286993026733e-02 8.547919802367687225e-03 5.819606781005859375e-02 1.589591354131698608e-01 -2.504460811614990234e-01 -1.531378179788589478e-01 -2.231683582067489624e-03 7.831358164548873901e-02 8.903134614229202271e-02 -5.204298347234725952e-02 -9.258873015642166138e-02 -2.029877305030822754e-01 -8.844456076622009277e-02 -6.415838748216629028e-02 -6.930679548531770706e-03 -1.620554029941558838e-01 -2.025228142738342285e-01 -8.392068743705749512e-02 1.569102331995964050e-02 9.692806750535964966e-02 6.021802127361297607e-02 -4.129637032747268677e-02 -8.872396498918533325e-02 -1.472844928503036499e-01 -1.438320279121398926e-01 -1.089101424440741539e-03 2.142198756337165833e-02 8.880353718996047974e-02 3.842771286144852638e-03 -3.354646265506744385e-03 5.322426557540893555e-02 -2.562392055988311768e-01 -4.888017475605010986e-02 5.847952887415885925e-02 -1.933278739452362061e-01 6.659206002950668335e-02 1.490805745124816895e-01 1.077300235629081726e-01 1.330903619527816772e-01 -8.260553330183029175e-02 -6.637047976255416870e-02 -1.223607808351516724e-01 -8.241243660449981689e-02 -8.221390843391418457e-02 -1.664284616708755493e-01 -1.534560918807983398e-01 -3.296665474772453308e-02 2.776363398879766464e-03 -7.555954903364181519e-02 -7.546463608741760254e-02 -2.072604000568389893e-01 -1.274777948856353760e-01 -1.739062070846557617e-01 3.316916897892951965e-02 1.610274612903594971e-01 6.492401659488677979e-02 -2.467751502990722656e-02 3.135981410741806030e-02 1.643049269914627075e-01 -8.073852956295013428e-02 -2.033688826486468315e-03 -9.075342863798141479e-02 1.023385301232337952e-01 -1.716691851615905762e-01 2.091863602399826050e-01 2.519006729125976562e-01 4.767113924026489258e-02 -1.020926088094711304e-01 -4.231536388397216797e-02 -5.386648327112197876e-02 -2.722941897809505463e-02 -4.620799794793128967e-02 -1.151022687554359436e-01 -2.357425391674041748e-01 -1.806999742984771729e-01 -6.838670372962951660e-02 -7.408165931701660156e-02 -7.049783598631620407e-03 -6.780614703893661499e-02 -4.837128147482872009e-02 3.492119535803794861e-02 5.808858200907707214e-02 1.383381932973861694e-01 6.352197378873825073e-02 1.023274213075637817e-01 2.051422148942947388e-01 7.156360149383544922e-02 -1.052156314253807068e-01 -2.271971255540847778e-01 -1.181013062596321106e-01 -2.693083882331848145e-02 -2.417864277958869934e-02 1.878915578126907349e-01 2.527496218681335449e-01 1.959338337182998657e-01 -1.787741668522357941e-02 3.399542719125747681e-02 7.125700265169143677e-02 1.997150102397426963e-04 -2.128870785236358643e-02 3.155609965324401855e-02 -3.592955321073532104e-02 -5.501186102628707886e-02 -6.969513744115829468e-02 -7.322366535663604736e-02 8.380323648452758789e-02 3.219365701079368591e-02 8.008819818496704102e-02 1.264756917953491211e-01 9.157032519578933716e-02 2.046553492546081543e-01 1.068016439676284790e-01 1.967010796070098877e-01 3.691627457737922668e-02 -1.199539005756378174e-01 -9.027370810508728027e-02 -2.258788794279098511e-02 9.692806750535964966e-02 8.745293319225311279e-02 1.673018187284469604e-01 2.816660888493061066e-02 1.958257406949996948e-01 2.076506316661834717e-01 3.414224088191986084e-02 1.782741546630859375e-01 2.192807048559188843e-01 3.790982440114021301e-02 7.857833057641983032e-02 7.054950296878814697e-02 8.457761257886886597e-02 9.594532102346420288e-02 5.925906449556350708e-02 8.010187745094299316e-02 1.299742758274078369e-01 4.852330312132835388e-03 2.100134193897247314e-01 1.305619478225708008e-01 1.079488620162010193e-01 1.557399183511734009e-01 1.013416498899459839e-01 1.392845660448074341e-01 -6.474349647760391235e-02 -2.691948115825653076e-01 -5.472714453935623169e-02 3.207618743181228638e-02 -8.052916824817657471e-02 9.944816678762435913e-02 1.705100536346435547e-01 5.003282800316810608e-02 1.048595383763313293e-01 2.329970151185989380e-01 6.192797794938087463e-02 1.320666074752807617e-01 1.591132879257202148e-01 -3.076130710542201996e-02 1.671483926475048065e-02 4.727946128696203232e-03 9.760012477636337280e-02 2.309342101216316223e-02 1.114557832479476929e-01 6.919074058532714844e-02 3.928402811288833618e-02 6.868044286966323853e-02 1.505773663520812988e-01 9.769338369369506836e-02 1.047837138175964355e-01 1.256797015666961670e-01 1.716483384370803833e-01 7.447805255651473999e-02 -1.447357703000307083e-03 -1.566794216632843018e-01 -1.838021352887153625e-02 1.304580867290496826e-01 -5.482632294297218323e-02 -1.787305437028408051e-02 2.074216306209564209e-02 3.104464113712310791e-01 2.175495475530624390e-01 2.083974927663803101e-01 -2.681460045278072357e-02 -5.768253654241561890e-02 -7.185124605894088745e-02 2.644203044474124908e-02 3.264284506440162659e-02 7.204410620033740997e-03 -1.424519345164299011e-02 7.258100807666778564e-02 4.078132286667823792e-02 2.960785478353500366e-02 1.048002615571022034e-01 1.622525900602340698e-01 1.329432874917984009e-01 8.240970969200134277e-02 1.188415884971618652e-01 9.963412582874298096e-02 2.091429568827152252e-02 9.710427373647689819e-02 6.855158507823944092e-02 -2.037281244993209839e-01 -2.196322567760944366e-02 1.159838512539863586e-01 1.366408914327621460e-02 3.462115302681922913e-02 2.294240891933441162e-02 1.923632472753524780e-01 1.819248348474502563e-01 -1.458109021186828613e-01 -2.211872190237045288e-01 -4.561477899551391602e-02 -6.487710773944854736e-02 2.504704520106315613e-03 1.292708516120910645e-01 5.496617779135704041e-02 4.940867796540260315e-02 1.149613633751869202e-01 1.637636572122573853e-01 1.087796613574028015e-01 5.745768919587135315e-02 1.797681450843811035e-01 -8.919376134872436523e-02 3.738387301564216614e-02 2.078440971672534943e-02 -4.496399685740470886e-02 -2.411659061908721924e-01 -1.486484557390213013e-01 -1.039314270019531250e-01 -1.007728353142738342e-01 -3.237170353531837463e-02 5.382936820387840271e-02 -1.882235519587993622e-02 -3.206047415733337402e-02 5.084712058305740356e-03 1.478495448827743530e-01 -1.081219911575317383e-01 -3.667091429233551025e-01 -2.113072723150253296e-01 1.388543248176574707e-01 1.151669993996620178e-01 4.020230472087860107e-02 5.872351676225662231e-02 9.010995179414749146e-02 -5.194998160004615784e-02 5.461107566952705383e-02 6.820793263614177704e-03 7.120230700820684433e-03 8.125010877847671509e-02 1.297260224819183350e-01 1.840194165706634521e-01 9.653484821319580078e-02 -1.308546513319015503e-01 -1.928003877401351929e-01 -2.660191655158996582e-01 -1.629398763179779053e-01 2.051568962633609772e-02 4.315234720706939697e-02 -2.056914009153842926e-02 8.871971070766448975e-02 -7.958620786666870117e-03 -2.665965259075164795e-02 -2.807364054024219513e-02 1.184913516044616699e-02 -6.010516732931137085e-02 -1.437020301818847656e-01 -1.714427024126052856e-01 -1.637987792491912842e-01 -1.880662888288497925e-01 -1.325290203094482422e-01 -2.160069197416305542e-01 -6.833384186029434204e-02 -1.061931997537612915e-01 -2.248280644416809082e-01 -3.985309898853302002e-01 -1.864836215972900391e-01 -9.273564210161566734e-04 4.965061694383621216e-02 2.708792090415954590e-01 2.155853360891342163e-01 -1.066486760973930359e-01 -1.454038769006729126e-01 -2.546173632144927979e-01 -2.175680994987487793e-01 -4.181822389364242554e-02 1.660239510238170624e-02 3.197311982512474060e-02 1.561643183231353760e-02 2.454280480742454529e-02 3.351925686001777649e-02 6.309412419795989990e-04 -3.229283168911933899e-02 -3.362756222486495972e-03 -9.900864213705062866e-03 -3.882352961227297783e-03 -1.408301889896392822e-01 -1.977258473634719849e-01 -1.849392354488372803e-01 -2.151745855808258057e-01 -2.245082110166549683e-01 -8.219526708126068115e-02 2.519541420042514801e-02 -1.363605856895446777e-01 2.783585153520107269e-02 9.688053280115127563e-02 -2.585861831903457642e-02 -1.316358000040054321e-01 -5.156535282731056213e-02 -1.040453538298606873e-01 -1.060551404953002930e-01 -7.234890758991241455e-02 -9.523154795169830322e-02 5.761627107858657837e-03 1.125800982117652893e-02 -3.016476705670356750e-02 -3.627751022577285767e-03 2.878525480628013611e-02
-2.982381172478199005e-02 2.702021971344947815e-02 8.674621582031250000e-03 2.129744738340377808e-03 1.474386081099510193e-02 1.976954564452171326e-02 -1.523797959089279175e-02 1.230503991246223450e-02 -2.677736617624759674e-02 2.273606881499290466e-02 4.799358546733856201e-03 2.516272291541099548e-02 -3.251998871564865112e-02 -2.452444285154342651e-03 -3.453214466571807861e-02 2.798758074641227722e-02 9.233191609382629395e-03 2.045758813619613647e-02 1.896243542432785034e-02 1.112385839223861694e-02 -9.639335796236991882e-03 1.246660947799682617e-02 -3.526953607797622681e-02 1.199406385421752930e-02 7.731363177299499512e-03 -1.064758189022541046e-02 2.657486498355865479e-02 2.824509516358375549e-02 6.514377892017364502e-03 1.254962757229804993e-02 2.346946671605110168e-02 -2.182563021779060364e-02 -2.716361358761787415e-02 7.918350398540496826e-03 -2.832000516355037689e-02 -1.007059440016746521e-01 -1.019348502159118652e-01 -7.299220561981201172e-02 -1.252502501010894775e-01 6.350544095039367676e-02 -3.888748586177825928e-02 4.276432469487190247e-02 -5.365090072154998779e-02 -4.673197120428085327e-02 5.327816121280193329e-03 -1.761464029550552368e-02 -7.399543374776840210e-02 -1.644193083047866821e-01 -1.419371664524078369e-01 -1.037666350603103638e-01 -1.235968805849552155e-02 2.195380441844463348e-02 5.008190870285034180e-03 2.659001201391220093e-02 -1.139612309634685516e-02 -2.084586769342422485e-03 -3.193764761090278625e-02 -2.345581725239753723e-02 -1.133257709443569183e-02 1.283724904060363770e-01 6.134757772088050842e-02 -6.327302753925323486e-02 -3.627312369644641876e-03 4.813581332564353943e-02 -2.515279874205589294e-02 -1.928728669881820679e-01 -2.024301290512084961e-01 -4.070848971605300903e-02 -1.011628061532974243e-01 -9.985624253749847412e-02 -2.161949276924133301e-01 -2.655834555625915527e-01 -4.309693723917007446e-02 -1.842148005962371826e-01 -3.441193997859954834e-01 -3.312686085700988770e-01 -1.905025988817214966e-01 -1.894831061363220215e-01 -1.821393519639968872e-01 -1.568661034107208252e-01 -6.563156098127365112e-02 -2.124462090432643890e-02 1.414860785007476807e-02 -7.027089595794677734e-04 2.522030845284461975e-02 1.720622181892395020e-02 3.046609088778495789e-02 1.274015307426452637e-01 1.378446817398071289e-01 -1.890642493963241577e-01 -1.546847224235534668e-01 -5.101626738905906677e-02 -7.672335952520370483e-02 -1.893450468778610229e-01 -2.487940639257431030e-01 -9.465555101633071899e-02 -8.795458823442459106e-02 -1.564260423183441162e-01 -1.621418893337249756e-01 -1.974182575941085815e-01 -1.591774523258209229e-01 -2.386809438467025757e-01 -2.107484787702560425e-01 -2.382879704236984253e-01 -2.255542874336242676e-01 -2.232782095670700073e-01 -2.137270569801330566e-01 -1.471948027610778809e-01 -5.909937992691993713e-02 1.109078451991081238e-01 -2.507614437490701675e-03 8.236296474933624268e-03 1.387979462742805481e-02 4.085051640868186951e-02 1.783278770744800568e-02 1.375410556793212891e-01 -5.682041496038436890e-02 -2.447830140590667725e-01 -2.105977237224578857e-01 -2.162963151931762695e-01 -1.610475480556488037e-01 -2.507666051387786865e-01 -2.833198010921478271e-01 -2.238217741250991821e-01 -1.581816524267196655e-01 -8.413422107696533203e-02 -2.847931981086730957e-01 -2.063809335231781006e-01 -8.652599900960922241e-02 7.362242043018341064e-02 4.919415339827537537e-03 -9.035620838403701782e-02 -2.517361193895339966e-02 -5.903034657239913940e-02 -1.751061528921127319e-01 7.345874793827533722e-03 6.675146520137786865e-02 1.046519279479980469e-01 1.945528984069824219e-01 -1.533995196223258972e-02 4.545722156763076782e-03 -5.173824727535247803e-03 -1.454262882471084595e-01 8.143232762813568115e-02 -1.147394701838493347e-01 -1.748888790607452393e-01 -2.373991012573242188e-01 -1.346334367990493774e-01 -3.521474078297615051e-02 -7.823087275028228760e-02 -2.723522782325744629e-01 -1.949338912963867188e-01 -8.069667965173721313e-02 -6.070848926901817322e-02 -1.436481475830078125e-01 -1.778676509857177734e-01 -2.939077913761138916e-01 -1.985055506229400635e-01 -1.576071232557296753e-01 -1.957617104053497314e-01 -2.553803026676177979e-01 -2.254689186811447144e-01 -2.616091072559356689e-01 -3.566249907016754150e-01 -1.347489804029464722e-01 3.521223366260528564e-02 5.334927514195442200e-02 5.401170998811721802e-02 -3.323356434702873230e-02 -7.947083562612533569e-02 7.100000046193599701e-03 6.807418912649154663e-02 -3.714749589562416077e-02 -1.869801878929138184e-01 -2.296998500823974609e-01 -1.868012100458145142e-01 -4.496365785598754883e-02 -1.382007896900177002e-01 -1.151833161711692810e-01 9.548676013946533203e-02 4.065065458416938782e-02 6.377347558736801147e-02 5.771677941083908081e-02 9.912995621562004089e-03 5.507035646587610245e-03 6.980116665363311768e-02 1.440300494432449341e-01 -2.449910342693328857e-02 -1.363383382558822632e-01 6.069286540150642395e-02 -3.006425127387046814e-02 -2.808981835842132568e-01 -4.147060215473175049e-01 -2.921012639999389648e-01 -1.835740506649017334e-01 4.964863508939743042e-02 4.669026657938957214e-02 -7.840525358915328979e-02 1.452717781066894531e-01 2.472249120473861694e-01 -1.342969536781311035e-01 -2.275630086660385132e-01 -1.152129620313644409e-01 -1.071040481328964233e-01 -1.135351881384849548e-01 -1.137765645980834961e-01 -3.913246467709541321e-02 -4.285652562975883484e-02 3.492965921759605408e-02 -5.222808569669723511e-02 -1.010412201285362244e-01 -6.613261997699737549e-02 1.453485637903213501e-01 2.109152078628540039e-01 2.584447562694549561e-01 1.884585991501808167e-02 -4.556091874837875366e-02 -2.489439956843852997e-02 1.360801905393600464e-01 -4.008418694138526917e-02 -2.415456622838973999e-01 -2.691950500011444092e-01 -2.833105027675628662e-01 1.475336104631423950e-01 8.844203501939773560e-02 1.297919303178787231e-01 1.062380447983741760e-01 1.912523657083511353e-01 -5.785953626036643982e-02 -2.105217128992080688e-01 -1.979724317789077759e-02 -2.012578397989273071e-02 8.909618109464645386e-02 4.203144460916519165e-02 2.073707990348339081e-02 -1.197818573564291000e-02 -9.643175639212131500e-03 -1.285859644412994385e-01 -2.702008001506328583e-02 -1.353589911013841629e-02 1.573576629161834717e-01 2.350884228944778442e-01 3.166190087795257568e-01 1.010271012783050537e-01 1.651304773986339569e-02 -6.515330076217651367e-02 1.514082867652177811e-02 -1.217115595936775208e-01 -1.983737051486968994e-01 -2.081547081470489502e-01 -1.702933758497238159e-01 9.056360274553298950e-02 1.157964766025543213e-01 1.461226344108581543e-01 1.296689361333847046e-01 1.185132116079330444e-01 -1.343134939670562744e-01 -9.339816123247146606e-02 4.387062042951583862e-03 4.901107028126716614e-02 3.209536150097846985e-02 -1.585201919078826904e-01 -6.938196718692779541e-02 -2.429023198783397675e-02 -4.713453352451324463e-03 -8.212691545486450195e-02 9.414088726043701172e-02 8.978454023599624634e-02 8.276768773794174194e-02 2.182644605636596680e-01 2.641574144363403320e-01 2.469110041856765747e-01 1.659859418869018555e-01 -2.600992843508720398e-02 -4.122995771467685699e-03 -1.570589542388916016e-01 -1.304120719432830811e-01 -2.078827619552612305e-01 -2.310562133789062500e-01 -6.228090077638626099e-02 1.649996042251586914e-01 2.098871171474456787e-01 1.812670379877090454e-01 8.715477306395769119e-04 1.031847088597714901e-03 1.750428229570388794e-02 4.070715978741645813e-02 1.008201315999031067e-01 -8.812852203845977783e-02 -1.156104505062103271e-01 -1.042635887861251831e-01 -7.004294544458389282e-02 -1.424638032913208008e-01 1.138283386826515198e-01 1.210477650165557861e-01 1.396900415420532227e-01 2.061894237995147705e-01 1.983847320079803467e-01 3.427781760692596436e-01 2.817268371582031250e-01 2.588943839073181152e-01 8.706326782703399658e-02 9.137944132089614868e-02 -9.425609558820724487e-02 -6.021476536989212036e-02 -9.213997423648834229e-02 -2.375437617301940918e-01 -1.981941610574722290e-02 1.844557225704193115e-01 2.659641206264495850e-01 2.080837041139602661e-01 1.143070086836814880e-01 1.818536221981048584e-01 -6.298529356718063354e-02 2.646469511091709137e-02 8.209270238876342773e-02 1.683422327041625977e-01 5.952242016792297363e-02 1.901131570339202881e-01 1.691292375326156616e-01 9.900241345167160034e-02 2.008055597543716431e-01 2.144853770732879639e-01 1.740508377552032471e-01 1.459275782108306885e-01 2.376326620578765869e-01 2.935674190521240234e-01 3.229099810123443604e-01 3.359576761722564697e-01 9.863649308681488037e-02 1.190203651785850525e-01 6.840788573026657104e-02 -1.490200310945510864e-01 -5.715564358979463577e-03 -4.379095882177352905e-02 -2.097237389534711838e-03 1.788538135588169098e-02 2.929827570915222168e-01 2.393036186695098877e-01 2.919661700725555420e-01 1.783265471458435059e-01 1.601381227374076843e-02 9.678805246949195862e-03 1.544608622789382935e-01 1.724056899547576904e-01 1.442590653896331787e-01 3.006953299045562744e-01 2.625253498554229736e-01 1.763967797160148621e-02 -7.694184035062789917e-02 -5.644891783595085144e-02 8.626504242420196533e-02 1.296118348836898804e-01 9.869121015071868896e-02 2.133006304502487183e-01 1.481581032276153564e-01 1.826218664646148682e-01 2.790483413264155388e-03 5.207140743732452393e-02 -1.077477857470512390e-01 -2.493532150983810425e-01 -1.570470780134201050e-01 -5.418336763978004456e-02 1.590324752032756805e-02 2.707531675696372986e-02 2.761435508728027344e-01 1.869455277919769287e-01 2.958642244338989258e-01 2.072487026453018188e-01 4.322409257292747498e-02 7.380367070436477661e-02 1.416005194187164307e-01 1.529303938150405884e-01 1.221885979175567627e-01 1.866426020860671997e-01 1.403535008430480957e-01 -4.003572836518287659e-02 -2.340562045574188232e-01 -8.066661655902862549e-02 8.955013006925582886e-02 7.924236357212066650e-02 3.381804749369621277e-02 -2.369209192693233490e-02 2.723383158445358276e-02 1.016730442643165588e-01 1.017127782106399536e-01 -9.204763919115066528e-02 -2.480296790599822998e-01 -1.021777018904685974e-01 -1.722774356603622437e-01 -7.293559610843658447e-02 6.238800659775733948e-02 -6.140072271227836609e-02 1.083853691816329956e-01 2.776680588722229004e-01 2.083575725555419922e-01 1.220355853438377380e-01 1.773341372609138489e-02 1.365844607353210449e-01 9.557013958692550659e-02 9.647045284509658813e-02 -4.526041075587272644e-02 1.041842326521873474e-01 2.545147389173507690e-02 -1.887581199407577515e-01 -2.999419569969177246e-01 -1.208154037594795227e-01 1.946344040334224701e-02 -6.363452970981597900e-02 -6.724998820573091507e-03 4.328411445021629333e-02 1.607451885938644409e-01 1.524229496717453003e-01 -1.472699921578168869e-02 -7.358493655920028687e-02 -4.472773522138595581e-02 8.013532310724258423e-02 -9.937239438295364380e-02 1.180828437209129333e-01 2.725326269865036011e-02 -4.817431792616844177e-02 -5.568839609622955322e-02 -1.159913241863250732e-01 6.796288490295410156e-02 1.732383370399475098e-01 4.040407761931419373e-02 2.253106608986854553e-02 9.222237020730972290e-02 -3.823168575763702393e-02 -3.051068075001239777e-02 3.989167883992195129e-02 -1.817660331726074219e-01 -3.181401193141937256e-01 -3.056282401084899902e-01 -1.136255860328674316e-01 8.527963608503341675e-02 -6.632771342992782593e-02 6.321038305759429932e-02 8.326241374015808105e-02 7.543928176164627075e-02 1.069333553314208984e-01 -5.106674134731292725e-02 8.399374783039093018e-03 -5.777640035375952721e-04 -4.197785630822181702e-03 -5.478456616401672363e-02 1.082451120018959045e-01 2.716664597392082214e-02 6.580207496881484985e-02 -1.165130585432052612e-01 -1.780205219984054565e-01 -1.300484985113143921e-01 1.683276705443859100e-02 3.666225820779800415e-02 -2.712172223255038261e-03 5.905924364924430847e-02 8.361738175153732300e-02 -3.795018047094345093e-02 -5.199219286441802979e-02 -2.701839208602905273e-01 -3.239887952804565430e-01 -1.874308288097381592e-01 -4.176337644457817078e-02 2.257972955703735352e-02 9.625695645809173584e-02 1.054262816905975342e-01 -4.832628741860389709e-02 -7.349040359258651733e-02 -8.867792785167694092e-03 -4.875144455581903458e-03 -2.691164240241050720e-02 -1.352514028549194336e-01 -2.748933434486389160e-01 -2.225400805473327637e-01 -1.890011504292488098e-02 1.146958693861961365e-01 2.537343278527259827e-02 -5.980128049850463867e-02 -9.147104620933532715e-02 -2.442720383405685425e-01 -7.758106291294097900e-02 -2.223187312483787537e-02 1.873808447271585464e-03 1.017617359757423401e-01 1.369189471006393433e-01 1.628444194793701172e-01 2.355283685028553009e-02 -2.121673375368118286e-01 -1.722653657197952271e-01 2.913798391819000244e-02 2.891615778207778931e-02 5.415998026728630066e-02 6.447843462228775024e-02 3.737069293856620789e-02 3.451028093695640564e-02 -1.263536661863327026e-01 -8.207976818084716797e-02 -6.338126957416534424e-02 -1.217214018106460571e-01 -1.103503778576850891e-01 -9.715586155652999878e-02 -9.270258247852325439e-02 -6.936099380254745483e-02 8.231458067893981934e-02 1.220797449350357056e-01 -1.165870111435651779e-02 -2.772904001176357269e-02 -3.955168426036834717e-01 -2.193836569786071777e-01 -4.968771710991859436e-02 -1.050910167396068573e-02 1.004553511738777161e-01 1.720698326826095581e-01 1.072860807180404663e-01 -3.880033642053604126e-02 -1.015824079513549805e-01 -7.149814069271087646e-02 -8.257778827100992203e-04 7.027401775121688843e-02 -6.823363155126571655e-02 -8.811215311288833618e-02 5.249276757240295410e-02 2.297524549067020416e-02 -8.684257417917251587e-02 -1.027154549956321716e-01 -1.532937288284301758e-01 -1.618925929069519043e-01 -2.523231804370880127e-01 -2.669868767261505127e-01 5.086447345092892647e-04 -2.774355933070182800e-02 -1.901840046048164368e-02 -8.764727972447872162e-03 2.079143524169921875e-01 1.258249729871749878e-01 -2.591149806976318359e-01 -2.127614021301269531e-01 -1.166638433933258057e-01 -3.451061621308326721e-02 -4.047032818198204041e-02 1.105493754148483276e-01 1.317966878414154053e-01 -1.105010807514190674e-01 -1.021317616105079651e-01 4.825446382164955139e-02 4.809516295790672302e-02 -1.485376618802547455e-02 -1.589813977479934692e-01 -2.450975179672241211e-01 -7.116709649562835693e-02 -1.784535497426986694e-01 -1.449458450078964233e-01 -1.236307099461555481e-01 -2.447776347398757935e-01 -1.712091118097305298e-01 -2.767069339752197266e-01 -1.581775695085525513e-01 7.187617570161819458e-02 7.573222368955612183e-02 -8.058544248342514038e-02 2.837820723652839661e-02 1.115165427327156067e-01 -6.782601028680801392e-02 -2.597356736660003662e-01 -2.463712245225906372e-01 -2.061911672353744507e-01 -2.086963653564453125e-01 -1.079194471240043640e-01 7.359287887811660767e-02 1.062015369534492493e-01 -1.697704568505287170e-02 -2.410097792744636536e-02 1.346014533191919327e-02 4.749522730708122253e-02 -5.678475275635719299e-02 -2.891816198825836182e-01 -3.591958284378051758e-01 -2.231047153472900391e-01 -3.430638909339904785e-01 -3.146502673625946045e-01 -2.865008115768432617e-01 -2.126037776470184326e-01 -8.867922425270080566e-02 -1.921787261962890625e-01 -2.291935086250305176e-01 1.371656358242034912e-02 1.441195309162139893e-01 -8.445879817008972168e-02 -2.832497237250208855e-03 -1.182061210274696350e-01 -1.153680980205535889e-01 -1.685706377029418945e-01 -9.914552420377731323e-02 -1.181382313370704651e-01 -1.526530832052230835e-01 -1.056751981377601624e-01 -7.855261117219924927e-02 4.193120077252388000e-02 -1.012039277702569962e-02 1.959461905062198639e-02 -4.644564166665077209e-02 -9.143034368753433228e-02 -1.860474348068237305e-01 -2.950810194015502930e-01 -3.119844496250152588e-01 -3.639292120933532715e-01 -2.868559658527374268e-01 -2.760410010814666748e-01 -2.658534049987792969e-01 -1.074818968772888184e-01 -2.102048099040985107e-01 -2.179487496614456177e-01 -7.213330268859863281e-02 4.759435728192329407e-02 6.155530735850334167e-02 2.827299386262893677e-02 -4.290667921304702759e-02 -8.633732795715332031e-02 -1.230064406991004944e-01 -1.841371804475784302e-01 -2.589724957942962646e-01 -6.472562998533248901e-02 7.278417050838470459e-02 1.054847687482833862e-01 1.086062937974929810e-01 4.625850543379783630e-02 4.521691054105758667e-02 -3.403367591090500355e-04 -2.397925965487957001e-02 -1.627956181764602661e-01 -1.880099922418594360e-01 -1.897961199283599854e-01 -3.240601122379302979e-01 -2.460482418537139893e-01 -2.723817527294158936e-01 -2.794283628463745117e-01 -2.638347744941711426e-01 -1.086301654577255249e-01 -9.906676411628723145e-02 -1.596286892890930176e-01 -1.169350072741508484e-01 1.422248929738998413e-01 1.310132257640361786e-02 3.793603926897048950e-02 -1.552193239331245422e-02 -1.350591890513896942e-02 -2.851544320583343506e-01 -2.255107015371322632e-01 -8.910999447107315063e-02 -4.643299430608749390e-02 1.235074475407600403e-01 1.576387435197830200e-01 -5.454817414283752441e-02 -2.558150514960289001e-02 3.883441165089607239e-02 1.326284371316432953e-02 -6.957574933767318726e-02 -1.213892176747322083e-01 -2.187327593564987183e-01 -2.293856739997863770e-01 -1.831573098897933960e-01 -1.250411570072174072e-01 -1.798644661903381348e-01 -2.924832105636596680e-01 -2.980925142765045166e-01 -1.769239455461502075e-01 -5.863313004374504089e-02 -1.891117990016937256e-01 3.378784283995628357e-02 7.444263994693756104e-02 -1.485638022422790527e-01 -2.833862975239753723e-02 -2.269151061773300171e-02 1.805632933974266052e-02 -9.288506209850311279e-02 1.681665889918804169e-02 2.175899296998977661e-01 3.163931965827941895e-01 1.697183847427368164e-01 7.452081143856048584e-02 -2.196114510297775269e-03 -1.805876493453979492e-01 -5.011309683322906494e-02 -4.535009339451789856e-02 6.487295776605606079e-02 -9.500756859779357910e-02 -1.162303015589714050e-01 -1.386431157588958740e-01 -1.323482692241668701e-01 -1.347047090530395508e-01 -1.982692331075668335e-01 -1.621320396661758423e-01 -1.338495463132858276e-01 -1.224841251969337463e-01 -6.796124577522277832e-02 -1.215328872203826904e-01 -7.481070607900619507e-02 -4.757929965853691101e-02 -5.233513936400413513e-02 2.932317554950714111e-03 3.397437557578086853e-02 -2.546033822000026703e-02 -5.470955744385719299e-02 2.621680796146392822e-01 3.625138103961944580e-01 2.568581104278564453e-01 -1.206083223223686218e-02 1.145297437906265259e-01 9.406315535306930542e-02 1.369961351156234741e-01 4.866241291165351868e-02 1.075763255357742310e-01 6.366356462240219116e-02 9.360369294881820679e-02 1.554741263389587402e-01 -2.824275568127632141e-02 -2.420841343700885773e-02 -1.167290210723876953e-01 -1.830109953880310059e-01 4.724444448947906494e-02 7.288186252117156982e-02 4.545420035719871521e-02 1.658860221505165100e-02 -1.256165206432342529e-01 7.214554399251937866e-02 -8.077543228864669800e-03 -5.170246586203575134e-03 -9.579727426171302795e-03 1.174402236938476562e-02 3.507393971085548401e-02 -3.381713107228279114e-02 1.233393102884292603e-01 1.153078079223632812e-01 1.412467751652002335e-02 -6.633681245148181915e-03 1.050586774945259094e-01 2.073559612035751343e-01 2.756703197956085205e-01 3.013791888952255249e-02 -8.077736198902130127e-02 1.017672494053840637e-01 3.028907477855682373e-01 1.595747768878936768e-01 4.326938092708587646e-02 9.594400227069854736e-02 -7.987867109477519989e-03 5.098528414964675903e-02 5.287306755781173706e-02 -1.171889621764421463e-02 1.501376330852508545e-01 2.690970003604888916e-01 4.023766517639160156e-02 -7.146295905113220215e-02 4.976543784141540527e-02 -2.945038303732872009e-02 1.183637604117393494e-02 -3.144783899188041687e-02 -1.571017503738403320e-02 -2.100616693496704102e-03 -9.004989638924598694e-03 1.002616137266159058e-01 1.100065559148788452e-01 1.604247838258743286e-01 2.920767366886138916e-01 1.792386323213577271e-01 1.863955408334732056e-01 2.502835690975189209e-01 1.263505965471267700e-01 6.656611710786819458e-02 2.406536638736724854e-01 1.246688440442085266e-01 1.321041136980056763e-01 1.316488236188888550e-01 3.372242748737335205e-01 2.261954545974731445e-01 1.831523627042770386e-01 3.592685610055923462e-02 1.157209798693656921e-01 2.135731130838394165e-01 1.433105170726776123e-01 -2.624239027500152588e-02 2.315292879939079285e-02 6.175972521305084229e-03 -2.336334064602851868e-02
