4.386369138956069946e-02 1.605166941881179810e-01 -5.778627842664718628e-02 -4.713836014270782471e-01 1.366046071052551270e-02 3.859750330448150635e-01 -1.010715365409851074e-01 -3.206672966480255127e-01 1.956392228603363037e-01 -2.443697601556777954e-01 -5.171028897166252136e-03 -1.106873378157615662e-01 1.625796854496002197e-01 -2.442221194505691528e-01 3.233689442276954651e-02 -3.563818931579589844e-01 -6.419479846954345703e-01 1.427659392356872559e-01 2.719927430152893066e-01 -3.787158429622650146e-01 -7.885859161615371704e-02 -4.709621667861938477e-01 -1.018844842910766602e-01 -6.545760035514831543e-01 2.604086101055145264e-01 2.974550053477287292e-02 -4.662416502833366394e-02 -1.580250561237335205e-01 -1.104378178715705872e-01 -3.735163509845733643e-01 -2.697020769119262695e-01 -6.773684918880462646e-02 -2.179356366395950317e-01 -1.757673770189285278e-01 -1.882258802652359009e-01 7.763393223285675049e-02 -2.843792736530303955e-01 9.994491189718246460e-02 -1.594615131616592407e-01 1.703126281499862671e-01 1.100370436906814575e-01 -4.228550791740417480e-01 -5.667714476585388184e-01 1.099331527948379517e-01 -5.727604031562805176e-01 7.044663280248641968e-02 1.019616276025772095e-01 -3.216853439807891846e-01 1.498822420835494995e-01 -1.689605712890625000e-01 2.021180093288421631e-01 -4.808926582336425781e-02 8.788360655307769775e-02 5.570335313677787781e-02 -3.960127010941505432e-02 -1.860281676054000854e-01 -1.783382892608642578e-01 2.242253273725509644e-01 -1.654510647058486938e-01 1.807388365268707275e-01 -4.239596724510192871e-01 3.245404660701751709e-01 -2.814377546310424805e-01 -5.590412020683288574e-01
3.264281451702117920e-01 -4.833014011383056641e-01 2.077975720167160034e-01 -1.830240339040756226e-01 -1.479782611131668091e-01 3.909916803240776062e-02 2.258414030075073242e-01 1.778432428836822510e-01 2.824488095939159393e-02 -2.239206135272979736e-01 -4.949960112571716309e-02 -1.108602993190288544e-02 -1.423813849687576294e-01 1.876542270183563232e-01 -2.784727215766906738e-01 2.577918171882629395e-01 1.564895063638687134e-01 1.863625347614288330e-01 -6.472148299217224121e-01 2.506082057952880859e-01 -1.491000205278396606e-01 1.128509119153022766e-01 5.691612139344215393e-02 2.003216743469238281e-01 -2.558241784572601318e-01 -4.221229255199432373e-01 -4.127793610095977783e-01 -3.914629817008972168e-01 -7.211977243423461914e-02 1.095174178481101990e-01 -3.315597772598266602e-01 -2.773031294345855713e-01 -3.888775110244750977e-01 2.404494136571884155e-01 -2.474497407674789429e-01 -5.096106529235839844e-01 1.994135528802871704e-01 -2.004458010196685791e-01 -2.110796608030796051e-02 -2.223362326622009277e-01 -2.176413536071777344e-01 5.504307150840759277e-02 1.222140565514564514e-01 -3.619607090950012207e-01 -2.019972652196884155e-01 -1.259972900152206421e-01 -1.292446348816156387e-02 -5.121194720268249512e-01 6.007722765207290649e-02 2.085422128438949585e-01 -5.420328974723815918e-01 -2.644949853420257568e-01 -1.698931902647018433e-01 2.628148198127746582e-01 -6.225277185440063477e-01 1.604269593954086304e-01 -8.870454132556915283e-02 -9.140940755605697632e-02 -4.055663347244262695e-01 2.443771064281463623e-01 1.302691921591758728e-02 -3.648504987359046936e-02 3.593895584344863892e-02 1.541939079761505127e-01
1.462556570768356323e-01 2.204986214637756348e-01 8.273659646511077881e-02 3.239177167415618896e-02 -2.679573372006416321e-02 -1.244068518280982971e-01 -3.543489575386047363e-01 -5.705641955137252808e-02 -3.716049194335937500e-01 9.101375192403793335e-02 -2.884015738964080811e-01 1.174192801117897034e-01 -2.239168882369995117e-01 -2.121448069810867310e-01 1.967722922563552856e-01 2.149792760610580444e-01 -3.754290565848350525e-02 1.647683382034301758e-01 -1.536176949739456177e-01 1.755484938621520996e-01 -2.595904469490051270e-01 -3.643243908882141113e-01 -3.327228128910064697e-01 -3.560848534107208252e-03 9.462793823331594467e-04 1.070362254977226257e-01 -2.140935808420181274e-01 1.981867402791976929e-01 6.457369774580001831e-02 6.769502907991409302e-02 5.155057460069656372e-02 -1.426769345998764038e-01 6.845981627702713013e-02 2.217063158750534058e-01 -3.970724642276763916e-01 -6.443643569946289062e-02 1.676190048456192017e-01 -3.550820648670196533e-01 -2.789213955402374268e-01 1.813816130161285400e-01 7.074225693941116333e-02 9.075247216969728470e-04 -6.333751678466796875e-01 -2.374743223190307617e-01 -5.252580642700195312e-01 4.617084562778472900e-02 -2.374168336391448975e-01 -1.379225105047225952e-01 9.916606359183788300e-03 -4.295879006385803223e-01 -7.232245057821273804e-02 -3.351370692253112793e-01 -4.254477098584175110e-02 1.630992144346237183e-01 -2.585007846355438232e-01 2.337795495986938477e-01 2.579735964536666870e-02 7.619411218911409378e-03 1.212900131940841675e-01 -1.334483325481414795e-01 2.593313753604888916e-01 -9.204042702913284302e-02 -3.443399965763092041e-01 -3.429011404514312744e-01
-3.507650643587112427e-02 -8.161204308271408081e-02 -2.545588910579681396e-01 2.272963821887969971e-01 7.919544726610183716e-02 6.842886656522750854e-02 1.156548708677291870e-01 1.346575170755386353e-01 -1.461528390645980835e-01 1.913541555404663086e-01 1.187207773327827454e-01 -4.211747646331787109e-01 -7.408926635980606079e-02 -5.538515001535415649e-02 5.459882318973541260e-02 7.259732228703796864e-06 3.199666738510131836e-01 1.502115130424499512e-01 -3.382880985736846924e-01 2.153347879648208618e-01 -1.506719738245010376e-01 -3.512746095657348633e-01 -3.402889147400856018e-02 -6.946540623903274536e-02 -1.447981297969818115e-01 -1.529769748449325562e-01 4.854069277644157410e-02 1.718278676271438599e-01 8.837455511093139648e-02 1.361239105463027954e-01 -1.597663015127182007e-01 -6.804394721984863281e-02 1.145797148346900940e-01 -4.602099061012268066e-01 -6.621681153774261475e-02 -2.037182152271270752e-01 4.822882637381553650e-02 5.024449899792671204e-02 -6.301713734865188599e-02 -1.607480794191360474e-01 1.238725185394287109e-01 -2.904287576675415039e-01 -1.767723858356475830e-01 -6.375462561845779419e-02 1.566496044397354126e-01 9.053906053304672241e-02 -1.637114584445953369e-01 1.308064209297299385e-03 -1.299495548009872437e-01 -2.279058694839477539e-01 -1.435177773237228394e-01 1.608836501836776733e-01 1.343343257904052734e-01 -1.442332863807678223e-01 -1.466554254293441772e-01 -2.946518063545227051e-01 6.808156520128250122e-02 -2.138587981462478638e-01 7.841806113719940186e-02 -5.590789914131164551e-01 -2.800236642360687256e-01 -4.607703387737274170e-01 -4.744921922683715820e-01 -1.619996726512908936e-01
-3.342114388942718506e-01 1.328370720148086548e-01 2.854618728160858154e-01 1.151574328541755676e-01 -5.269315838813781738e-01 3.152440860867500305e-02 2.963649295270442963e-02 -2.478251308202743530e-01 -1.701562665402889252e-02 -4.942318797111511230e-01 -8.951538801193237305e-02 2.954076044261455536e-02 8.163270354270935059e-02 1.054122000932693481e-01 -2.875989377498626709e-01 -8.177340775728225708e-02 -3.031920492649078369e-01 -2.570573091506958008e-01 -1.333164274692535400e-01 1.165897548198699951e-01 -1.994484812021255493e-01 -3.756672143936157227e-01 -6.853941082954406738e-02 1.885392814874649048e-01 1.594044566154479980e-01 1.772843748331069946e-01 -1.454167217016220093e-01 8.530429750680923462e-02 -3.078415691852569580e-01 5.683403462171554565e-02 2.052481174468994141e-01 -3.636050224304199219e-01 1.289677321910858154e-01 -1.624603755772113800e-02 1.275430023670196533e-01 2.154395431280136108e-01 -2.382891625165939331e-01 -3.708384335041046143e-01 -1.792539954185485840e-01 -1.785569489002227783e-01 -5.539961457252502441e-01 -1.766520142555236816e-01 -1.228298470377922058e-01 4.877084493637084961e-02 4.756729677319526672e-02 -3.671170771121978760e-02 2.032158076763153076e-01 -1.042358577251434326e-01 -6.437465548515319824e-01 2.101385593414306641e-01 -1.139628216624259949e-01 -2.736320197582244873e-01 -6.280407905578613281e-01 -8.477143943309783936e-02 2.138601541519165039e-01 1.633577793836593628e-01 -9.421484917402267456e-02 -2.958013713359832764e-01 5.701825022697448730e-02 7.718952000141143799e-02 -1.507370918989181519e-01 -1.967478692531585693e-01 -2.247200533747673035e-02 -1.867899745702743530e-01
-6.590747088193893433e-02 -9.375131130218505859e-02 -5.489223599433898926e-01 7.866373658180236816e-02 1.385462353937327862e-03 -2.123181521892547607e-01 -3.002490997314453125e-01 -1.040638461709022522e-01 -4.491695668548345566e-03 -1.910288035869598389e-01 2.280260920524597168e-01 1.423358321189880371e-01 -6.152198091149330139e-02 5.657258257269859314e-02 -3.784962296485900879e-01 -3.038457930088043213e-01 5.262297391891479492e-02 2.038784176111221313e-01 -2.461695075035095215e-01 1.641140319406986237e-02 1.953640282154083252e-01 5.178251862525939941e-02 -4.522454738616943359e-01 1.838075518608093262e-01 -2.730711102485656738e-01 4.271541163325309753e-02 1.534400284290313721e-01 1.273734122514724731e-01 1.026809811592102051e-01 1.442471798509359360e-02 -1.090465188026428223e-01 1.366107016801834106e-01 -3.491521775722503662e-01 -1.619664430618286133e-01 -2.183034569025039673e-01 -6.169960498809814453e-01 -4.764221310615539551e-01 3.527489677071571350e-02 -1.288609057664871216e-01 6.460115779191255569e-03 6.223140656948089600e-02 1.822276413440704346e-01 3.588155806064605713e-01 5.401303991675376892e-02 9.170785546302795410e-02 -1.844103336334228516e-01 -1.837340146303176880e-01 2.344868630170822144e-01 1.908382475376129150e-01 -1.874442845582962036e-01 -2.057857811450958252e-01 -9.167908132076263428e-02 1.428217291831970215e-01 8.031360805034637451e-02 2.178857028484344482e-01 7.291882485151290894e-02 2.837955392897129059e-02 1.198412850499153137e-01 -1.756933182477951050e-01 -4.827720224857330322e-01 -1.612239032983779907e-01 -1.247285977005958557e-01 7.616230100393295288e-02 3.367000445723533630e-02
-9.123840928077697754e-02 -9.975814074277877808e-02 -1.429167091846466064e-01 -4.861504435539245605e-01 8.311397582292556763e-02 -7.798426598310470581e-02 -4.340517222881317139e-01 -4.604762494564056396e-01 1.389728784561157227e-01 1.701307715848088264e-03 -2.722729742527008057e-01 8.676221221685409546e-02 2.182115763425827026e-01 -4.032614231109619141e-01 -2.700739800930023193e-01 1.736451238393783569e-01 -5.835739374160766602e-01 -8.596606552600860596e-03 -3.357008993625640869e-01 -1.853103786706924438e-01 1.600136160850524902e-01 -4.870211184024810791e-01 3.859791457653045654e-01 5.263116583228111267e-02 1.837195456027984619e-01 -5.088439583778381348e-01 -3.117840588092803955e-01 -1.818249523639678955e-01 -1.493424028158187866e-01 -5.217409343458712101e-04 4.035963118076324463e-02 -3.901208341121673584e-01 -3.011235296726226807e-01 -1.017373800277709961e-01 1.610226929187774658e-02 -8.819724619388580322e-02 -2.604665160179138184e-01 2.574659883975982666e-01 -2.466125190258026123e-01 1.473806649446487427e-01 -2.528284490108489990e-01 1.189365759491920471e-01 9.430222958326339722e-02 -2.790667116641998291e-01 -2.682410478591918945e-01 1.353693306446075439e-01 -3.880076110363006592e-01 -2.889042198657989502e-01 -4.036587849259376526e-02 3.455381095409393311e-02 6.678488850593566895e-02 -3.878358006477355957e-01 2.143065184354782104e-01 8.778883144259452820e-03 2.021026313304901123e-01 -1.759005486965179443e-01 -7.976914942264556885e-02 1.811190545558929443e-01 -3.817545473575592041e-01 1.508732289075851440e-01 1.619332283735275269e-01 2.356335818767547607e-01 2.256186902523040771e-01 -4.156090915203094482e-01
1.650315821170806885e-01 -1.323149800300598145e-01 5.444540455937385559e-02 -2.370160967111587524e-01 -2.040604650974273682e-01 -3.630225360393524170e-01 2.062492072582244873e-01 1.184627115726470947e-01 -3.231994807720184326e-01 2.162163257598876953e-01 -1.004689931869506836e-01 1.570487469434738159e-01 2.706880569458007812e-01 -1.195782497525215149e-01 5.927061289548873901e-02 2.038732916116714478e-02 -3.007151484489440918e-01 -2.986297607421875000e-01 2.036036998033523560e-01 1.988653391599655151e-01 -5.461212992668151855e-02 3.612591028213500977e-01 -3.733670338988304138e-02 -2.826568186283111572e-01 -5.300134420394897461e-01 1.610533446073532104e-01 5.292129144072532654e-02 1.324878484010696411e-01 -8.345177769660949707e-02 1.158367283642292023e-02 -4.320654273033142090e-01 -3.736971691250801086e-02 1.867718100547790527e-01 2.454592585563659668e-01 1.787507981061935425e-01 8.542197942733764648e-02 -1.146009005606174469e-02 1.807065308094024658e-01 -3.065449297428131104e-01 5.580415949225425720e-02 1.473318636417388916e-01 -1.480783373117446899e-01 -2.609854042530059814e-01 -6.541611999273300171e-02 -8.432356268167495728e-02 -4.828333854675292969e-01 1.280787438154220581e-01 -5.941373482346534729e-02 -1.233555823564529419e-01 1.492021381855010986e-01 9.476974606513977051e-02 -2.868158519268035889e-01 -4.089114367961883545e-01 -2.227393686771392822e-01 1.755460202693939209e-01 2.081163227558135986e-01 -3.620326519012451172e-01 -2.338556200265884399e-01 1.680929064750671387e-01 -1.675511710345745087e-02 9.355220198631286621e-02 -2.749419510364532471e-01 -3.165886998176574707e-01 8.806634694337844849e-02
-1.766583919525146484e-01 1.343035399913787842e-01 -7.009562570601701736e-03 1.022552028298377991e-01 -1.370967924594879150e-02 -7.113499194383621216e-02 1.117407679557800293e-01 1.545308344066143036e-02 1.935025304555892944e-01 -6.743691116571426392e-02 -1.477979868650436401e-01 9.578654170036315918e-02 -4.920283555984497070e-01 2.222836762666702271e-01 7.959493249654769897e-02 -2.605381309986114502e-01 -3.642092347145080566e-01 -1.993982493877410889e-01 -1.777189224958419800e-01 -1.779791861772537231e-01 -5.228783488273620605e-01 -6.077568605542182922e-02 -3.029905855655670166e-01 -8.329390734434127808e-02 -1.340478509664535522e-01 -2.024715244770050049e-01 1.510127168148756027e-02 -2.534992992877960205e-01 1.697002649307250977e-01 1.788395792245864868e-01 7.925599813461303711e-02 -3.973148763179779053e-01 2.917106635868549347e-02 -4.375357925891876221e-02 2.019867002964019775e-01 -5.892435461282730103e-02 4.856388643383979797e-02 -2.508982419967651367e-01 8.444081246852874756e-02 9.658659249544143677e-02 3.511624876409769058e-03 9.731648117303848267e-02 -1.440680921077728271e-01 -5.163477063179016113e-01 -1.990654915571212769e-01 -2.551215887069702148e-01 -3.947179615497589111e-01 6.109275668859481812e-02 -2.350138127803802490e-02 4.758328199386596680e-02 -1.513002365827560425e-01 3.022988438606262207e-01 1.862653642892837524e-01 -3.405525982379913330e-01 -2.188453376293182373e-01 -4.939196109771728516e-01 1.588165611028671265e-01 2.103573828935623169e-02 5.165456607937812805e-02 -6.324519515037536621e-01 -1.529485136270523071e-01 1.780221015214920044e-01 1.711137890815734863e-01 1.030762027949094772e-02
-2.858453392982482910e-01 4.036523401737213135e-02 1.456473022699356079e-01 -9.197686798870563507e-03 -8.506058901548385620e-02 6.164919957518577576e-02 1.598519831895828247e-01 1.238833516836166382e-01 5.507406964898109436e-02 -6.086558103561401367e-01 1.839675381779670715e-02 -4.256924092769622803e-01 -8.543923497200012207e-02 3.486067289486527443e-03 4.839198291301727295e-02 -1.903763711452484131e-01 9.836943447589874268e-02 8.043611794710159302e-02 -9.469828009605407715e-02 -3.580843210220336914e-01 -2.327082604169845581e-01 -1.044496446847915649e-01 6.643953174352645874e-02 4.261879250407218933e-02 3.889422491192817688e-02 1.428753882646560669e-01 2.356659173965454102e-01 1.201169863343238831e-01 -4.012489691376686096e-02 -4.844273626804351807e-01 1.643853485584259033e-01 -6.268443912267684937e-02 -1.087476685643196106e-01 -2.848202586174011230e-01 3.946339711546897888e-02 -1.043867692351341248e-01 -3.659731745719909668e-01 1.039385274052619934e-01 3.419187068939208984e-01 1.019267290830612183e-01 -1.183189526200294495e-01 2.177992463111877441e-02 -2.029651962220668793e-02 -3.832603991031646729e-02 1.012711077928543091e-01 -2.495136260986328125e-01 1.883065700531005859e-01 8.626870810985565186e-02 -1.602735668420791626e-01 -7.714891433715820312e-02 2.123792916536331177e-01 -6.199491024017333984e-01 -2.377149760723114014e-01 -2.796637713909149170e-01 -2.766063213348388672e-01 -2.562006413936614990e-01 -7.220403105020523071e-02 -9.955578297376632690e-02 8.915951848030090332e-02 -1.694968342781066895e-02 -3.383769989013671875e-01 -3.712142705917358398e-01 3.984454274177551270e-02 3.537428677082061768e-01
